{"learner":{"attributes":{"scikit_learn":"{\"_estimator_type\": \"classifier\"}"},"feature_names":[],"feature_types":[],"gradient_booster":{"model":{"cats":{"enc":[],"feature_segments":[],"sorted_idx":[]},"gbtree_model_param":{"num_parallel_tree":"1","num_trees":"200"},"iteration_indptr":[0,1,2,3,4,5,6,7,8,9,10,11,12,13,14,15,16,17,18,19,20,21,22,23,24,25,26,27,28,29,30,31,32,33,34,35,36,37,38,39,40,41,42,43,44,45,46,47,48,49,50,51,52,53,54,55,56,57,58,59,60,61,62,63,64,65,66,67,68,69,70,71,72,73,74,75,76,77,78,79,80,81,82,83,84,85,86,87,88,89,90,91,92,93,94,95,96,97,98,99,100,101,102,103,104,105,106,107,108,109,110,111,112,113,114,115,116,117,118,119,120,121,122,123,124,125,126,127,128,129,130,131,132,133,134,135,136,137,138,139,140,141,142,143,144,145,146,147,148,149,150,151,152,153,154,155,156,157,158,159,160,161,162,163,164,165,166,167,168,169,170,171,172,173,174,175,176,177,178,179,180,181,182,183,184,185,186,187,188,189,190,191,192,193,194,195,196,197,198,199,200],"tree_info":[0,0,0,0,0,0,0,0,0,0,0,0,0,0,0,0,0,0,0,0,0,0,0,0,0,0,0,0,0,0,0,0,0,0,0,0,0,0,0,0,0,0,0,0,0,0,0,0,0,0,0,0,0,0,0,0,0,0,0,0,0,0,0,0,0,0,0,0,0,0,0,0,0,0,0,0,0,0,0,0,0,0,0,0,0,0,0,0,0,0,0,0,0,0,0,0,0,0,0,0,0,0,0,0,0,0,0,0,0,0,0,0,0,0,0,0,0,0,0,0,0,0,0,0,0,0,0,0,0,0,0,0,0,0,0,0,0,0,0,0,0,0,0,0,0,0,0,0,0,0,0,0,0,0,0,0,0,0,0,0,0,0,0,0,0,0,0,0,0,0,0,0,0,0,0,0,0,0,0,0,0,0,0,0,0,0,0,0,0,0,0,0,0,0,0,0,0,0,0,0],"trees":[{"base_weights":[1.1363734E-2,-7.719107E-1,6.442802E-1,-8.977497E-1,5.9321356E-1,3.7662724E-1,1.3248793E0,-5.8954304E-1,-1.5863055E0,-9.18776E-2,1.1726787E0,5.0643456E-1,-1.3130395E0,-1.911739E-1,1.4801407E0,1.2190281E-2,-4.357803E-2,1.3354013E-2,-9.1085665E-2,9.4331026E-2,1.692312E-4,1.1504635E-2,5.8570046E-2,1.7666569E-2,-9.827833E-2,2.7617468E-3,-2.075931E-2,2.8598616E-2,8.449051E-2],"categories":[],"categories_nodes":[],"categories_segments":[],"categories_sizes":[],"default_left":[0,0,0,0,0,0,0,0,0,0,0,0,0,0,0,0,0,0,0,0,0,0,0,0,0,0,0,0,0],"id":0,"left_children":[1,3,5,7,9,11,13,15,17,-1,19,21,23,25,27,-1,-1,-1,-1,-1,-1,-1,-1,-1,-1,-1,-1,-1,-1],"loss_changes":[1.4997749E3,2.334306E2,3.0302954E2,2.5993707E2,1.6590207E2,2.6512485E2,1.1209534E2,2.0272327E2,1.6813934E2,0E0,7.769495E1,2.0463242E2,9.5946E1,2.7227125E0,7.84043E1,0E0,0E0,0E0,0E0,0E0,0E0,0E0,0E0,0E0,0E0,0E0,0E0,0E0,0E0],"parents":[2147483647,0,0,1,1,2,2,3,3,4,4,5,5,6,6,7,7,8,8,10,10,11,11,12,12,13,13,14,14],"right_children":[2,4,6,8,10,12,14,16,18,-1,20,22,24,26,28,-1,-1,-1,-1,-1,-1,-1,-1,-1,-1,-1,-1,-1,-1],"split_conditions":[-8E-1,9.2E0,8.3E0,3.2E-3,1.162E2,1.208E2,-1E1,-2.5E0,3.9E1,-9.18776E-2,4.38E-2,5.89E-1,3.508E-1,3.402E-1,5E-1,1.2190281E-2,-4.357803E-2,1.3354013E-2,-9.1085665E-2,9.4331026E-2,1.692312E-4,1.1504635E-2,5.8570046E-2,1.7666569E-2,-9.827833E-2,2.7617468E-3,-2.075931E-2,2.8598616E-2,8.449051E-2],"split_indices":[137,9,137,95,0,22,136,88,4,0,74,115,38,13,21,0,0,0,0,0,0,0,0,0,0,0,0,0,0],"split_type":[0,0,0,0,0,0,0,0,0,0,0,0,0,0,0,0,0,0,0,0,0,0,0,0,0,0,0,0,0],"sum_hessian":[3.0214033E3,1.3497601E3,1.6716433E3,1.2368011E3,1.12959E2,1.2025635E3,4.6907974E2,8.574388E2,3.793623E2,2.0742472E1,9.221653E1,1.1183441E3,8.421944E1,4.323431E1,4.2584543E2,2.1642145E2,6.4101733E2,4.248458E1,3.3687775E2,5.622959E1,3.598694E1,7.924624E2,3.258817E2,2.3741383E1,6.047805E1,2.0242653E1,2.2991655E1,8.172034E1,3.441251E2],"tree_param":{"num_deleted":"0","num_feature":"155","num_nodes":"29","size_leaf_vector":"1"}},{"base_weights":[-6.2677725E-3,-5.42545E-1,7.123158E-1,1.23411484E-1,-8.2016504E-1,-5.082138E-1,8.8662446E-1,1.4018701E0,-1.2663737E-1,-9.5369613E-1,4.405521E-1,-1.4666892E0,7.879553E-1,1.7610295E0,7.411132E-1,8.562494E-3,9.312783E-2,-5.709199E-2,1.0979264E-2,-5.3239863E-2,8.897884E-3,5.1553454E-2,-6.2183905E-2,5.466671E-3,-9.8345E-2,9.02429E-2,-7.521166E-3,9.472908E-2,3.692579E-2,-2.6859868E-2,4.3595437E-2],"categories":[],"categories_nodes":[],"categories_segments":[],"categories_sizes":[],"default_left":[0,0,0,0,0,0,0,0,0,0,0,0,0,0,0,0,0,0,0,0,0,0,0,0,0,0,0,0,0,0,0],"id":1,"left_children":[1,3,5,7,9,11,13,15,17,19,21,23,25,27,29,-1,-1,-1,-1,-1,-1,-1,-1,-1,-1,-1,-1,-1,-1,-1,-1],"loss_changes":[1.1701971E3,3.2213776E2,2.7711902E2,1.649804E2,2.0789691E2,2.0521495E2,1.4072803E2,4.6200424E1,1.5230125E2,1.406029E2,1.2047325E2,7.598041E1,6.854257E1,1.7759796E1,1.6465723E2,0E0,0E0,0E0,0E0,0E0,0E0,0E0,0E0,0E0,0E0,0E0,0E0,0E0,0E0,0E0,0E0],"parents":[2147483647,0,0,1,1,2,2,3,3,4,4,5,5,6,6,7,7,8,8,9,9,10,10,11,11,12,12,13,13,14,14],"right_children":[2,4,6,8,10,12,14,16,18,20,22,24,26,28,30,-1,-1,-1,-1,-1,-1,-1,-1,-1,-1,-1,-1,-1,-1,-1,-1],"split_conditions":[6E-1,-3E-1,-1.31E1,-1E0,6.2E-2,1.7E0,3.294E-1,-2.8E0,4.13E1,5.2E0,1.58E1,4.1E0,1.3E0,6.2E0,4E-1,8.562494E-3,9.312783E-2,-5.709199E-2,1.0979264E-2,-5.3239863E-2,8.897884E-3,5.1553454E-2,-6.2183905E-2,5.466671E-3,-9.8345E-2,9.02429E-2,-7.521166E-3,9.472908E-2,3.692579E-2,-2.6859868E-2,4.3595437E-2],"split_indices":[135,136,143,35,86,98,49,135,51,76,44,29,94,69,21,0,0,0,0,0,0,0,0,0,0,0,0,0,0,0,0],"split_type":[0,0,0,0,0,0,0,0,0,0,0,0,0,0,0,0,0,0,0,0,0,0,0,0,0,0,0,0,0,0,0],"sum_hessian":[3.0328481E3,1.7374094E3,1.2954388E3,5.1097925E2,1.2264302E3,1.6104974E2,1.134389E3,8.24112E1,4.2856805E2,1.1097705E3,1.1665966E2,9.265614E1,6.83936E1,1.5818486E2,9.7620416E2,2.3490477E1,5.8920727E1,1.0818718E2,3.203809E2,1.01106793E3,9.870251E1,8.716927E1,2.9490393E1,2.2458624E1,7.019752E1,3.219288E1,3.620072E1,1.379697E2,2.0215158E1,8.96812E1,8.86523E2],"tree_param":{"num_deleted":"0","num_feature":"155","num_nodes":"31","size_leaf_vector":"1"}},{"base_weights":[-7.0506337E-7,-5.0415254E-1,6.6631436E-1,1.5302342E-1,-7.777741E-1,-3.8645464E-1,8.269995E-1,-7.6957184E-1,4.4201976E-1,-9.152283E-1,5.10646E-1,-1.3393575E0,8.4567326E-1,9.292344E-1,-1.0212537E0,5.8203097E-2,-6.864606E-2,-6.680944E-2,3.7439134E-2,-5.747659E-2,-9.47539E-3,7.785609E-2,-2.3683859E-2,3.4632236E-2,-9.4796844E-2,7.318697E-2,-2.0693777E-2,5.2308686E-2,-8.4260275E-4,-9.6057706E-2,1.658388E-2],"categories":[],"categories_nodes":[],"categories_segments":[],"categories_sizes":[],"default_left":[0,0,0,0,0,0,0,0,0,0,0,0,0,0,0,0,0,0,0,0,0,0,0,0,0,0,0,0,0,0,0],"id":2,"left_children":[1,3,5,7,9,11,13,15,17,19,21,23,25,27,29,-1,-1,-1,-1,-1,-1,-1,-1,-1,-1,-1,-1,-1,-1,-1,-1],"loss_changes":[1.01375824E3,3.0957184E2,2.2069434E2,1.3551509E2,2.1617169E2,2.0567203E2,2.150885E2,1.4456847E2,2.1293832E2,1.8563562E2,1.2354731E2,1.1471501E2,6.1258263E1,1.1900116E2,7.4932816E1,0E0,0E0,0E0,0E0,0E0,0E0,0E0,0E0,0E0,0E0,0E0,0E0,0E0,0E0,0E0,0E0],"parents":[2147483647,0,0,1,1,2,2,3,3,4,4,5,5,6,6,7,7,8,8,9,9,10,10,11,11,12,12,13,13,14,14],"right_children":[2,4,6,8,10,12,14,16,18,20,22,24,26,28,30,-1,-1,-1,-1,-1,-1,-1,-1,-1,-1,-1,-1,-1,-1,-1,-1],"split_conditions":[6E-1,-3E-1,-1.31E1,6.8E0,6.2E-2,1.7E0,4.735E1,-3.6E0,-5.615E-2,4.48E1,-7E-3,7.1E0,3.774E-1,7.02E-1,8.8E0,5.8203097E-2,-6.864606E-2,-6.680944E-2,3.7439134E-2,-5.747659E-2,-9.47539E-3,7.785609E-2,-2.3683859E-2,3.4632236E-2,-9.4796844E-2,7.318697E-2,-2.0693777E-2,5.2308686E-2,-8.4260275E-4,-9.6057706E-2,1.658388E-2],"split_indices":[135,136,143,42,86,98,62,87,97,15,141,53,13,125,6,0,0,0,0,0,0,0,0,0,0,0,0,0,0,0,0],"split_type":[0,0,0,0,0,0,0,0,0,0,0,0,0,0,0,0,0,0,0,0,0,0,0,0,0,0,0,0,0,0,0],"sum_hessian":[3.014062E3,1.716528E3,1.297534E3,5.0432047E2,1.2122075E3,1.710348E2,1.1264991E3,1.1908766E2,3.852328E2,1.0962249E3,1.15982635E2,9.6576355E1,7.445846E1,1.0686525E3,5.7846794E1,2.76825E1,9.140517E1,5.545221E1,3.2978058E2,8.272764E2,2.689485E2,5.5898586E1,6.008405E1,2.0466915E1,7.6109436E1,4.99973E1,2.4461159E1,9.513762E2,1.1727621E2,3.445721E1,2.3389585E1],"tree_param":{"num_deleted":"0","num_feature":"155","num_nodes":"31","size_leaf_vector":"1"}},{"base_weights":[8.11921E-3,-4.791142E-1,6.4810073E-1,1.4065084E-1,-7.4053574E-1,7.5386935E-1,-8.510469E-1,5.411103E-1,-5.330418E-1,-8.6565644E-1,4.5508417E-1,-4.1457632E-1,8.8429826E-1,5.3004056E-2,-1.6071516E0,4.9361765E-2,-1.9645646E-2,-5.903057E-2,5.995962E-2,-5.437817E-2,-8.494402E-3,-1.41958E-2,8.936784E-2,-4.982089E-2,8.645E-2,5.6126047E-2,1.8693795E-2,-9.567784E-2,-4.8622772E-2],"categories":[],"categories_nodes":[],"categories_segments":[],"categories_sizes":[],"default_left":[0,0,0,0,0,0,0,0,0,0,0,0,0,0,0,0,0,0,0,0,0,0,0,0,0,0,0,0,0],"id":3,"left_children":[1,3,5,7,9,11,13,15,17,19,21,23,25,-1,27,-1,-1,-1,-1,-1,-1,-1,-1,-1,-1,-1,-1,-1,-1],"loss_changes":[9.40382E2,2.7782895E2,2.0798041E2,1.3787721E2,1.812182E2,1.8679077E2,1.287568E2,1.346796E2,2.1625609E2,1.6755182E2,1.1505237E2,1.5700723E2,1.3191058E2,0E0,7.0876007E0,0E0,0E0,0E0,0E0,0E0,0E0,0E0,0E0,0E0,0E0,0E0,0E0,0E0,0E0],"parents":[2147483647,0,0,1,1,2,2,3,3,4,4,5,5,6,6,7,7,8,8,9,9,10,10,11,11,12,12,14,14],"right_children":[2,4,6,8,10,12,14,16,18,20,22,24,26,-1,28,-1,-1,-1,-1,-1,-1,-1,-1,-1,-1,-1,-1,-1,-1],"split_conditions":[6E-1,-3E-1,5.21E-1,8E-1,6.2E-2,4E-1,7.747E-1,3.544E-1,1.02E1,4.48E1,4.818E-1,1.189E2,1.9E0,5.3004056E-2,4.756E-1,4.9361765E-2,-1.9645646E-2,-5.903057E-2,5.995962E-2,-5.437817E-2,-8.494402E-3,-1.41958E-2,8.936784E-2,-4.982089E-2,8.645E-2,5.6126047E-2,1.8693795E-2,-9.567784E-2,-4.8622772E-2],"split_indices":[135,136,127,77,86,21,14,13,9,15,1,11,130,0,1,0,0,0,0,0,0,0,0,0,0,0,0,0,0],"split_type":[0,0,0,0,0,0,0,0,0,0,0,0,0,0,0,0,0,0,0,0,0,0,0,0,0,0,0,0,0],"sum_hessian":[3.0115186E3,1.7096455E3,1.3018732E3,5.069071E2,1.2027384E3,1.2173162E3,8.4556915E1,3.1863712E2,1.8826996E2,1.0896749E3,1.130635E2,1.2141665E2,1.0958995E3,2.3554724E1,6.100219E1,2.1592467E2,1.02712456E2,1.3771342E2,5.055654E1,8.2477734E2,2.648976E2,7.3494965E1,3.9568535E1,9.652104E1,2.4895603E1,7.448757E2,3.510239E2,3.7891922E1,2.3110268E1],"tree_param":{"num_deleted":"0","num_feature":"155","num_nodes":"29","size_leaf_vector":"1"}},{"base_weights":[-8.353677E-3,-4.986846E-1,6.212591E-1,-6.3748837E-1,5.0371164E-1,7.324408E-1,-8.613128E-1,-7.8170437E-1,2.756454E-1,-8.843667E-2,8.25461E-1,5.565067E-1,1.450875E0,5.2618492E-2,-1.5537422E0,-1.28450915E-2,-5.6854635E-2,8.880737E-2,-8.680892E-3,6.5160446E-2,-4.892367E-2,3.9648533E-2,-2.7730173E-2,-5.9488295E-3,8.7387875E-2,-9.168001E-2,-4.048172E-2],"categories":[],"categories_nodes":[],"categories_segments":[],"categories_sizes":[],"default_left":[0,0,0,0,0,0,0,0,0,0,0,0,0,0,0,0,0,0,0,0,0,0,0,0,0,0,0],"id":4,"left_children":[1,3,5,7,9,11,13,15,17,-1,19,21,23,-1,25,-1,-1,-1,-1,-1,-1,-1,-1,-1,-1,-1,-1],"loss_changes":[9.248011E2,2.3510095E2,2.1732602E2,1.957201E2,1.5275887E2,1.5172607E2,1.2552825E2,2.3745538E2,1.3827159E2,0E0,1.5925287E2,2.5971738E2,1.1234152E2,0E0,9.997055E0,0E0,0E0,0E0,0E0,0E0,0E0,0E0,0E0,0E0,0E0,0E0,0E0],"parents":[2147483647,0,0,1,1,2,2,3,3,4,4,5,5,6,6,7,7,8,8,10,10,11,11,12,12,14,14],"right_children":[2,4,6,8,10,12,14,16,18,-1,20,22,24,-1,26,-1,-1,-1,-1,-1,-1,-1,-1,-1,-1,-1,-1],"split_conditions":[5E-1,5.4E0,5.21E-1,4E0,-4E-1,1.205E1,7.747E-1,-3.65E0,3.425E-1,-8.843667E-2,4.81E1,6.25E0,-1E1,5.2618492E-2,2.89E-2,-1.28450915E-2,-5.6854635E-2,8.880737E-2,-8.680892E-3,6.5160446E-2,-4.892367E-2,3.9648533E-2,-2.7730173E-2,-5.9488295E-3,8.7387875E-2,-9.168001E-2,-4.048172E-2],"split_indices":[135,76,127,31,82,103,14,94,13,0,15,94,136,0,96,0,0,0,0,0,0,0,0,0,0,0,0],"split_type":[0,0,0,0,0,0,0,0,0,0,0,0,0,0,0,0,0,0,0,0,0,0,0,0,0,0,0],"sum_hessian":[2.991803E3,1.6826195E3,1.3091833E3,1.4790408E3,2.0357872E2,1.2191086E3,9.007476E1,1.2780302E3,2.0101062E2,2.3940899E1,1.7963783E2,9.8270386E2,2.3640474E2,2.3464272E1,6.661048E1,5.179804E2,7.600498E2,4.521207E1,1.5579855E2,1.4268257E2,3.6955254E1,8.111083E2,1.7159558E2,3.752019E1,1.9888454E2,4.5789017E1,2.0821466E1],"tree_param":{"num_deleted":"0","num_feature":"155","num_nodes":"27","size_leaf_vector":"1"}},{"base_weights":[9.921344E-3,5.436429E-1,-4.5628065E-1,1.0345528E0,2.953403E-1,6.687774E-1,-5.560438E-1,-4.34413E-1,1.1854736E0,4.3993694E-1,-8.8682115E-1,-4.0134057E-2,1.2812146E0,-6.596401E-1,4.8087218E-1,-6.239288E-2,1.5112159E-2,-2.233548E-2,6.6567354E-2,2.7476754E-3,4.41897E-2,3.2395657E-2,-8.505333E-2,8.9233056E-2,1.4616841E-2,1.6422192E-2,-3.9437722E-2,-2.1901198E-2,9.5056795E-2],"categories":[],"categories_nodes":[],"categories_segments":[],"categories_sizes":[],"default_left":[0,0,0,0,0,0,0,0,0,0,0,0,0,0,0,0,0,0,0,0,0,0,0,0,0,0,0,0,0],"id":5,"left_children":[1,3,5,7,9,11,13,15,17,19,21,-1,23,25,27,-1,-1,-1,-1,-1,-1,-1,-1,-1,-1,-1,-1,-1,-1],"loss_changes":[7.4962524E2,1.6998944E2,1.8111127E2,1.05709045E2,1.6064854E2,1.20739395E2,1.5949817E2,2.8185322E1,1.0341376E2,1.4232124E2,1.3064111E2,0E0,4.46239E1,1.7234863E2,1.7854987E2,0E0,0E0,0E0,0E0,0E0,0E0,0E0,0E0,0E0,0E0,0E0,0E0,0E0,0E0],"parents":[2147483647,0,0,1,1,2,2,3,3,4,4,5,5,6,6,7,7,8,8,9,9,10,10,12,12,13,13,14,14],"right_children":[2,4,6,8,10,12,14,16,18,20,22,-1,24,26,28,-1,-1,-1,-1,-1,-1,-1,-1,-1,-1,-1,-1,-1,-1],"split_conditions":[-3E-1,-4.7E0,-7.1E-2,-1E1,2.03E0,1.127E2,8.34E-1,-6E-1,7.444E-1,1.6E-3,7.6845E-1,-4.0134057E-2,1.144E2,-4.3E0,1.159E2,-6.239288E-2,1.5112159E-2,-2.233548E-2,6.6567354E-2,2.7476754E-3,4.41897E-2,3.2395657E-2,-8.505333E-2,8.9233056E-2,1.4616841E-2,1.6422192E-2,-3.9437722E-2,-2.1901198E-2,9.5056795E-2],"split_indices":[136,136,138,136,126,11,39,76,25,84,25,0,36,124,47,0,0,0,0,0,0,0,0,0,0,0,0,0,0],"split_type":[0,0,0,0,0,0,0,0,0,0,0,0,0,0,0,0,0,0,0,0,0,0,0,0,0,0,0,0,0],"sum_hessian":[3.0085269E3,1.4030337E3,1.6054932E3,4.6847736E2,9.345563E2,1.2943196E2,1.4760613E3,4.298815E1,4.2548923E2,8.3419946E2,1.0035683E2,3.7616306E1,9.181566E1,1.3430859E3,1.3297527E2,2.0092297E1,2.2895855E1,3.4287983E1,3.9120123E2,4.4853375E2,3.856657E2,3.4716244E1,6.564059E1,5.943943E1,3.2376225E1,1.5441574E2,1.1886703E3,8.136444E1,5.1610832E1],"tree_param":{"num_deleted":"0","num_feature":"155","num_nodes":"29","size_leaf_vector":"1"}},{"base_weights":[-9.886323E-3,4.9734032E-1,-4.534962E-1,3.3335125E-1,1.2801389E0,5.5984735E-1,-5.9751713E-1,-1.0324194E0,4.6669078E-1,-9.851172E-3,1.5564164E0,-6.003306E-2,9.377254E-1,-7.0427245E-1,4.336461E-1,4.913914E-2,-8.073309E-2,5.6800522E-2,1.0533878E-2,2.773412E-2,8.297451E-2,-2.4447896E-2,6.987571E-2,-4.046228E-2,3.1224925E-2,6.933745E-2,-5.224188E-2],"categories":[],"categories_nodes":[],"categories_segments":[],"categories_sizes":[],"default_left":[0,0,0,0,0,0,0,0,0,0,0,0,0,0,0,0,0,0,0,0,0,0,0,0,0,0,0],"id":6,"left_children":[1,3,5,7,9,11,13,15,17,-1,19,-1,21,23,25,-1,-1,-1,-1,-1,-1,-1,-1,-1,-1,-1,-1],"loss_changes":[6.6888043E2,1.7631558E2,2.3220096E2,2.1002112E2,9.879147E1,1.3384212E2,1.5379648E2,1.2379651E2,1.7859648E2,0E0,1.7885345E1,0E0,1.0964244E2,1.7700714E2,1.879966E2,0E0,0E0,0E0,0E0,0E0,0E0,0E0,0E0,0E0,0E0,0E0,0E0],"parents":[2147483647,0,0,1,1,2,2,3,3,4,4,5,5,6,6,7,7,8,8,10,10,12,12,13,13,14,14],"right_children":[2,4,6,8,10,12,14,16,18,-1,20,-1,22,24,26,-1,-1,-1,-1,-1,-1,-1,-1,-1,-1,-1,-1],"split_conditions":[-3E-1,1.205E1,-3.7E0,4.4875E-1,-4E0,2.24E1,8.34E-1,7.1E0,3.391E-1,-9.851172E-3,-1.8E0,-6.003306E-2,3.401E-1,5.2E0,1.44E1,4.913914E-2,-8.073309E-2,5.6800522E-2,1.0533878E-2,2.773412E-2,8.297451E-2,-2.4447896E-2,6.987571E-2,-4.046228E-2,3.1224925E-2,6.933745E-2,-5.224188E-2],"split_indices":[136,103,99,59,88,5,39,53,13,0,79,0,49,80,19,0,0,0,0,0,0,0,0,0,0,0,0],"split_type":[0,0,0,0,0,0,0,0,0,0,0,0,0,0,0,0,0,0,0,0,0,0,0,0,0,0,0],"sum_hessian":[2.9687524E3,1.3844236E3,1.584329E3,1.1475192E3,2.3690431E2,1.9600124E2,1.3883278E3,1.0053397E2,1.0469852E3,3.713265E1,1.9977167E2,3.3632366E1,1.6236888E2,1.2590939E3,1.2923386E2,2.203476E1,7.8499214E1,2.8722864E2,7.597566E2,2.028109E1,1.7949057E2,3.9278095E1,1.2309078E2,1.1679814E3,9.111252E1,7.885947E1,5.0374386E1],"tree_param":{"num_deleted":"0","num_feature":"155","num_nodes":"27","size_leaf_vector":"1"}},{"base_weights":[-1.2501458E-2,-3.4859884E-1,7.1573E-1,1.503438E-1,-5.9907186E-1,7.937866E-1,-8.414709E-2,-8.2574475E-1,3.8508117E-1,-9.938788E-1,-3.283361E-1,1.2567599E-1,9.946005E-1,2.2687016E-2,-7.769027E-2,-2.1445893E-2,3.4018084E-2,-8.79993E-2,-3.4491584E-2,9.7325705E-2,-2.0945216E-2,4.423785E-2,-5.8440804E-2,-4.3284004E-3,5.777638E-2],"categories":[],"categories_nodes":[],"categories_segments":[],"categories_sizes":[],"default_left":[0,0,0,0,0,0,0,0,0,0,0,0,0,0,0,0,0,0,0,0,0,0,0,0,0],"id":7,"left_children":[1,3,5,7,9,11,-1,13,15,17,19,21,23,-1,-1,-1,-1,-1,-1,-1,-1,-1,-1,-1,-1],"loss_changes":[7.3117584E2,2.5596315E2,1.7881253E2,1.5722795E2,1.4432532E2,1.21948E2,0E0,1.2576613E2,1.3374603E2,1.2504852E2,1.6816428E2,2.12523E2,1.2298859E2,0E0,0E0,0E0,0E0,0E0,0E0,0E0,0E0,0E0,0E0,0E0,0E0],"parents":[2147483647,0,0,1,1,2,2,3,3,4,4,5,5,7,7,8,8,9,9,10,10,11,11,12,12],"right_children":[2,4,6,8,10,12,-1,14,16,18,20,22,24,-1,-1,-1,-1,-1,-1,-1,-1,-1,-1,-1,-1],"split_conditions":[2.1E0,-3E-1,7.1E0,-1.5E-1,4.6825E-1,-1.84E-2,-8.414709E-2,-4.1E0,1.26E1,7.492E-1,-9.8E0,-1.6E0,4.43E-1,2.2687016E-2,-7.769027E-2,-2.1445893E-2,3.4018084E-2,-8.79993E-2,-3.4491584E-2,9.7325705E-2,-2.0945216E-2,4.423785E-2,-5.8440804E-2,-4.3284004E-3,5.777638E-2],"split_indices":[135,136,67,70,59,73,0,136,19,3,76,72,48,0,0,0,0,0,0,0,0,0,0,0,0],"split_type":[0,0,0,0,0,0,0,0,0,0,0,0,0,0,0,0,0,0,0,0,0,0,0,0,0],"sum_hessian":[2.9840688E3,2.0429326E3,9.411363E2,6.8239795E2,1.3605347E3,9.1297327E2,2.8162985E1,1.3090428E2,5.514937E2,5.505268E2,8.100079E2,2.1232076E2,7.006525E2,4.7498245E1,8.340603E1,1.461111E2,4.053826E2,1.5322484E2,3.9730194E2,2.9233337E1,7.8077454E2,1.3448122E2,7.783953E1,9.0494415E1,6.1015814E2],"tree_param":{"num_deleted":"0","num_feature":"155","num_nodes":"25","size_leaf_vector":"1"}},{"base_weights":[9.993946E-3,-3.8453758E-1,6.6766953E-1,-7.7885437E-1,-9.9293716E-2,1.0112629E0,3.5047606E-1,8.966762E-2,-9.92047E-1,7.5612456E-2,-1.0303761E0,1.2804085E0,3.204377E-1,6.4770585E-1,-4.551995E-1,-8.243123E-2,3.748769E-2,-5.662448E-2,8.59984E-3,-1.4197159E-3,7.67325E-2,3.406999E-2,-6.941432E-2,2.1247527E-2,7.513799E-2,-3.0526215E-2,7.966329E-2,-9.61163E-2,4.0890984E-2,-7.153905E-2,3.49279E-2],"categories":[],"categories_nodes":[],"categories_segments":[],"categories_sizes":[],"default_left":[0,0,0,0,0,0,0,0,0,0,0,0,0,0,0,0,0,0,0,0,0,0,0,0,0,0,0,0,0,0,0],"id":8,"left_children":[1,3,5,7,9,11,13,15,17,19,21,23,25,27,29,-1,-1,-1,-1,-1,-1,-1,-1,-1,-1,-1,-1,-1,-1,-1,-1],"loss_changes":[7.708E2,2.0816125E2,1.20032776E2,1.4468893E2,1.7650856E2,9.747809E1,1.4032867E2,1.7954031E2,1.0309613E2,1.3902208E2,1.0724364E2,7.04892E1,1.8328508E2,1.8938795E2,1.8006471E2,0E0,0E0,0E0,0E0,0E0,0E0,0E0,0E0,0E0,0E0,0E0,0E0,0E0,0E0,0E0,0E0],"parents":[2147483647,0,0,1,1,2,2,3,3,4,4,5,5,6,6,7,7,8,8,9,9,10,10,11,11,12,12,13,13,14,14],"right_children":[2,4,6,8,10,12,14,16,18,20,22,24,26,28,30,-1,-1,-1,-1,-1,-1,-1,-1,-1,-1,-1,-1,-1,-1,-1,-1],"split_conditions":[2.5E0,-5.5E0,3.508E-1,7.501E-1,4.66E1,8.046E-1,4.52E1,1.31E1,5.2E0,6.77E-1,6.6E0,1.082E2,1.05E1,3.2E0,1.28E1,-8.243123E-2,3.748769E-2,-5.662448E-2,8.59984E-3,-1.4197159E-3,7.67325E-2,3.406999E-2,-6.941432E-2,2.1247527E-2,7.513799E-2,-3.0526215E-2,7.966329E-2,-9.61163E-2,4.0890984E-2,-7.153905E-2,3.49279E-2],"split_indices":[137,137,38,50,62,39,40,55,80,118,6,47,137,54,19,0,0,0,0,0,0,0,0,0,0,0,0,0,0,0,0],"split_type":[0,0,0,0,0,0,0,0,0,0,0,0,0,0,0,0,0,0,0,0,0,0,0,0,0,0,0,0,0,0,0],"sum_hessian":[2.9661035E3,1.8539888E3,1.1121149E3,7.760186E2,1.0779702E3,5.3098425E2,5.8113055E2,1.5270988E2,6.233087E2,9.0858984E2,1.6938033E2,3.8036383E2,1.5062042E2,4.2525735E2,1.558732E2,4.099629E1,1.117136E2,5.566342E2,6.66745E1,8.4964197E2,5.8947926E1,2.8736712E1,1.4064362E2,8.013382E1,3.0023E2,8.7367E1,6.325343E1,2.4939444E1,4.003179E2,8.443269E1,7.1440506E1],"tree_param":{"num_deleted":"0","num_feature":"155","num_nodes":"31","size_leaf_vector":"1"}},{"base_weights":[2.2228453E-3,-6.080707E-1,4.0159234E-1,-7.1191156E-1,9.036966E-1,2.7181473E-1,1.2296329E0,-8.856237E-1,-5.7576723E-2,-4.3708544E-2,8.822152E-2,3.589644E-1,-1.0975866E0,1.4401003E0,-2.706351E-2,7.435659E-2,-4.819296E-2,4.308892E-2,-2.688138E-2,1.2260088E-2,7.066598E-2,-9.5331594E-2,1.6135968E-3,8.105771E-3,7.881673E-2],"categories":[],"categories_nodes":[],"categories_segments":[],"categories_sizes":[],"default_left":[0,0,0,0,0,0,0,0,0,0,0,0,0,0,0,0,0,0,0,0,0,0,0,0,0],"id":9,"left_children":[1,3,5,7,9,11,13,15,17,-1,-1,19,21,23,-1,-1,-1,-1,-1,-1,-1,-1,-1,-1,-1],"loss_changes":[7.172499E2,1.838692E2,1.8980914E2,1.23358154E2,1.18859886E2,1.8438455E2,9.146869E1,1.6240607E2,1.0292315E2,0E0,0E0,1.725327E2,8.550675E1,3.6108826E1,0E0,0E0,0E0,0E0,0E0,0E0,0E0,0E0,0E0,0E0,0E0],"parents":[2147483647,0,0,1,1,2,2,3,3,4,4,5,5,6,6,7,7,8,8,11,11,12,12,13,13],"right_children":[2,4,6,8,10,12,14,16,18,-1,-1,20,22,24,-1,-1,-1,-1,-1,-1,-1,-1,-1,-1,-1],"split_conditions":[-2.6E0,6.2E-2,1.205E1,4.893E-1,2.58E1,1.207E2,3.729E-1,-1.54E1,-2.27E1,-4.3708544E-2,8.822152E-2,4.9055E-1,5.52E-1,-4E0,-2.706351E-2,7.435659E-2,-4.819296E-2,4.308892E-2,-2.688138E-2,1.2260088E-2,7.066598E-2,-9.5331594E-2,1.6135968E-3,8.105771E-3,7.881673E-2],"split_indices":[137,86,103,48,52,22,60,20,145,0,0,23,131,80,0,0,0,0,0,0,0,0,0,0,0],"split_type":[0,0,0,0,0,0,0,0,0,0,0,0,0,0,0,0,0,0,0,0,0,0,0,0,0],"sum_hessian":[2.9391929E3,1.1616813E3,1.7775117E3,1.0883156E3,7.3365715E1,1.53949E3,2.3802174E2,8.588404E2,2.2947514E2,2.3732832E1,4.963289E1,1.4491085E3,9.038146E1,2.1332458E2,2.4697163E1,2.6060472E1,8.327799E2,7.781608E1,1.5165906E2,1.3106333E3,1.3847517E2,5.212467E1,3.825679E1,2.1325405E1,1.9199918E2],"tree_param":{"num_deleted":"0","num_feature":"155","num_nodes":"25","size_leaf_vector":"1"}},{"base_weights":[6.3436106E-3,-3.5611996E-1,6.297306E-1,7.5053716E-1,-4.6602622E-1,6.9865614E-1,-8.208081E-1,1.0800569E0,-3.2505296E-2,-8.672333E-2,-4.0363187E-1,5.429439E-1,1.2492121E0,3.269728E-2,-9.5753856E-2,-1.5065008E-3,7.50779E-2,-3.6855076E-2,-6.544854E-3,4.12305E-2,-1.0819089E-2,7.211995E-2,-1.2216148E-3],"categories":[],"categories_nodes":[],"categories_segments":[],"categories_sizes":[],"default_left":[0,0,0,0,0,0,0,0,0,0,0,0,0,0,0,0,0,0,0,0,0,0,0],"id":10,"left_children":[1,3,5,7,9,11,13,15,-1,-1,17,19,21,-1,-1,-1,-1,-1,-1,-1,-1,-1,-1],"loss_changes":[6.590948E2,2.2479234E2,1.0833679E2,7.8654564E1,1.303888E2,8.5660095E1,8.261633E1,6.454202E1,0E0,0E0,1.4516165E2,1.7253976E2,5.5856598E1,0E0,0E0,0E0,0E0,0E0,0E0,0E0,0E0,0E0,0E0],"parents":[2147483647,0,0,1,1,2,2,3,3,4,4,5,5,6,6,7,7,10,10,11,11,12,12],"right_children":[2,4,6,8,10,12,14,16,-1,-1,18,20,22,-1,-1,-1,-1,-1,-1,-1,-1,-1,-1],"split_conditions":[2.5E0,-3.95E0,4.08E-1,1.6E0,4.272E-1,1.205E1,-5.96E-2,1.159E2,-3.2505296E-2,-8.672333E-2,-5.4E0,5E0,1.77E1,3.269728E-2,-9.5753856E-2,-1.5065008E-3,7.50779E-2,-3.6855076E-2,-6.544854E-3,4.12305E-2,-1.0819089E-2,7.211995E-2,-1.2216148E-3],"split_indices":[137,99,38,78,37,103,85,47,0,0,137,72,137,0,0,0,0,0,0,0,0,0,0],"split_type":[0,0,0,0,0,0,0,0,0,0,0,0,0,0,0,0,0,0,0,0,0,0,0],"sum_hessian":[2.912338E3,1.8416057E3,1.0707322E3,1.649094E2,1.6766964E3,1.0234806E3,4.725157E1,1.34161E2,3.0748398E1,7.572111E1,1.6009752E3,8.016365E2,2.2184416E2,2.027486E1,2.6976713E1,3.7103992E1,9.705701E1,7.179309E2,8.830444E2,5.8508875E2,2.165477E2,1.9273729E2,2.9106876E1],"tree_param":{"num_deleted":"0","num_feature":"155","num_nodes":"23","size_leaf_vector":"1"}},{"base_weights":[-1.8502366E-3,-3.5070115E-1,5.948876E-1,6.655292E-1,-4.5296773E-1,9.294283E-1,2.8974384E-1,9.940903E-1,-3.526868E-2,-7.498556E-1,-2.1539325E-1,1.1992996E0,2.577679E-1,-9.1028154E-2,8.935021E-1,7.75785E-2,-2.9377923E-3,9.464738E-3,-4.629848E-2,-8.5528955E-2,-6.198734E-3,-3.0609623E-2,6.636437E-2,-2.840673E-2,7.4574344E-2,7.257172E-2,-1.6916407E-2,7.089142E-2,-2.056135E-2],"categories":[],"categories_nodes":[],"categories_segments":[],"categories_sizes":[],"default_left":[0,0,0,0,0,0,0,0,0,0,0,0,0,0,0,0,0,0,0,0,0,0,0,0,0,0,0,0,0],"id":11,"left_children":[1,3,5,7,9,11,13,15,-1,17,19,21,23,25,27,-1,-1,-1,-1,-1,-1,-1,-1,-1,-1,-1,-1,-1,-1],"loss_changes":[6.042443E2,1.9095837E2,1.0813522E2,7.718531E1,1.16754E2,9.091214E1,1.3012157E2,8.109631E1,0E0,1.22970795E2,1.2572258E2,8.591516E1,1.539447E2,1.3275223E2,1.5124857E2,0E0,0E0,0E0,0E0,0E0,0E0,0E0,0E0,0E0,0E0,0E0,0E0,0E0,0E0],"parents":[2147483647,0,0,1,1,2,2,3,3,4,4,5,5,6,6,7,7,9,9,10,10,11,11,12,12,13,13,14,14],"right_children":[2,4,6,8,10,12,14,16,-1,18,20,22,24,26,28,-1,-1,-1,-1,-1,-1,-1,-1,-1,-1,-1,-1,-1,-1],"split_conditions":[2.5E0,-3.95E0,3.508E-1,9.3E0,-5.4E0,8.046E-1,1.34E1,2E0,-3.526868E-2,-3.04E-2,4.272E-1,-1.1E1,1.05E1,-1.2E1,2.6E0,7.75785E-2,-2.9377923E-3,9.464738E-3,-4.629848E-2,-8.5528955E-2,-6.198734E-3,-3.0609623E-2,6.636437E-2,-2.840673E-2,7.4574344E-2,7.257172E-2,-1.6916407E-2,7.089142E-2,-2.056135E-2],"split_indices":[137,99,38,28,137,39,19,76,0,95,37,117,137,45,80,0,0,0,0,0,0,0,0,0,0,0,0,0,0],"split_type":[0,0,0,0,0,0,0,0,0,0,0,0,0,0,0,0,0,0,0,0,0,0,0,0,0,0,0,0,0],"sum_hessian":[2.8991948E3,1.8306599E3,1.068535E3,1.6592693E2,1.6647329E3,5.0698166E2,5.615534E2,1.3458557E2,3.1341362E1,7.3713983E2,9.2759314E2,3.6001358E2,1.4696808E2,3.4490353E2,2.1664986E2,8.76844E1,4.6901165E1,1.1593153E2,6.212083E2,5.109082E1,8.765023E2,2.3000477E1,3.3701312E2,8.843784E1,5.8530235E1,4.603201E1,2.9887152E2,1.5469362E2,6.195624E1],"tree_param":{"num_deleted":"0","num_feature":"155","num_nodes":"29","size_leaf_vector":"1"}},{"base_weights":[1.366743E-3,-3.405023E-1,5.842706E-1,3.2134396E-1,-4.957997E-1,6.619506E-1,-6.928812E-1,5.7747585E-1,-1.2892599E0,-5.600544E-1,9.5912635E-1,1.0293427E0,2.679119E-1,-9.327892E-2,2.5759323E-2,-4.4153143E-2,4.7827456E-2,-8.3680004E-2,-3.7019335E-2,-3.6715206E-2,-4.3236633E-4,8.443461E-2,-1.4290203E-2,5.6945216E-2,-4.0993683E-2,4.9741443E-2,-1.5363037E-2],"categories":[],"categories_nodes":[],"categories_segments":[],"categories_sizes":[],"default_left":[0,0,0,0,0,0,0,0,0,0,0,0,0,0,0,0,0,0,0,0,0,0,0,0,0,0,0],"id":12,"left_children":[1,3,5,7,9,11,13,15,17,19,21,23,25,-1,-1,-1,-1,-1,-1,-1,-1,-1,-1,-1,-1,-1,-1],"loss_changes":[5.780599E2,1.8824258E2,1.0732086E2,1.4465862E2,1.3938254E2,1.453852E2,9.05891E1,1.6883447E2,6.459152E0,1.361026E2,5.8953293E1,1.07915344E2,2.0663007E2,0E0,0E0,0E0,0E0,0E0,0E0,0E0,0E0,0E0,0E0,0E0,0E0,0E0,0E0],"parents":[2147483647,0,0,1,1,2,2,3,3,4,4,5,5,6,6,7,7,8,8,9,9,10,10,11,11,12,12],"right_children":[2,4,6,8,10,12,14,16,18,20,22,24,26,-1,-1,-1,-1,-1,-1,-1,-1,-1,-1,-1,-1,-1,-1],"split_conditions":[2.5E0,-3.2E0,4.77E1,3.754E-1,7E0,1.15E2,7.544E-1,1.265E1,3.5E-4,4.862E-1,1.28E1,3.31E0,1.77E0,-9.327892E-2,2.5759323E-2,-4.4153143E-2,4.7827456E-2,-8.3680004E-2,-3.7019335E-2,-3.6715206E-2,-4.3236633E-4,8.443461E-2,-1.4290203E-2,5.6945216E-2,-4.0993683E-2,4.9741443E-2,-1.5363037E-2],"split_indices":[137,88,51,24,111,0,39,66,95,1,9,134,126,0,0,0,0,0,0,0,0,0,0,0,0,0,0],"split_type":[0,0,0,0,0,0,0,0,0,0,0,0,0,0,0,0,0,0,0,0,0,0,0,0,0,0,0],"sum_hessian":[2.896181E3,1.8255074E3,1.0706735E3,3.4591776E2,1.4795897E3,1.010563E3,6.0110405E1,2.9982965E2,4.6088104E1,1.4185167E3,6.1072983E1,5.206387E2,4.8992432E2,3.015939E1,2.9951015E1,6.0963634E1,2.3886601E2,2.4160685E1,2.1927422E1,1.0766997E3,3.4181702E2,3.8310577E1,2.2762405E1,4.9249796E2,2.8140717E1,2.161539E2,2.7377042E2],"tree_param":{"num_deleted":"0","num_feature":"155","num_nodes":"27","size_leaf_vector":"1"}},{"base_weights":[-7.47841E-3,-5.302704E-1,3.3575198E-1,-6.255692E-1,8.032014E-1,2.1907122E-1,1.1039606E0,-6.789874E-1,9.787019E-2,-4.6340838E-2,8.400758E-2,3.1578425E-1,-6.822992E-1,-1.4837584E-2,1.3698982E0,-4.301488E-2,-0E0,4.7281887E-2,7.601575E-3,-7.186019E-2,1.6066622E-2,7.226027E-2,3.2995775E-2],"categories":[],"categories_nodes":[],"categories_segments":[],"categories_sizes":[],"default_left":[0,0,0,0,0,0,0,0,0,0,0,0,0,0,0,0,0,0,0,0,0,0,0],"id":13,"left_children":[1,3,5,7,9,11,13,15,-1,-1,-1,17,19,-1,21,-1,-1,-1,-1,-1,-1,-1,-1],"loss_changes":[5.1935376E2,1.4673361E2,1.553888E2,1.499862E2,1.2040381E2,1.3267703E2,8.673129E1,1.2944357E2,0E0,0E0,0E0,1.4085773E2,1.131086E2,0E0,7.374817E0,0E0,0E0,0E0,0E0,0E0,0E0,0E0,0E0],"parents":[2147483647,0,0,1,1,2,2,3,3,4,4,5,5,6,6,7,7,11,11,12,12,14,14],"right_children":[2,4,6,8,10,12,14,16,-1,-1,-1,18,20,-1,22,-1,-1,-1,-1,-1,-1,-1,-1],"split_conditions":[-2.6E0,6.2E-2,1.205E1,6.2E0,2.58E1,8.7E0,-1E1,4.893E-1,9.787019E-2,-4.6340838E-2,8.400758E-2,-4.55E0,4.574E-1,-1.4837584E-2,3.798E-1,-4.301488E-2,-0E0,4.7281887E-2,7.601575E-3,-7.186019E-2,1.6066622E-2,7.226027E-2,3.2995775E-2],"split_indices":[137,86,103,92,52,83,136,48,0,0,0,69,48,0,38,0,0,0,0,0,0,0,0],"split_type":[0,0,0,0,0,0,0,0,0,0,0,0,0,0,0,0,0,0,0,0,0,0,0],"sum_hessian":[2.8898074E3,1.1454619E3,1.7443455E3,1.0704006E3,7.5061295E1,1.517134E3,2.2721143E2,1.0503463E3,2.0054247E1,2.5019596E1,5.0041702E1,1.3718E3,1.4533398E2,3.591781E1,1.9129362E2,8.284155E2,2.2193083E2,2.804568E2,1.0913433E3,8.273622E1,6.2597763E1,1.7043988E2,2.0853739E1],"tree_param":{"num_deleted":"0","num_feature":"155","num_nodes":"23","size_leaf_vector":"1"}},{"base_weights":[-7.4657745E-4,-3.155377E-1,5.253424E-1,6.2767035E-1,-4.0665904E-1,1.1643159E0,3.6516592E-1,1.0246164E0,-3.0899992E-2,-2.905264E-1,-1.0211858E0,1.3683591E0,-2.2411954E-2,6.0219383E-1,-2.1251419E-1,7.4796334E-2,3.6730436E-3,-1.6749714E-2,9.539004E-2,7.978021E-3,-6.911507E-2,4.648329E-3,7.638589E-2,4.126396E-2,-3.2789554E-2,-6.079002E-2,2.865165E-2],"categories":[],"categories_nodes":[],"categories_segments":[],"categories_sizes":[],"default_left":[0,0,0,0,0,0,0,0,0,0,0,0,0,0,0,0,0,0,0,0,0,0,0,0,0,0,0],"id":14,"left_children":[1,3,5,7,9,11,13,15,-1,17,19,21,-1,23,25,-1,-1,-1,-1,-1,-1,-1,-1,-1,-1,-1,-1],"loss_changes":[4.7490723E2,1.5468329E2,1.0822299E2,7.981597E1,1.15696686E2,7.1954956E1,1.1842866E2,5.333457E1,0E0,1.3555887E2,1.1147516E2,3.7591766E1,0E0,1.729389E2,1.9996037E2,0E0,0E0,0E0,0E0,0E0,0E0,0E0,0E0,0E0,0E0,0E0,0E0],"parents":[2147483647,0,0,1,1,2,2,3,3,4,4,5,5,6,6,7,7,9,9,10,10,11,11,13,13,14,14],"right_children":[2,4,6,8,10,12,14,16,-1,18,20,22,-1,24,26,-1,-1,-1,-1,-1,-1,-1,-1,-1,-1,-1,-1],"split_conditions":[2.4E0,-3.95E0,3.391E-1,2.01E0,3.755E-1,1.57E1,2.82E1,2.4E0,-3.0899992E-2,3.7375E-1,1.235E1,4E-1,-2.2411954E-2,2.15E0,8.2E0,7.4796334E-2,3.6730436E-3,-1.6749714E-2,9.539004E-2,7.978021E-3,-6.911507E-2,4.648329E-3,7.638589E-2,4.126396E-2,-3.2789554E-2,-6.079002E-2,2.865165E-2],"split_indices":[137,99,13,126,24,55,41,76,0,24,66,21,0,100,17,0,0,0,0,0,0,0,0,0,0,0,0],"split_type":[0,0,0,0,0,0,0,0,0,0,0,0,0,0,0,0,0,0,0,0,0,0,0,0,0,0,0],"sum_hessian":[2.8642876E3,1.793111E3,1.0711768E3,1.5644684E2,1.6366641E3,2.1156113E2,8.596156E2,1.1921426E2,3.7232582E1,1.3796907E3,2.5697345E2,1.8834235E2,2.321878E1,6.10076E2,2.4953964E2,7.859715E1,4.0617107E1,1.3542201E3,2.5470562E1,6.012228E1,1.9685115E2,2.1619541E1,1.667228E2,5.191056E2,9.097042E1,1.0938115E2,1.401585E2],"tree_param":{"num_deleted":"0","num_feature":"155","num_nodes":"27","size_leaf_vector":"1"}},{"base_weights":[2.8150827E-3,-4.9026427E-1,3.21882E-1,-5.7873064E-1,7.8015417E-1,1.6167323E-1,8.2199174E-1,6.6397506E-1,-6.6003984E-1,-4.561335E-2,8.096778E-2,1.1518345E0,4.106099E-2,-4.4241393E-1,9.708833E-1,-2.3177024E-2,9.82201E-2,-4.4594325E-2,-2.7650062E-3,7.899632E-2,-2.4102071E-2,-3.487953E-2,1.0192046E-2,5.35416E-3,-5.237598E-2,2.86514E-2,6.7939684E-2],"categories":[],"categories_nodes":[],"categories_segments":[],"categories_sizes":[],"default_left":[0,0,0,0,0,0,0,0,0,0,0,0,0,0,0,0,0,0,0,0,0,0,0,0,0,0,0],"id":15,"left_children":[1,3,5,7,9,11,13,15,17,-1,-1,19,21,23,25,-1,-1,-1,-1,-1,-1,-1,-1,-1,-1,-1,-1],"loss_changes":[4.4725488E2,1.2628186E2,1.3760686E2,1.064957E2,1.072282E2,1.558971E2,7.97677E1,9.760329E1,1.3717975E2,0E0,0E0,1.0128816E2,1.4087535E2,1.5667138E1,5.5307526E1,0E0,0E0,0E0,0E0,0E0,0E0,0E0,0E0,0E0,0E0,0E0,0E0],"parents":[2147483647,0,0,1,1,2,2,3,3,4,4,5,5,6,6,7,7,8,8,11,11,12,12,13,13,14,14],"right_children":[2,4,6,8,10,12,14,16,18,-1,-1,20,22,24,26,-1,-1,-1,-1,-1,-1,-1,-1,-1,-1,-1,-1],"split_conditions":[-2.6E0,6.2E-2,8.3E0,1.125E2,2.58E1,-1.1E1,-1E1,4.8E0,4.48E1,-4.561335E-2,8.096778E-2,1.045E1,4.541E-1,1.165E2,4.6E0,-2.3177024E-2,9.82201E-2,-4.4594325E-2,-2.7650062E-3,7.899632E-2,-2.4102071E-2,-3.487953E-2,1.0192046E-2,5.35416E-3,-5.237598E-2,2.86514E-2,6.7939684E-2],"split_indices":[137,86,137,122,52,81,136,43,15,0,0,69,59,11,43,0,0,0,0,0,0,0,0,0,0,0,0],"split_type":[0,0,0,0,0,0,0,0,0,0,0,0,0,0,0,0,0,0,0,0,0,0,0,0,0,0,0],"sum_hessian":[2.8393958E3,1.1144728E3,1.724923E3,1.0433041E3,7.116863E1,1.3091777E3,4.1574518E2,6.281268E1,9.804914E2,2.3336292E1,4.783234E1,1.3984888E2,1.1693289E3,4.3029797E1,3.727154E2,3.4126457E1,2.8686224E1,7.074797E2,2.7301175E2,1.1110921E2,2.8739662E1,2.094154E2,9.5991345E2,2.298073E1,2.0049065E1,1.8708125E2,1.8563412E2],"tree_param":{"num_deleted":"0","num_feature":"155","num_nodes":"27","size_leaf_vector":"1"}},{"base_weights":[4.4120016E-4,-2.326831E-1,5.220557E-1,-4.199315E-1,1.7910354E-1,6.919257E-1,-4.4427252E-1,1.750672E-1,-6.483066E-1,3.0093488E-1,-6.995784E-2,-4.180778E-1,8.206401E-1,-9.2093945E-1,7.122246E-2,-1.0359924E-2,5.266468E-2,-3.8176458E-3,-4.49968E-2,-4.8603456E-2,2.4150401E-2,1.4526187E-2,-9.5331386E-2,-2.6725048E-2,4.574899E-2,-8.498958E-2,7.607793E-5],"categories":[],"categories_nodes":[],"categories_segments":[],"categories_sizes":[],"default_left":[0,0,0,0,0,0,0,0,0,0,0,0,0,0,0,0,0,0,0,0,0,0,0,0,0,0,0],"id":16,"left_children":[1,3,5,7,9,11,13,15,17,19,-1,21,23,25,-1,-1,-1,-1,-1,-1,-1,-1,-1,-1,-1,-1,-1],"loss_changes":[3.4310123E2,1.505152E2,1.4384668E2,1.8266719E2,1.1751678E2,1.0699832E2,1.1916823E2,1.26042114E2,1.3897778E2,1.3232188E2,0E0,8.4288475E1,8.638852E1,7.693911E1,0E0,0E0,0E0,0E0,0E0,0E0,0E0,0E0,0E0,0E0,0E0,0E0,0E0],"parents":[2147483647,0,0,1,1,2,2,3,3,4,4,5,5,6,6,7,7,8,8,9,9,11,11,12,12,13,13],"right_children":[2,4,6,8,10,12,14,16,18,20,-1,22,24,26,-1,-1,-1,-1,-1,-1,-1,-1,-1,-1,-1,-1,-1],"split_conditions":[2.1E0,4.51E1,3.917E-1,4.06E1,3E0,4E-1,8.261E-1,3.96E1,7.647E-1,2.42E1,-6.995784E-2,8.2E0,-1E1,5.98E-1,7.122246E-2,-1.0359924E-2,5.266468E-2,-3.8176458E-3,-4.49968E-2,-4.8603456E-2,2.4150401E-2,1.4526187E-2,-9.5331386E-2,-2.6725048E-2,4.574899E-2,-8.498958E-2,7.607793E-5],"split_indices":[135,15,13,4,147,21,14,4,50,63,0,53,136,115,0,0,0,0,0,0,0,0,0,0,0,0,0],"split_type":[0,0,0,0,0,0,0,0,0,0,0,0,0,0,0,0,0,0,0,0,0,0,0,0,0,0,0],"sum_hessian":[2.8163447E3,1.9465331E3,8.698116E2,1.3388867E3,6.076464E2,7.406914E2,1.2912016E2,3.708826E2,9.680041E2,5.6589825E2,4.1748188E1,7.6093925E1,6.645975E2,1.0389972E2,2.5220446E1,2.5907416E2,1.11808426E2,2.971579E2,6.708462E2,6.938111E1,4.9651712E2,5.2415894E1,2.3678034E1,4.2303135E1,6.222944E2,5.571507E1,4.818465E1],"tree_param":{"num_deleted":"0","num_feature":"155","num_nodes":"27","size_leaf_vector":"1"}},{"base_weights":[4.4338177E-3,-2.6877907E-1,4.819188E-1,3.1750402E-1,-4.2969364E-1,8.0394864E-1,1.8591952E-1,8.3698857E-1,-6.4224815E-1,-5.96711E-1,5.493256E-2,1.0747195E0,1.5115371E-1,-7.1040183E-1,4.3530396E-1,5.8922227E-2,-1.8831097E-2,2.658059E-2,-7.2245486E-2,4.2086925E-2,-3.383976E-2,5.8198404E-2,-9.834037E-3,-2.1040125E-2,5.912551E-2,-3.053171E-2,6.816079E-2,-6.843966E-2,6.558766E-2,3.393851E-2,-4.003522E-2],"categories":[],"categories_nodes":[],"categories_segments":[],"categories_sizes":[],"default_left":[0,0,0,0,0,0,0,0,0,0,0,0,0,0,0,0,0,0,0,0,0,0,0,0,0,0,0,0,0,0,0],"id":17,"left_children":[1,3,5,7,9,11,13,15,17,19,21,23,25,27,29,-1,-1,-1,-1,-1,-1,-1,-1,-1,-1,-1,-1,-1,-1,-1,-1],"loss_changes":[3.6528192E2,1.6824045E2,9.6378815E1,1.9251611E2,1.134957E2,8.511423E1,1.1997806E2,1.0497371E2,1.2972963E2,1.2093796E2,1.0122745E2,5.670697E1,1.3647789E2,1.5897441E2,1.27386856E2,0E0,0E0,0E0,0E0,0E0,0E0,0E0,0E0,0E0,0E0,0E0,0E0,0E0,0E0,0E0,0E0],"parents":[2147483647,0,0,1,1,2,2,3,3,4,4,5,5,6,6,7,7,8,8,9,9,10,10,11,11,12,12,13,13,14,14],"right_children":[2,4,6,8,10,12,14,16,18,20,22,24,26,28,30,-1,-1,-1,-1,-1,-1,-1,-1,-1,-1,-1,-1,-1,-1,-1,-1],"split_conditions":[2.5E0,-3E0,3.508E-1,3.608E-1,4.862E-1,8.046E-1,-3E0,1.1515E2,-4.1E0,2.956E-1,-1.5E-1,-1.1E1,1.05E1,6E0,1.206E2,5.8922227E-2,-1.8831097E-2,2.658059E-2,-7.2245486E-2,4.2086925E-2,-3.383976E-2,5.8198404E-2,-9.834037E-3,-2.1040125E-2,5.912551E-2,-3.053171E-2,6.816079E-2,-6.843966E-2,6.558766E-2,3.393851E-2,-4.003522E-2],"split_indices":[137,88,38,2,1,39,80,22,99,38,106,117,137,107,11,0,0,0,0,0,0,0,0,0,0,0,0,0,0,0,0],"split_type":[0,0,0,0,0,0,0,0,0,0,0,0,0,0,0,0,0,0,0,0,0,0,0,0,0,0,0,0,0,0,0],"sum_hessian":[2.7952568E3,1.7778267E3,1.0174303E3,3.817799E2,1.3960468E3,4.84836E2,5.325943E2,2.4820883E2,1.3357108E2,1.0386609E3,3.5738586E2,3.412368E2,1.4359923E2,1.1468799E2,4.1790634E2,1.9407478E2,5.413405E1,5.426425E1,7.930682E1,5.344429E1,9.8521655E2,6.511476E1,2.922711E2,2.2239025E1,3.1899774E2,8.85346E1,5.5064625E1,8.719253E1,2.7495464E1,3.5022583E2,6.7680504E1],"tree_param":{"num_deleted":"0","num_feature":"155","num_nodes":"31","size_leaf_vector":"1"}},{"base_weights":[1.1337746E-3,7.1927464E-1,-1.2460441E-1,8.7817764E-1,-7.105673E-1,-1.6617326E-1,7.0359275E-2,1.349932E0,5.165567E-1,-9.5773384E-2,2.7854646E-2,-2.1835308E-1,8.675728E-1,2.812588E-2,7.2449975E-2,5.706152E-2,-1.3203621E-2,-4.0206805E-2,-4.639089E-3,6.749578E-2,-3.825004E-2],"categories":[],"categories_nodes":[],"categories_segments":[],"categories_sizes":[],"default_left":[0,0,0,0,0,0,0,0,0,0,0,0,0,0,0,0,0,0,0,0,0],"id":18,"left_children":[1,3,5,7,9,11,-1,13,15,-1,-1,17,19,-1,-1,-1,-1,-1,-1,-1,-1],"loss_changes":[2.5471207E2,9.684972E1,1.5248335E2,6.2424164E1,6.824509E1,1.26054115E2,0E0,1.0068481E1,1.0768858E2,0E0,0E0,1.6312027E2,9.069815E1,0E0,0E0,0E0,0E0,0E0,0E0,0E0,0E0],"parents":[2147483647,0,0,1,1,2,2,3,3,4,4,5,5,7,7,8,8,11,11,12,12],"right_children":[2,4,6,8,10,12,-1,14,16,-1,-1,18,20,-1,-1,-1,-1,-1,-1,-1,-1],"split_conditions":[-4.7E0,8.544E-1,1.125E1,1.138E2,7.821E-1,3.1E-2,7.0359275E-2,4.394E-1,2.62E1,-9.5773384E-2,2.7854646E-2,4.564E-1,1.19E2,2.812588E-2,7.2449975E-2,5.706152E-2,-1.3203621E-2,-4.0206805E-2,-4.639089E-3,6.749578E-2,-3.825004E-2],"split_indices":[136,3,103,0,50,141,0,48,63,0,0,59,58,0,0,0,0,0,0,0,0],"split_type":[0,0,0,0,0,0,0,0,0,0,0,0,0,0,0,0,0,0,0,0,0],"sum_hessian":[2.813525E3,4.184017E2,2.395123E3,3.775632E2,4.0838505E1,2.3338965E3,6.1226524E1,1.6086168E2,2.1670152E2,2.0615768E1,2.0222736E1,2.2237126E3,1.10183876E2,2.0033508E1,1.4082817E2,1.20217735E2,9.648379E1,3.8992856E2,1.8337842E3,8.555828E1,2.4625597E1],"tree_param":{"num_deleted":"0","num_feature":"155","num_nodes":"21","size_leaf_vector":"1"}},{"base_weights":[1.6909168E-3,-4.2071795E-1,2.7662182E-1,-8.984515E-1,-1.5104297E-1,3.5724965E-1,-5.914822E-1,-1.0061213E0,4.638117E-2,9.790862E-2,-2.4125335E-1,2.80073E-1,6.743546E-2,-1.1277825E0,4.4061817E-2,-5.8145463E-2,1.9339582E-2,3.2859135E-3,-4.0141918E-2,-3.7778642E-2,1.9165127E-2,-9.1700144E-2,-2.108939E-2],"categories":[],"categories_nodes":[],"categories_segments":[],"categories_sizes":[],"default_left":[0,0,0,0,0,0,0,0,0,0,0,0,0,0,0,0,0,0,0,0,0,0,0],"id":19,"left_children":[1,3,5,7,9,11,13,15,-1,-1,17,19,-1,21,-1,-1,-1,-1,-1,-1,-1,-1,-1],"loss_changes":[3.2396494E2,1.4083594E2,1.186548E2,7.968326E1,1.3437387E2,1.1695125E2,1.1578488E2,8.313626E1,0E0,0E0,1.1749675E2,1.5434978E2,0E0,5.0489502E1,0E0,0E0,0E0,0E0,0E0,0E0,0E0,0E0,0E0],"parents":[2147483647,0,0,1,1,2,2,3,3,4,4,5,5,6,6,7,7,10,10,11,11,13,13],"right_children":[2,4,6,8,10,12,14,16,-1,-1,18,20,-1,22,-1,-1,-1,-1,-1,-1,-1,-1,-1],"split_conditions":[-2.6E0,4.6825E-1,4.104E-1,4.9E0,-9.8E0,4E-1,8.1465E-1,9.6E0,4.638117E-2,9.790862E-2,7.923E-1,4.4895E-1,6.743546E-2,3.6E0,4.4061817E-2,-5.8145463E-2,1.9339582E-2,3.2859135E-3,-4.0141918E-2,-3.7778642E-2,1.9165127E-2,-9.1700144E-2,-2.108939E-2],"split_indices":[137,59,2,92,76,104,25,64,0,0,25,59,0,111,0,0,0,0,0,0,0,0,0],"split_type":[0,0,0,0,0,0,0,0,0,0,0,0,0,0,0,0,0,0,0,0,0,0,0],"sum_hessian":[2.7862131E3,1.0973481E3,1.688865E3,3.9358633E2,7.037618E2,1.5469409E3,1.4192397E2,3.727783E2,2.0808031E1,2.6939163E1,6.7682263E2,1.4380688E3,1.0887208E2,1.0463015E2,3.7293823E1,3.3568265E2,3.7095654E1,4.3818115E2,2.3864145E2,1.2876433E2,1.3093046E3,5.0355156E1,5.427499E1],"tree_param":{"num_deleted":"0","num_feature":"155","num_nodes":"23","size_leaf_vector":"1"}},{"base_weights":[7.4415905E-3,-5.6156373E-1,2.0854294E-1,-3.677829E-2,-8.579377E-1,2.8435087E-1,-8.036711E-1,-7.66429E-1,5.7631946E-1,-9.6808684E-1,3.9605267E-2,1.11439236E-1,6.1901325E-1,-1.0989629E0,4.2347815E-2,-6.506296E-2,2.920786E-2,1.0844715E-1,-6.7055444E-3,-2.8073942E-2,-7.023281E-2,1.5708188E-2,-1.9087259E-2,-2.5096282E-2,3.7109077E-2,8.14871E-3,-7.378776E-2],"categories":[],"categories_nodes":[],"categories_segments":[],"categories_sizes":[],"default_left":[0,0,0,0,0,0,0,0,0,0,0,0,0,0,0,0,0,0,0,0,0,0,0,0,0,0,0],"id":20,"left_children":[1,3,5,7,9,11,13,15,17,19,-1,21,23,25,-1,-1,-1,-1,-1,-1,-1,-1,-1,-1,-1,-1,-1],"loss_changes":[3.1627957E2,1.11712494E2,1.5703891E2,1.1868328E2,8.530365E1,1.0964618E2,7.1433014E1,8.954851E1,1.6424191E2,7.426587E1,0E0,1.26028275E2,9.0196106E1,5.9139038E1,0E0,0E0,0E0,0E0,0E0,0E0,0E0,0E0,0E0,0E0,0E0,0E0,0E0],"parents":[2147483647,0,0,1,1,2,2,3,3,4,4,5,5,6,6,7,7,8,8,9,9,11,11,12,12,13,13],"right_children":[2,4,6,8,10,12,14,16,18,20,-1,22,24,26,-1,-1,-1,-1,-1,-1,-1,-1,-1,-1,-1,-1,-1],"split_conditions":[-5.5E0,4.558E-1,4.735E1,-1.5E-1,5.043E-1,1.2E-2,2.29E-1,1.17E2,1.166E2,5.81E-1,3.9605267E-2,9.8E-3,-1.31E1,-1E-1,4.2347815E-2,-6.506296E-2,2.920786E-2,1.0844715E-1,-6.7055444E-3,-2.8073942E-2,-7.023281E-2,1.5708188E-2,-1.9087259E-2,-2.5096282E-2,3.7109077E-2,8.14871E-3,-7.378776E-2],"split_indices":[137,1,62,34,48,141,144,36,122,128,0,85,143,93,0,0,0,0,0,0,0,0,0,0,0,0,0],"split_type":[0,0,0,0,0,0,0,0,0,0,0,0,0,0,0,0,0,0,0,0,0,0,0,0,0,0,0],"sum_hessian":[2.7615073E3,7.195392E2,2.041968E3,2.6111737E2,4.584218E2,1.9014915E3,1.4047661E2,1.1936994E2,1.4174742E2,4.3079367E2,2.762815E1,1.2564667E3,6.450248E2,1.1998333E2,2.0493275E1,8.582616E1,3.3543785E1,4.267579E1,9.907163E1,2.2601106E2,2.0478261E2,8.916796E2,3.6478705E2,6.2847557E1,5.821772E2,2.7543558E1,9.243977E1],"tree_param":{"num_deleted":"0","num_feature":"155","num_nodes":"27","size_leaf_vector":"1"}},{"base_weights":[-2.9966142E-3,-4.0253493E-1,2.5526896E-1,-4.878622E-1,8.063412E-1,1.0778958E0,1.8123218E-1,5.865755E-1,-6.012717E-1,-2.8589237E-2,8.1225894E-2,1.4843941E0,-1.2656513E-2,3.8935006E-1,-2.17542E-1,7.398357E-2,-4.6933178E-2,8.084871E-3,-3.736049E-2,3.392967E-2,8.292091E-2,-5.1513262E-2,2.4236392E-2,-5.9421934E-2,1.5922025E-3],"categories":[],"categories_nodes":[],"categories_segments":[],"categories_sizes":[],"default_left":[0,0,0,0,0,0,0,0,0,0,0,0,0,0,0,0,0,0,0,0,0,0,0,0,0],"id":21,"left_children":[1,3,5,7,9,11,13,15,17,-1,-1,19,-1,21,23,-1,-1,-1,-1,-1,-1,-1,-1,-1,-1],"loss_changes":[2.8419708E2,1.1221739E2,1.00792145E2,1.2404196E2,8.3220894E1,7.5528305E1,1.277811E2,1.3548566E2,1.02628174E2,0E0,0E0,1.1385834E1,0E0,1.3764299E2,1.2835168E2,0E0,0E0,0E0,0E0,0E0,0E0,0E0,0E0,0E0,0E0],"parents":[2147483647,0,0,1,1,2,2,3,3,4,4,5,5,6,6,7,7,8,8,11,11,13,13,14,14],"right_children":[2,4,6,8,10,12,14,16,18,-1,-1,20,-1,22,24,-1,-1,-1,-1,-1,-1,-1,-1,-1,-1],"split_conditions":[-2.6E0,6.2E-2,-1.1E1,3.09E-1,4.669E-1,1.045E1,3.702E-1,2E0,4.085E1,-2.8589237E-2,8.1225894E-2,1.052E2,-1.2656513E-2,-5.525E-2,4.48E-1,7.398357E-2,-4.6933178E-2,8.084871E-3,-3.736049E-2,3.392967E-2,8.292091E-2,-5.1513262E-2,2.4236392E-2,-5.9421934E-2,1.5922025E-3],"split_indices":[137,86,81,38,48,69,38,126,26,0,0,0,0,97,118,0,0,0,0,0,0,0,0,0,0],"split_type":[0,0,0,0,0,0,0,0,0,0,0,0,0,0,0,0,0,0,0,0,0,0,0,0,0],"sum_hessian":[2.7494897E3,1.0798203E3,1.6696693E3,1.0101279E3,6.969237E1,1.350665E2,1.5346028E3,9.522418E1,9.1490375E2,2.5958838E1,4.3733532E1,1.0357857E2,3.1487928E1,1.00920557E3,5.253973E2,6.0302135E1,3.4922043E1,1.4631613E2,7.6858765E2,2.0646955E1,8.293162E1,6.1971237E1,9.472343E2,1.0624476E2,4.191525E2],"tree_param":{"num_deleted":"0","num_feature":"155","num_nodes":"25","size_leaf_vector":"1"}},{"base_weights":[5.943027E-3,-3.7407517E-1,2.5146618E-1,-8.246748E-1,-1.24038756E-1,-8.8807E-2,4.1115674E-1,1.2357262E-1,-1.0284889E0,9.088736E-2,-2.1577948E-1,1.7413065E-1,-1.0966258E0,-3.41953E-1,5.669171E-1,-6.5282114E-2,5.902517E-2,-6.0003538E-2,4.572584E-3,7.7812895E-3,-3.4019195E-2,-5.192901E-2,1.8758684E-2,-7.852547E-2,2.0278146E-2,-5.3766456E-2,3.554247E-2,3.2151226E-2,-4.8956655E-2],"categories":[],"categories_nodes":[],"categories_segments":[],"categories_sizes":[],"default_left":[0,0,0,0,0,0,0,0,0,0,0,0,0,0,0,0,0,0,0,0,0,0,0,0,0,0,0,0,0],"id":22,"left_children":[1,3,5,7,9,11,13,15,17,-1,19,21,23,25,27,-1,-1,-1,-1,-1,-1,-1,-1,-1,-1,-1,-1,-1,-1],"loss_changes":[2.5424475E2,1.1976109E2,9.024969E1,7.423016E1,1.2300249E2,1.4122632E2,1.3291496E2,1.0672689E2,6.1068756E1,0E0,1.1461178E2,1.0320693E2,8.0362366E1,1.5161488E2,1.1130405E2,0E0,0E0,0E0,0E0,0E0,0E0,0E0,0E0,0E0,0E0,0E0,0E0,0E0,0E0],"parents":[2147483647,0,0,1,1,2,2,3,3,4,4,5,5,6,6,7,7,8,8,10,10,11,11,12,12,13,13,14,14],"right_children":[2,4,6,8,10,12,14,16,18,-1,20,22,24,26,28,-1,-1,-1,-1,-1,-1,-1,-1,-1,-1,-1,-1,-1,-1],"split_conditions":[-2.6E0,4.6825E-1,4.2E0,3E-1,-9.8E0,3.819E-1,4.538E-1,4.505E-1,4.891E-1,9.088736E-2,-8E-2,3.92E1,3.4E-2,8E0,1.2065E2,-6.5282114E-2,5.902517E-2,-6.0003538E-2,4.572584E-3,7.7812895E-3,-3.4019195E-2,-5.192901E-2,1.8758684E-2,-7.852547E-2,2.0278146E-2,-5.3766456E-2,3.554247E-2,3.2151226E-2,-4.8956655E-2],"split_indices":[137,59,7,32,76,13,59,48,12,0,139,40,142,119,58,0,0,0,0,0,0,0,0,0,0,0,0,0,0],"split_type":[0,0,0,0,0,0,0,0,0,0,0,0,0,0,0,0,0,0,0,0,0,0,0,0,0,0,0,0,0],"sum_hessian":[2.721569E3,1.0669977E3,1.6545715E3,3.7842615E2,6.8857153E2,5.277606E2,1.1268108E3,6.66536E1,3.1177252E2,2.9120855E1,6.594507E2,4.194781E2,1.0828256E2,1.9215079E2,9.3466003E2,2.7935139E1,3.8718468E1,2.7061584E2,4.1156685E1,3.666245E2,2.9282617E2,5.811342E1,3.6136465E2,8.2499115E1,2.5783451E1,1.1351148E2,7.8639305E1,8.9222986E2,4.243019E1],"tree_param":{"num_deleted":"0","num_feature":"155","num_nodes":"29","size_leaf_vector":"1"}},{"base_weights":[-3.5763753E-3,-1.8021452E-1,4.5214617E-1,-3.473408E-1,1.7203574E-1,6.0245496E-1,-8.6836314E-1,1.8767586E-1,-5.6206626E-1,-4.9874894E-2,9.0584075E-1,6.8777704E-1,-6.6014576E-1,-8.205235E-2,3.3809703E-2,-9.420542E-3,6.1785705E-2,-4.4680502E-2,-1.2089961E-2,-5.745225E-2,8.21792E-3,6.525265E-2,-7.0614606E-2,-4.2925645E-3,4.3659985E-2,-6.714135E-2,5.209727E-3],"categories":[],"categories_nodes":[],"categories_segments":[],"categories_sizes":[],"default_left":[0,0,0,0,0,0,0,0,0,0,0,0,0,0,0,0,0,0,0,0,0,0,0,0,0,0,0],"id":23,"left_children":[1,3,5,7,9,11,13,15,17,19,21,23,25,-1,-1,-1,-1,-1,-1,-1,-1,-1,-1,-1,-1,-1,-1],"loss_changes":[2.1937918E2,1.1594608E2,1.5194794E2,1.537653E2,1.0359535E2,7.4682816E1,9.608098E1,1.520191E2,1.00279724E2,1.156409E2,1.4023082E2,9.273883E1,2.3853262E1,0E0,0E0,0E0,0E0,0E0,0E0,0E0,0E0,0E0,0E0,0E0,0E0,0E0,0E0],"parents":[2147483647,0,0,1,1,2,2,3,3,4,4,5,5,6,6,7,7,8,8,9,9,10,10,11,11,12,12],"right_children":[2,4,6,8,10,12,14,16,18,20,22,24,26,-1,-1,-1,-1,-1,-1,-1,-1,-1,-1,-1,-1,-1,-1],"split_conditions":[2.5E0,4.51E1,4.4E0,4.06E1,4.6E0,1.192E2,5.4E0,8.112E-1,3.5935E-1,6.8E0,2.8E-2,4.396E-1,-1E-1,-8.205235E-2,3.3809703E-2,-9.420542E-3,6.1785705E-2,-4.4680502E-2,-1.2089961E-2,-5.745225E-2,8.21792E-3,6.525265E-2,-7.0614606E-2,-4.2925645E-3,4.3659985E-2,-6.714135E-2,5.209727E-3],"split_indices":[135,15,56,4,83,58,7,39,60,42,97,37,70,0,0,0,0,0,0,0,0,0,0,0,0,0,0],"split_type":[0,0,0,0,0,0,0,0,0,0,0,0,0,0,0,0,0,0,0,0,0,0,0,0,0,0,0],"sum_hessian":[2.72294E3,1.9639995E3,7.589403E2,1.3330005E3,6.309991E2,6.826975E2,7.6242805E1,3.8117538E2,9.518251E2,4.853935E2,1.4560559E2,6.4070734E2,4.19902E1,5.0952137E1,2.5290665E1,2.8136972E2,9.9805664E1,4.651526E2,4.866725E2,7.8131226E1,4.0726227E2,1.25143936E2,2.046165E1,1.2356046E2,5.1714685E2,2.172589E1,2.026431E1],"tree_param":{"num_deleted":"0","num_feature":"155","num_nodes":"27","size_leaf_vector":"1"}},{"base_weights":[1.3897916E-4,-4.7878605E-1,1.6740774E-1,-2.799667E-1,-1.2483914E0,2.6044652E-1,-5.1177335E-1,-8.642523E-2,-1.2868019E0,-6.860362E-2,-2.1297207E-2,-8.236397E-2,2.9272002E-1,-7.729778E-1,5.9080243E-2,-3.1077003E-2,1.9070003E-2,-3.2065388E-2,-7.280298E-2,1.1227871E-2,5.6202054E-2,-6.1683398E-2,1.0435271E-2],"categories":[],"categories_nodes":[],"categories_segments":[],"categories_sizes":[],"default_left":[0,0,0,0,0,0,0,0,0,0,0,0,0,0,0,0,0,0,0,0,0,0,0],"id":24,"left_children":[1,3,5,7,9,11,13,15,17,-1,-1,-1,19,21,-1,-1,-1,-1,-1,-1,-1,-1,-1],"loss_changes":[2.1637541E2,1.0547583E2,1.2677764E2,1.0792311E2,1.2416122E1,1.0893037E2,1.08433495E2,1.1850771E2,6.86084E0,0E0,0E0,0E0,9.725806E1,9.630537E1,0E0,0E0,0E0,0E0,0E0,0E0,0E0,0E0,0E0],"parents":[2147483647,0,0,1,1,2,2,3,3,4,4,5,5,6,6,7,7,8,8,12,12,13,13],"right_children":[2,4,6,8,10,12,14,16,18,-1,-1,-1,20,22,-1,-1,-1,-1,-1,-1,-1,-1,-1],"split_conditions":[-5.5E0,1.035E-2,4.655E1,2.6E0,4.89E1,3.77E1,3.54E-2,-6.8E0,5.28E-1,-6.860362E-2,-2.1297207E-2,-8.236397E-2,6.94E-1,1.57E1,5.9080243E-2,-3.1077003E-2,1.9070003E-2,-3.2065388E-2,-7.280298E-2,1.1227871E-2,5.6202054E-2,-6.1683398E-2,1.0435271E-2],"split_indices":[137,95,62,9,51,15,73,9,116,0,0,0,118,55,0,0,0,0,0,0,0,0,0],"split_type":[0,0,0,0,0,0,0,0,0,0,0,0,0,0,0,0,0,0,0,0,0,0,0],"sum_hessian":[2.6989482E3,6.968911E2,2.0020573E3,5.56502E2,1.4038913E2,1.7625769E3,2.3948036E2,4.6901306E2,8.7488945E1,1.20346695E2,2.0042433E1,2.739925E1,1.7351776E3,2.0867453E2,3.080583E1,2.1896495E2,2.500481E2,2.0778473E1,6.671047E1,1.60659E3,1.2858762E2,1.420217E2,6.665284E1],"tree_param":{"num_deleted":"0","num_feature":"155","num_nodes":"23","size_leaf_vector":"1"}},{"base_weights":[8.28915E-3,-1.9691823E-1,3.7128255E-1,6.3223356E-1,-2.786799E-1,6.126687E-1,-1.5426636E-2,9.5260304E-1,-2.412512E-2,-7.332799E-2,-2.2299181E-1,7.1827483E-1,-5.522698E-2,5.540082E-1,-5.357807E-1,6.461541E-2,-2.0073261E-2,-1.53933605E-2,2.220006E-2,-2.2487102E-2,4.3168414E-2,-4.594518E-2,5.725329E-2,6.5762594E-2,-4.5417387E-2],"categories":[],"categories_nodes":[],"categories_segments":[],"categories_sizes":[],"default_left":[0,0,0,0,0,0,0,0,0,0,0,0,0,0,0,0,0,0,0,0,0,0,0,0,0],"id":25,"left_children":[1,3,5,7,9,11,13,15,-1,-1,17,19,-1,21,23,-1,-1,-1,-1,-1,-1,-1,-1,-1,-1],"loss_changes":[2.0018321E2,1.1645909E2,9.095781E1,5.6160015E1,1.01911674E2,1.09963455E2,1.1150105E2,5.6984634E1,0E0,0E0,8.489643E1,9.6816895E1,0E0,1.5827647E2,1.3809152E2,0E0,0E0,0E0,0E0,0E0,0E0,0E0,0E0,0E0,0E0],"parents":[2147483647,0,0,1,1,2,2,3,3,4,4,5,5,6,6,7,7,10,10,11,11,13,13,14,14],"right_children":[2,4,6,8,10,12,14,16,-1,-1,18,20,-1,22,24,-1,-1,-1,-1,-1,-1,-1,-1,-1,-1],"split_conditions":[2.5E0,-3.95E0,8.8E0,2.8E0,4.272E-1,1.09E1,6.14E-1,9.3E0,-2.412512E-2,-7.332799E-2,5.4E0,4.424E-1,-5.522698E-2,4.454E-1,1.09E2,6.461541E-2,-2.0073261E-2,-1.53933605E-2,2.220006E-2,-2.2487102E-2,4.3168414E-2,-4.594518E-2,5.725329E-2,6.5762594E-2,-4.5417387E-2],"split_indices":[137,99,42,80,37,31,125,28,0,0,76,12,0,48,0,0,0,0,0,0,0,0,0,0,0],"split_type":[0,0,0,0,0,0,0,0,0,0,0,0,0,0,0,0,0,0,0,0,0,0,0,0,0],"sum_hessian":[2.6822888E3,1.713277E3,9.6901196E2,1.5202263E2,1.5612544E3,5.9668317E2,3.7232877E2,1.1865981E2,3.3362812E1,6.724325E1,1.4940111E3,5.634842E2,3.3198956E1,1.7725955E2,1.9506923E2,9.522939E1,2.3430424E1,1.3269785E3,1.670326E2,6.141797E1,5.0206622E2,5.0201767E1,1.2705778E2,3.1611353E1,1.6345787E2],"tree_param":{"num_deleted":"0","num_feature":"155","num_nodes":"25","size_leaf_vector":"1"}},{"base_weights":[-7.0811566E-3,-3.5356596E-1,2.1381171E-1,-1.7139165E-1,-9.214348E-1,-4.1602712E-2,4.8643368E-1,-2.9892686E-1,1.1434984E0,-1.1661764E0,3.6966242E-2,4.5619944E-1,-5.0849855E-1,-6.279383E-2,5.561159E-1,-2.0925207E-2,5.6293886E-2,-2.5701026E-2,1.02661744E-1,-7.249259E-2,-2.7320443E-2,4.8313644E-2,-1.463972E-2,-4.0183913E-2,2.4210842E-2,2.2012677E-2,7.680809E-2],"categories":[],"categories_nodes":[],"categories_segments":[],"categories_sizes":[],"default_left":[0,0,0,0,0,0,0,0,0,0,0,0,0,0,0,0,0,0,0,0,0,0,0,0,0,0,0],"id":26,"left_children":[1,3,5,7,9,11,13,15,17,19,-1,21,23,-1,25,-1,-1,-1,-1,-1,-1,-1,-1,-1,-1,-1,-1],"loss_changes":[2.0433344E2,1.0671771E2,1.1369056E2,1.328167E2,1.0414354E2,1.9617113E2,9.684358E1,1.2368374E2,1.0837008E2,3.613086E1,0E0,1.5677968E2,1.2867297E2,0E0,8.399896E1,0E0,0E0,0E0,0E0,0E0,0E0,0E0,0E0,0E0,0E0,0E0,0E0],"parents":[2147483647,0,0,1,1,2,2,3,3,4,4,5,5,6,6,7,7,8,8,9,9,11,11,12,12,14,14],"right_children":[2,4,6,8,10,12,14,16,18,20,-1,22,24,-1,26,-1,-1,-1,-1,-1,-1,-1,-1,-1,-1,-1,-1],"split_conditions":[-2.6E0,5.4E0,2E-1,3E0,5.9E0,-4E-1,3.8E0,6.2E-2,4.66E-1,1.41E1,3.6966242E-2,4.766E-1,4.65E1,-6.279383E-2,1.515E1,-2.0925207E-2,5.6293886E-2,-2.5701026E-2,1.02661744E-1,-7.249259E-2,-2.7320443E-2,4.8313644E-2,-1.463972E-2,-4.0183913E-2,2.4210842E-2,2.2012677E-2,7.680809E-2],"split_indices":[137,143,79,143,69,101,18,86,48,55,0,37,15,0,30,0,0,0,0,0,0,0,0,0,0,0,0],"split_type":[0,0,0,0,0,0,0,0,0,0,0,0,0,0,0,0,0,0,0,0,0,0,0,0,0,0,0],"sum_hessian":[2.66488E3,1.0379111E3,1.6269689E3,7.884559E2,2.4945529E2,8.399222E2,7.8704663E2,7.204981E2,6.795775E1,2.181969E2,3.1258402E1,4.0601056E2,4.3391165E2,2.8681562E1,7.5836505E2,6.6633887E2,5.4159264E1,2.4195126E1,4.376262E1,1.4729341E2,7.090349E1,2.4157951E2,1.6443103E2,3.3514285E2,9.876879E1,6.812369E2,7.712817E1],"tree_param":{"num_deleted":"0","num_feature":"155","num_nodes":"27","size_leaf_vector":"1"}},{"base_weights":[3.1546508E-3,-2.0019387E-1,3.6428288E-1,-7.1636125E-2,-1.4977442E-1,2.1803801E-1,1.0274115E0,3.952039E-1,-2.5533542E-1,1.0862747E0,6.440326E-2,-3.8004231E-3,6.786408E-2,3.3171255E-2,-6.999922E-2,2.6203498E-2,-1.7059295E-2,6.70534E-2,-6.0509974E-3,7.049852E-2,-2.1069457E-3],"categories":[],"categories_nodes":[],"categories_segments":[],"categories_sizes":[],"default_left":[0,0,0,0,0,0,0,0,0,0,0,0,0,0,0,0,0,0,0,0,0],"id":27,"left_children":[1,3,5,-1,7,9,11,13,15,17,19,-1,-1,-1,-1,-1,-1,-1,-1,-1,-1],"loss_changes":[1.9620961E2,1.0490673E2,9.232054E1,0E0,9.466759E1,1.0495151E2,6.376097E1,1.2989165E2,9.251274E1,3.738109E1,9.7667076E1,0E0,0E0,0E0,0E0,0E0,0E0,0E0,0E0,0E0,0E0],"parents":[2147483647,0,0,1,1,2,2,4,4,5,5,6,6,7,7,8,8,9,9,10,10],"right_children":[2,4,6,-1,8,10,12,14,16,18,20,-1,-1,-1,-1,-1,-1,-1,-1,-1,-1],"split_conditions":[2.5E0,4.272E-1,3E0,-7.1636125E-2,-3.5E0,-1.5E-1,-6E0,1.405E-2,3.078E-1,4.8005E-1,-5.55E0,-3.8004231E-3,6.786408E-2,3.3171255E-2,-6.999922E-2,2.6203498E-2,-1.7059295E-2,6.70534E-2,-6.0509974E-3,7.049852E-2,-2.1069457E-3],"split_indices":[137,37,99,0,88,34,9,96,38,59,94,0,0,0,0,0,0,0,0,0,0],"split_type":[0,0,0,0,0,0,0,0,0,0,0,0,0,0,0,0,0,0,0,0,0],"sum_hessian":[2.666782E3,1.7057783E3,9.6100385E2,6.449191E1,1.6412864E3,7.901562E2,1.7084764E2,2.6466736E2,1.376619E3,1.1648253E2,6.7367365E2,3.932578E1,1.3152185E2,2.3160272E2,3.306463E1,1.3499698E2,1.2416221E3,9.634249E1,2.014004E1,4.7976967E1,6.256967E2],"tree_param":{"num_deleted":"0","num_feature":"155","num_nodes":"21","size_leaf_vector":"1"}},{"base_weights":[-1.1353976E-2,-2.0096879E-1,3.2706738E-1,7.3903465E-1,-2.7882028E-1,5.5506885E-1,-2.6078636E-2,-4.1382786E-2,1.0555899E0,-1.7311569E-1,-8.5556096E-1,6.518626E-1,-5.0852817E-2,7.139167E-1,-4.0377924E-1,1.5737163E-2,8.18873E-2,2.3255935E-2,-1.5422003E-2,1.3260198E-2,-5.9237193E-2,5.0225835E-3,4.7837775E-2,-2.820133E-2,5.7382353E-2,-8.4317826E-2,-6.1525195E-3],"categories":[],"categories_nodes":[],"categories_segments":[],"categories_sizes":[],"default_left":[0,0,0,0,0,0,0,0,0,0,0,0,0,0,0,0,0,0,0,0,0,0,0,0,0,0,0],"id":28,"left_children":[1,3,5,7,9,11,13,-1,15,17,19,21,-1,23,25,-1,-1,-1,-1,-1,-1,-1,-1,-1,-1,-1,-1],"loss_changes":[1.6911038E2,1.23895485E2,7.6445175E1,6.60154E1,9.448635E1,8.8744125E1,1.04423744E2,0E0,4.4898987E1,1.1458518E2,8.995763E1,9.070357E1,0E0,7.143714E1,8.800508E1,0E0,0E0,0E0,0E0,0E0,0E0,0E0,0E0,0E0,0E0,0E0,0E0],"parents":[2147483647,0,0,1,1,2,2,3,3,4,4,5,5,6,6,8,8,9,9,10,10,11,11,13,13,14,14],"right_children":[2,4,6,8,10,12,14,-1,16,18,20,22,-1,24,26,-1,-1,-1,-1,-1,-1,-1,-1,-1,-1,-1,-1],"split_conditions":[2.5E0,-7.1E-2,8.8E0,2.26E1,3.755E-1,1.09E1,-1E-1,-4.1382786E-2,0E0,-3E0,1.235E1,3E-1,-5.0852817E-2,4.6E0,4.476E-1,1.5737163E-2,8.18873E-2,2.3255935E-2,-1.5422003E-2,1.3260198E-2,-5.9237193E-2,5.0225835E-3,4.7837775E-2,-2.820133E-2,5.7382353E-2,-8.4317826E-2,-6.1525195E-3],"split_indices":[137,138,42,5,24,31,101,0,93,88,66,31,0,43,1,0,0,0,0,0,0,0,0,0,0,0,0],"split_type":[0,0,0,0,0,0,0,0,0,0,0,0,0,0,0,0,0,0,0,0,0,0,0,0,0,0,0],"sum_hessian":[2.632296E3,1.6885209E3,9.437751E2,1.2735756E2,1.5611633E3,5.736695E2,3.701056E2,2.059928E1,1.06758286E2,1.3222834E3,2.3887987E2,5.418003E2,3.1869198E1,1.2402002E2,2.4608557E2,4.871023E1,5.804805E1,2.2981781E2,1.0924656E3,5.3976524E1,1.8490334E2,1.9444235E2,3.473579E2,3.0981754E1,9.303827E1,4.207242E1,2.0401315E2],"tree_param":{"num_deleted":"0","num_feature":"155","num_nodes":"27","size_leaf_vector":"1"}},{"base_weights":[6.4616916E-3,-1.5031575E-1,3.763046E-1,-7.347875E-1,-5.6714445E-2,5.287829E-1,-4.2591035E-1,-1.1619929E0,4.952349E-1,-2.0579372E-1,3.2519552E-1,-3.7837556E-1,6.4113116E-1,-1.0726238E0,4.6378817E-2,-7.208543E-2,5.220154E-4,9.40119E-2,-3.1272896E-2,-2.6380917E-2,3.458496E-3,-2.0080717E-2,3.5901096E-2,1.5814677E-2,-9.067871E-2,-3.2604847E-2,3.6878303E-2,1.27833355E-2,-8.340283E-2],"categories":[],"categories_nodes":[],"categories_segments":[],"categories_sizes":[],"default_left":[0,0,0,0,0,0,0,0,0,0,0,0,0,0,0,0,0,0,0,0,0,0,0,0,0,0,0,0,0],"id":29,"left_children":[1,3,5,7,9,11,13,15,17,19,21,23,25,27,-1,-1,-1,-1,-1,-1,-1,-1,-1,-1,-1,-1,-1,-1,-1],"loss_changes":[1.5235103E2,1.0034808E2,9.6227615E1,1.3469534E2,9.068721E1,6.778116E1,1.1197937E2,6.2746536E1,1.0612148E2,1.0178764E2,1.2826239E2,7.506395E1,7.4288055E1,6.9695915E1,0E0,0E0,0E0,0E0,0E0,0E0,0E0,0E0,0E0,0E0,0E0,0E0,0E0,0E0,0E0],"parents":[2147483647,0,0,1,1,2,2,3,3,4,4,5,5,6,6,7,7,8,8,9,9,10,10,11,11,12,12,13,13],"right_children":[2,4,6,8,10,12,14,16,18,20,22,24,26,28,-1,-1,-1,-1,-1,-1,-1,-1,-1,-1,-1,-1,-1,-1,-1],"split_conditions":[2.1E0,7.295E-1,3.917E-1,1.42E1,3.6E0,4E-1,1.34E1,3.708E-1,-9E-1,1.156E2,0E0,-1.75E0,-1E1,-2E0,4.6378817E-2,-7.208543E-2,5.220154E-4,9.40119E-2,-3.1272896E-2,-2.6380917E-2,3.458496E-3,-2.0080717E-2,3.5901096E-2,1.5814677E-2,-9.067871E-2,-3.2604847E-2,3.6878303E-2,1.27833355E-2,-8.340283E-2],"split_indices":[135,14,13,44,145,21,81,13,31,58,132,67,136,72,0,0,0,0,0,0,0,0,0,0,0,0,0,0,0],"split_type":[0,0,0,0,0,0,0,0,0,0,0,0,0,0,0,0,0,0,0,0,0,0,0,0,0,0,0,0,0],"sum_hessian":[2.6216113E3,1.841029E3,7.8058215E2,2.5150732E2,1.5895217E3,6.570084E2,1.2357372E2,1.870568E2,6.445054E1,1.1448564E3,4.4466534E2,7.1389114E1,5.856193E2,8.415013E1,3.9423588E1,1.5099901E2,3.6057777E1,2.8419313E1,3.6031223E1,5.2747107E2,6.173853E2,1.5554935E2,2.89116E2,4.892105E1,2.2468065E1,3.9479237E1,5.461401E2,2.6139553E1,5.801058E1],"tree_param":{"num_deleted":"0","num_feature":"155","num_nodes":"29","size_leaf_vector":"1"}},{"base_weights":[5.825097E-4,5.558403E-1,-9.1317534E-2,1.2225081E0,2.283924E-1,-2.1443333E-1,3.7515014E-1,6.7905195E-2,2.5498882E-2,8.131357E-1,-6.408965E-1,-1.1851965E0,-1.4585541E-1,5.5601E-1,-9.249073E-1,6.542104E-2,1.2623258E-2,4.324197E-2,-7.121005E-2,8.205573E-3,-7.716386E-2,-6.963613E-4,-3.2880217E-2,-1.2399562E-2,4.273162E-2,9.926479E-3,-8.066632E-2],"categories":[],"categories_nodes":[],"categories_segments":[],"categories_sizes":[],"default_left":[0,0,0,0,0,0,0,0,0,0,0,0,0,0,0,0,0,0,0,0,0,0,0,0,0,0,0],"id":30,"left_children":[1,3,5,7,9,11,13,-1,-1,15,17,19,21,23,25,-1,-1,-1,-1,-1,-1,-1,-1,-1,-1,-1,-1],"loss_changes":[1.3353972E2,7.9869095E1,1.2876207E2,9.418381E0,1.29357E2,1.17149704E2,1.1083127E2,0E0,0E0,4.0779373E1,1.23310394E2,5.741217E1,1.1175711E2,9.9701645E1,4.5850113E1,0E0,0E0,0E0,0E0,0E0,0E0,0E0,0E0,0E0,0E0,0E0,0E0],"parents":[2147483647,0,0,1,1,2,2,3,3,4,4,5,5,6,6,9,9,10,10,11,11,12,12,13,13,14,14],"right_children":[2,4,6,8,10,12,14,-1,-1,16,18,20,22,24,26,-1,-1,-1,-1,-1,-1,-1,-1,-1,-1,-1,-1],"split_conditions":[-4.7E0,0E0,5.89E-1,4.9E1,2.62E1,4.4875E-1,1.2085E2,6.7905195E-2,2.5498882E-2,1.13E-2,-2E0,4.15E0,9.4E0,-1.86E-2,4E1,6.542104E-2,1.2623258E-2,4.324197E-2,-7.121005E-2,8.205573E-3,-7.716386E-2,-6.963613E-4,-3.2880217E-2,-1.2399562E-2,4.273162E-2,9.926479E-3,-8.066632E-2],"split_indices":[136,72,115,4,63,59,22,0,0,96,77,29,53,73,4,0,0,0,0,0,0,0,0,0,0,0,0],"split_type":[0,0,0,0,0,0,0,0,0,0,0,0,0,0,0,0,0,0,0,0,0,0,0,0,0,0,0],"sum_hessian":[2.608437E3,3.697515E2,2.2386855E3,1.1948734E2,2.5026414E2,1.77291E3,4.657754E2,9.8272194E1,2.1215149E1,1.500408E2,1.0022335E2,1.1435057E2,1.6585594E3,4.1023416E2,5.5541245E1,7.777595E1,7.226485E1,3.4006535E1,6.621681E1,2.3916441E1,9.043413E1,1.321031E3,3.375285E2,1.10741646E2,2.994925E2,2.136783E1,3.4173416E1],"tree_param":{"num_deleted":"0","num_feature":"155","num_nodes":"27","size_leaf_vector":"1"}},{"base_weights":[1.6122777E-2,-3.903543E-1,1.5717691E-1,-6.8591803E-1,1.0849817E-1,8.996549E-2,8.324385E-1,3.3277667E-1,-1.0371056E0,5.897286E-1,-1.0266227E0,-7.71101E-1,1.6475016E-1,-2.0816537E-2,1.1383903E0,-4.8258547E-2,5.718456E-2,-5.8111764E-2,2.8138513E-2,-1.563243E-2,7.1070924E-2,-7.015648E-3,-6.900317E-2,-3.3443475E-3,-8.553822E-2,2.1458453E-2,-4.717007E-3,2.3634944E-2,6.2169578E-2],"categories":[],"categories_nodes":[],"categories_segments":[],"categories_sizes":[],"default_left":[0,0,0,0,0,0,0,0,0,0,0,0,0,0,0,0,0,0,0,0,0,0,0,0,0,0,0,0,0],"id":31,"left_children":[1,3,5,7,9,11,13,15,17,19,21,23,25,-1,27,-1,-1,-1,-1,-1,-1,-1,-1,-1,-1,-1,-1,-1,-1],"loss_changes":[1.4853273E2,9.878473E1,8.6777176E1,1.5121153E2,1.3715353E2,1.12904625E2,6.7553E1,1.1676885E2,6.4267334E1,1.3400403E2,2.2231773E1,9.151606E1,1.1096472E2,0E0,7.7607727E0,0E0,0E0,0E0,0E0,0E0,0E0,0E0,0E0,0E0,0E0,0E0,0E0,0E0,0E0],"parents":[2147483647,0,0,1,1,2,2,3,3,4,4,5,5,6,6,7,7,8,8,9,9,10,10,11,11,12,12,14,14],"right_children":[2,4,6,8,10,12,14,16,18,20,22,24,26,-1,28,-1,-1,-1,-1,-1,-1,-1,-1,-1,-1,-1,-1,-1,-1],"split_conditions":[-5.5E0,2.7E1,1.205E1,5.9E-1,4.7045E-1,4.4895E-1,-1E1,4.4E0,6.2E-2,0E0,0E0,6E-1,-1E-3,-2.0816537E-2,-1.75E-2,-4.8258547E-2,5.718456E-2,-5.8111764E-2,2.8138513E-2,-1.563243E-2,7.1070924E-2,-7.015648E-3,-6.900317E-2,-3.3443475E-3,-8.553822E-2,2.1458453E-2,-4.717007E-3,2.3634944E-2,6.2169578E-2],"split_indices":[137,63,103,125,23,59,136,29,86,90,153,46,85,0,85,0,0,0,0,0,0,0,0,0,0,0,0,0,0],"split_type":[0,0,0,0,0,0,0,0,0,0,0,0,0,0,0,0,0,0,0,0,0,0,0,0,0,0,0,0,0],"sum_hessian":[2.5884927E3,6.650196E2,1.9234731E3,4.1775653E2,2.4726309E2,1.7520879E3,1.713852E2,1.06759346E2,3.109972E2,1.7463052E2,7.263257E1,1.3798846E2,1.6140995E3,3.32631E1,1.381221E2,4.066847E1,6.609088E1,2.8923514E2,2.1762058E1,8.4066246E1,9.056427E1,2.1906683E1,5.0725883E1,8.040491E1,5.758356E1,7.991404E2,8.1495905E2,2.0966055E1,1.17156044E2],"tree_param":{"num_deleted":"0","num_feature":"155","num_nodes":"29","size_leaf_vector":"1"}},{"base_weights":[5.503812E-3,-1.3708492E-1,3.455435E-1,-3.3714142E-1,1.10470794E-1,4.807539E-1,-7.2956157E-1,6.736422E-2,-3.92338E-1,7.890604E-1,-1.7315172E-1,2.7900055E-1,1.0002738E0,3.3788797E-2,-1.1935847E0,-1.4934058E-2,-6.4580224E-2,-4.9437363E-2,4.9614403E-2,-3.1914495E-2,7.272272E-3,5.748511E-3,6.6473715E-2,6.2500946E-2,-2.5829028E-3,-7.89819E-2,-2.1039883E-2],"categories":[],"categories_nodes":[],"categories_segments":[],"categories_sizes":[],"default_left":[0,0,0,0,0,0,0,0,0,0,0,0,0,0,0,0,0,0,0,0,0,0,0,0,0,0,0],"id":32,"left_children":[1,3,5,7,9,11,13,-1,15,17,19,21,23,-1,25,-1,-1,-1,-1,-1,-1,-1,-1,-1,-1,-1,-1],"loss_changes":[1.2482568E2,8.989633E1,1.1120022E2,9.387098E1,1.5647023E2,6.9825195E1,5.7559925E1,0E0,8.041588E1,8.854089E1,8.524831E1,8.366785E1,5.0137527E1,0E0,1.711876E1,0E0,0E0,0E0,0E0,0E0,0E0,0E0,0E0,0E0,0E0,0E0,0E0],"parents":[2147483647,0,0,1,1,2,2,3,3,4,4,5,5,6,6,8,8,9,9,10,10,11,11,12,12,14,14],"right_children":[2,4,6,8,10,12,14,-1,16,18,20,22,24,-1,26,-1,-1,-1,-1,-1,-1,-1,-1,-1,-1,-1,-1],"split_conditions":[2.1E0,4.758E-1,4.8E0,-1.47E1,7.647E-1,5.8E0,4.4E0,6.736422E-2,1.46E1,-3.2E0,1.0039E2,3.4E-2,1.95E0,3.3788797E-2,3.885E-1,-1.4934058E-2,-6.4580224E-2,-4.9437363E-2,4.9614403E-2,-3.1914495E-2,7.272272E-3,5.748511E-3,6.6473715E-2,6.2500946E-2,-2.5829028E-3,-7.89819E-2,-2.1039883E-2],"split_indices":[135,48,56,20,50,7,43,0,145,78,108,142,101,0,24,0,0,0,0,0,0,0,0,0,0,0,0],"split_type":[0,0,0,0,0,0,0,0,0,0,0,0,0,0,0,0,0,0,0,0,0,0,0,0,0,0,0],"sum_hessian":[2.568374E3,1.8093735E3,7.590006E2,1.001406E3,8.0796747E2,6.756041E2,8.33965E1,3.0000782E1,9.714052E2,2.3762628E2,5.703412E2,4.8953268E2,1.8607146E2,2.0207119E1,6.3189377E1,8.826946E2,8.871064E1,2.3331833E1,2.1429445E2,2.3167223E2,3.3866898E2,4.2574753E2,6.3785156E1,1.5045076E2,3.5620686E1,4.031464E1,2.2874737E1],"tree_param":{"num_deleted":"0","num_feature":"155","num_nodes":"27","size_leaf_vector":"1"}},{"base_weights":[2.0793288E-3,-3.9633062E-1,1.3811633E-1,-6.995046E-1,1.0383632E-1,2.3811184E-1,-3.8077193E-1,2.1637394E-1,-1.0177406E0,6.690634E-1,-6.493982E-1,7.074385E-1,1.1218901E-1,-6.7672366E-1,6.649036E-1,-3.218935E-2,6.646749E-2,1.3176756E-2,-5.735615E-2,6.2415887E-2,-3.108873E-2,-6.6790625E-2,3.336642E-2,4.889531E-2,-2.1175826E-2,1.3883979E-3,7.631738E-2,5.1227648E-2,-4.6104994E-2,7.803488E-2,-2.8436506E-2],"categories":[],"categories_nodes":[],"categories_segments":[],"categories_sizes":[],"default_left":[0,0,0,0,0,0,0,0,0,0,0,0,0,0,0,0,0,0,0,0,0,0,0,0,0,0,0,0,0,0,0],"id":33,"left_children":[1,3,5,7,9,11,13,15,17,19,21,23,25,27,29,-1,-1,-1,-1,-1,-1,-1,-1,-1,-1,-1,-1,-1,-1,-1,-1],"loss_changes":[1.389164E2,9.932303E1,9.9388885E1,1.1943022E2,1.06127556E2,9.436036E1,9.656744E1,1.0368791E2,5.1227875E1,1.084866E2,9.847743E1,1.0467381E2,1.5071944E2,1.0298314E2,7.832767E1,0E0,0E0,0E0,0E0,0E0,0E0,0E0,0E0,0E0,0E0,0E0,0E0,0E0,0E0,0E0,0E0],"parents":[2147483647,0,0,1,1,2,2,3,3,4,4,5,5,6,6,7,7,8,8,9,9,10,10,11,11,12,12,13,13,14,14],"right_children":[2,4,6,8,10,12,14,16,18,20,22,24,26,28,30,-1,-1,-1,-1,-1,-1,-1,-1,-1,-1,-1,-1,-1,-1,-1,-1],"split_conditions":[-5.5E0,2.7E1,4.61E1,9.703E1,4.692E-1,-1.15E0,3.54E-2,3.789E-1,-1.7E0,4E0,1.182E2,2.6E0,4.64E1,-5.23E-2,2.05E0,-3.218935E-2,6.646749E-2,1.3176756E-2,-5.735615E-2,6.2415887E-2,-3.108873E-2,-6.6790625E-2,3.336642E-2,4.889531E-2,-2.1175826E-2,1.3883979E-3,7.631738E-2,5.1227648E-2,-4.6104994E-2,7.803488E-2,-2.8436506E-2],"split_indices":[137,63,62,121,1,98,73,49,91,152,36,80,51,85,99,0,0,0,0,0,0,0,0,0,0,0,0,0,0,0,0],"split_type":[0,0,0,0,0,0,0,0,0,0,0,0,0,0,0,0,0,0,0,0,0,0,0,0,0,0,0,0,0,0,0],"sum_hessian":[2.5614663E3,6.5008057E2,1.9113856E3,4.048719E2,2.452087E2,1.6042708E3,3.071149E2,1.04162575E2,3.0070932E2,1.4059416E2,1.0461454E2,3.3658368E2,1.267687E3,2.4029062E2,6.682428E1,5.8976555E1,4.518602E1,2.7035736E1,2.7367358E2,9.7358475E1,4.323569E1,6.899693E1,3.5617603E1,2.721999E2,6.438379E1,1.1985311E3,6.91559E1,2.9231323E1,2.110593E2,3.864069E1,2.8183588E1],"tree_param":{"num_deleted":"0","num_feature":"155","num_nodes":"31","size_leaf_vector":"1"}},{"base_weights":[7.0551434E-3,5.520466E-1,-8.05011E-2,2.2580148E-1,1.210927E0,6.363109E-1,-1.5564641E-1,-6.707794E-2,4.3570474E-1,6.65679E-2,2.9524047E-2,-6.779241E-1,1.1759571E0,-1.0516137E-1,-1.2133659E0,4.586317E-2,-1.5821433E-2,3.374986E-2,-7.143819E-2,-1.1978204E-2,7.2799884E-2,-7.1395206E-4,-3.589144E-2,-6.750285E-2,-3.5341766E-2],"categories":[],"categories_nodes":[],"categories_segments":[],"categories_sizes":[],"default_left":[0,0,0,0,0,0,0,0,0,0,0,0,0,0,0,0,0,0,0,0,0,0,0,0,0],"id":34,"left_children":[1,3,5,7,9,11,13,-1,15,-1,-1,17,19,21,23,-1,-1,-1,-1,-1,-1,-1,-1,-1,-1],"loss_changes":[1.2119129E2,7.432518E1,1.1756203E2,7.9070175E1,6.0964355E0,1.4860031E2,1.0472943E2,0E0,7.76033E1,0E0,0E0,6.450804E1,5.9851974E1,1.0490002E2,3.25885E0,0E0,0E0,0E0,0E0,0E0,0E0,0E0,0E0,0E0,0E0],"parents":[2147483647,0,0,1,1,2,2,3,3,4,4,5,5,6,6,8,8,11,11,12,12,13,13,14,14],"right_children":[2,4,6,8,10,12,14,-1,16,-1,-1,18,20,22,24,-1,-1,-1,-1,-1,-1,-1,-1,-1,-1],"split_conditions":[-4.7E0,-6E-1,3.078E-1,7.522E-1,1.212E2,-1.31E1,7.8E0,-6.707794E-2,4.32E-2,6.65679E-2,2.9524047E-2,4.617E-1,1E0,4.67E1,6.47E-1,4.586317E-2,-1.5821433E-2,3.374986E-2,-7.143819E-2,-1.1978204E-2,7.2799884E-2,-7.1395206E-4,-3.589144E-2,-6.750285E-2,-3.5341766E-2],"split_indices":[136,102,38,25,0,143,136,0,75,0,0,12,147,62,125,0,0,0,0,0,0,0,0,0,0],"split_type":[0,0,0,0,0,0,0,0,0,0,0,0,0,0,0,0,0,0,0,0,0,0,0,0,0],"sum_hessian":[2.5309675E3,3.4965433E2,2.1813132E3,2.3616254E2,1.1349178E2,2.049266E2,1.9763866E3,2.6337103E1,2.0982542E2,9.24495E1,2.1042284E1,5.92332E1,1.456934E2,1.8889008E3,8.748583E1,1.2805988E2,8.176555E1,2.097497E1,3.825823E1,2.381571E1,1.218777E2,1.6473915E3,2.415093E2,6.549407E1,2.1991762E1],"tree_param":{"num_deleted":"0","num_feature":"155","num_nodes":"25","size_leaf_vector":"1"}},{"base_weights":[7.3075335E-4,-3.6732438E-1,1.24873824E-1,-1.85845E-1,-1.112188E0,6.935128E-2,8.805471E-1,5.9843916E-1,-3.9804554E-1,-1.2809283E-2,-6.3623846E-2,4.852986E-3,7.919106E-1,-2.225136E-2,1.4175919E0,6.944395E-2,-4.0552393E-2,-3.1046277E-2,3.265828E-2,1.2476595E-2,-1.2131006E-2,-4.1965183E-2,5.5092435E-2,7.664366E-2,4.919747E-2],"categories":[],"categories_nodes":[],"categories_segments":[],"categories_sizes":[],"default_left":[0,0,0,0,0,0,0,0,0,0,0,0,0,0,0,0,0,0,0,0,0,0,0,0,0],"id":35,"left_children":[1,3,5,7,9,11,13,15,17,-1,-1,19,21,-1,23,-1,-1,-1,-1,-1,-1,-1,-1,-1,-1],"loss_changes":[1.1661563E2,8.590863E1,7.960355E1,8.696414E1,1.5748947E1,8.2709755E1,9.432673E1,1.26309235E2,9.7134346E1,0E0,0E0,9.942592E1,7.554413E1,0E0,3.890381E-1,0E0,0E0,0E0,0E0,0E0,0E0,0E0,0E0,0E0,0E0],"parents":[2147483647,0,0,1,1,2,2,3,3,4,4,5,5,6,6,7,7,8,8,11,11,12,12,14,14],"right_children":[2,4,6,8,10,12,14,16,18,-1,-1,20,22,-1,24,-1,-1,-1,-1,-1,-1,-1,-1,-1,-1],"split_conditions":[-5.5E0,1.035E-2,9.5E0,-2.5E0,2.405E1,1.205E1,1E0,5.89E-1,4.88E1,-1.2809283E-2,-6.3623846E-2,-5E-4,-3.11E-2,-2.225136E-2,2.89E1,6.944395E-2,-4.0552393E-2,-3.1046277E-2,3.265828E-2,1.2476595E-2,-1.2131006E-2,-4.1965183E-2,5.5092435E-2,7.664366E-2,4.919747E-2],"split_indices":[137,95,33,88,63,103,150,128,40,0,0,85,85,0,16,0,0,0,0,0,0,0,0,0,0],"split_type":[0,0,0,0,0,0,0,0,0,0,0,0,0,0,0,0,0,0,0,0,0,0,0,0,0],"sum_hessian":[2.5508848E3,6.413845E2,1.9095004E3,5.182804E2,1.2310414E2,1.7814545E3,1.2804587E2,1.09090385E2,4.0919E2,2.0727503E1,1.0237664E2,1.6379504E3,1.4350404E2,3.674954E1,9.129632E1,7.013992E1,3.8950466E1,3.3867722E2,7.051277E1,8.246325E2,8.1331793E2,2.2109882E1,1.2139416E2,6.720697E1,2.4089348E1],"tree_param":{"num_deleted":"0","num_feature":"155","num_nodes":"25","size_leaf_vector":"1"}},{"base_weights":[-4.5162672E-4,-8.388473E-2,4.422446E-1,-2.0826182E-1,3.176965E-1,5.989603E-1,-5.0243307E-2,-4.0113482E-1,1.2713198E-1,-5.1571935E-1,5.463586E-1,-3.982319E-2,7.560827E-1,-1.567869E-2,-8.7113515E-2,1.4378353E-2,-6.243816E-2,2.6789773E-2,-5.091958E-2,4.455193E-2,-1.0456541E-2,6.0569316E-2,1.4959805E-2],"categories":[],"categories_nodes":[],"categories_segments":[],"categories_sizes":[],"default_left":[0,0,0,0,0,0,0,0,0,0,0,0,0,0,0,0,0,0,0,0,0,0,0],"id":36,"left_children":[1,3,5,7,9,11,-1,13,15,17,19,-1,21,-1,-1,-1,-1,-1,-1,-1,-1,-1,-1],"loss_changes":[9.313598E1,1.06302765E2,9.164436E1,1.054204E2,9.6391174E1,8.0597275E1,0E0,1.1927359E2,1.3140736E2,5.8841743E1,1.03823364E2,0E0,6.652055E1,0E0,0E0,0E0,0E0,0E0,0E0,0E0,0E0,0E0,0E0],"parents":[2147483647,0,0,1,1,2,2,3,3,4,4,5,5,7,7,8,8,9,9,10,10,12,12],"right_children":[2,4,6,8,10,12,-1,14,16,18,20,-1,22,-1,-1,-1,-1,-1,-1,-1,-1,-1,-1],"split_conditions":[5.4E0,5.89E-1,1.222E2,1.0132E2,-4.1E0,3.175E-1,-5.0243307E-2,4.2E0,1.218E2,7.724E-1,4.4E-2,-3.982319E-2,1.35E1,-1.567869E-2,-8.7113515E-2,1.4378353E-2,-6.243816E-2,2.6789773E-2,-5.091958E-2,4.455193E-2,-1.0456541E-2,6.0569316E-2,1.4959805E-2],"split_indices":[76,115,11,121,145,13,0,76,36,39,75,0,19,0,0,0,0,0,0,0,0,0,0],"split_type":[0,0,0,0,0,0,0,0,0,0,0,0,0,0,0,0,0,0,0,0,0,0,0],"sum_hessian":[2.5224253E3,2.1247356E3,3.9768958E2,1.6239701E3,5.007655E2,3.601993E2,3.7490276E1,1.0317477E3,5.922225E2,1.0680192E2,3.9396356E2,3.5307617E1,3.248917E2,9.7118097E2,6.05667E1,5.321204E2,6.0102047E1,3.4178715E1,7.26232E1,2.7074396E2,1.23219635E2,1.6052536E2,1.6436632E2],"tree_param":{"num_deleted":"0","num_feature":"155","num_nodes":"23","size_leaf_vector":"1"}},{"base_weights":[1.158692E-3,-3.3984354E-1,1.1747768E-1,-1.6910127E-1,-1.0809581E0,2.7872056E-1,-1.308525E-1,9.288928E-3,-1.1436799E0,-6.2318254E-2,-1.1111972E-2,7.0259416E-1,4.795112E-2,-1.4002657E0,7.229875E-3,-2.556499E-2,2.2332413E-2,-2.5495691E-2,-6.641602E-2,-4.732359E-2,4.175309E-2,-3.237991E-2,1.7290812E-2,-2.7315432E-2,-8.57883E-2,-7.867972E-3,5.901989E-2],"categories":[],"categories_nodes":[],"categories_segments":[],"categories_sizes":[],"default_left":[0,0,0,0,0,0,0,0,0,0,0,0,0,0,0,0,0,0,0,0,0,0,0,0,0,0,0],"id":37,"left_children":[1,3,5,7,9,11,13,15,17,-1,-1,19,21,23,25,-1,-1,-1,-1,-1,-1,-1,-1,-1,-1,-1,-1],"loss_changes":[9.962492E1,7.979954E1,7.526422E1,9.1310905E1,1.5561691E1,1.11000275E2,1.3019688E2,1.0120644E2,7.2267838E0,0E0,0E0,8.9058426E1,1.5373299E2,1.661766E1,1.2983968E2,0E0,0E0,0E0,0E0,0E0,0E0,0E0,0E0,0E0,0E0,0E0,0E0],"parents":[2147483647,0,0,1,1,2,2,3,3,4,4,5,5,6,6,7,7,8,8,11,11,12,12,13,13,14,14],"right_children":[2,4,6,8,10,12,14,16,18,-1,-1,20,22,24,26,-1,-1,-1,-1,-1,-1,-1,-1,-1,-1,-1,-1],"split_conditions":[-5.5E0,1.035E-2,3.702E-1,2.6E0,7E-1,-4.5E-1,1.06E1,-6.8E0,2.2E0,-6.2318254E-2,-1.1111972E-2,4.236E-1,-2.3E0,-3.2E0,8.3E0,-2.556499E-2,2.2332413E-2,-2.5495691E-2,-6.641602E-2,-4.732359E-2,4.175309E-2,-3.237991E-2,1.7290812E-2,-2.7315432E-2,-8.57883E-2,-7.867972E-3,5.901989E-2],"split_indices":[137,95,38,9,31,101,8,9,132,0,0,37,20,76,56,0,0,0,0,0,0,0,0,0,0,0,0],"split_type":[0,0,0,0,0,0,0,0,0,0,0,0,0,0,0,0,0,0,0,0,0,0,0,0,0,0,0],"sum_hessian":[2.510446E3,6.3645746E2,1.8739886E3,5.198275E2,1.1662989E2,1.1372993E3,7.3668933E2,4.406393E2,7.918823E1,9.65477E1,2.0082193E1,3.9870624E2,7.385931E2,7.083465E1,6.6585474E2,2.005013E2,2.40138E2,2.0173914E1,5.9014317E1,2.8451702E1,3.7025455E2,2.2025212E2,5.1834094E2,2.1011433E1,4.9823215E1,5.85077E2,8.077771E1],"tree_param":{"num_deleted":"0","num_feature":"155","num_nodes":"27","size_leaf_vector":"1"}},{"base_weights":[-3.764378E-3,-5.3308796E-2,7.3649406E-1,-8.515731E-1,1.6104989E-3,-3.3708453E-2,1.0920147E0,-1.3124045E0,2.3599388E-1,-1.4596094E-1,2.8537086E-1,2.4963785E-2,6.0087062E-2,-2.901091E-2,-7.666039E-2,-2.8233388E-2,5.3567786E-2,2.5034158E-2,-1.3287395E-2,-6.5408225E-5,4.4949085E-2],"categories":[],"categories_nodes":[],"categories_segments":[],"categories_sizes":[],"default_left":[0,0,0,0,0,0,0,0,0,0,0,0,0,0,0,0,0,0,0,0,0],"id":38,"left_children":[1,3,5,7,9,-1,11,13,15,17,19,-1,-1,-1,-1,-1,-1,-1,-1,-1,-1],"loss_changes":[9.1261086E1,1.03077385E2,7.9940926E1,7.699142E1,9.1948975E1,0E0,6.123642E0,1.4447205E1,3.250058E1,1.11869415E2,1.327059E2,0E0,0E0,0E0,0E0,0E0,0E0,0E0,0E0,0E0,0E0],"parents":[2147483647,0,0,1,1,2,2,3,3,4,4,6,6,7,7,8,8,9,9,10,10],"right_children":[2,4,6,8,10,-1,12,14,16,18,20,-1,-1,-1,-1,-1,-1,-1,-1,-1,-1],"split_conditions":[1.205E1,4.4875E-1,-4E0,1.2E0,3.6E0,-3.3708453E-2,4.439E-1,3.204E-1,7.856E-1,-3.5E0,5.6E0,2.4963785E-2,6.0087062E-2,-2.901091E-2,-7.666039E-2,-2.8233388E-2,5.3567786E-2,2.5034158E-2,-1.3287395E-2,-6.5408225E-5,4.4949085E-2],"split_indices":[103,59,88,78,145,0,48,2,61,88,7,0,0,0,0,0,0,0,0,0,0],"split_type":[0,0,0,0,0,0,0,0,0,0,0,0,0,0,0,0,0,0,0,0,0],"sum_hessian":[2.4935002E3,2.3394553E3,1.540449E2,1.4930891E2,2.1901462E3,3.0364244E1,1.23680664E2,1.0490438E2,4.4404537E1,1.4403119E3,7.498345E2,2.176485E1,1.0191582E2,2.6511595E1,7.839279E1,2.2698479E1,2.1706059E1,2.2346274E2,1.2168491E3,5.1186978E2,2.379647E2],"tree_param":{"num_deleted":"0","num_feature":"155","num_nodes":"21","size_leaf_vector":"1"}},{"base_weights":[-9.356792E-3,1.494318E-1,-2.5479442E-1,2.4483809E-1,-8.636485E-1,-4.807507E-1,3.1644583E-1,2.985804E-1,-1.0384622E0,-1.2104232E0,3.608141E-2,6.5977216E-2,-5.4258347E-1,4.944733E-1,-7.97172E-2,3.0357933E-3,3.2580346E-2,-6.44565E-3,-8.788245E-2,-9.458373E-3,-7.426023E-2,-4.5239057E-2,-8.689833E-3,4.9072538E-2,-1.165952E-2],"categories":[],"categories_nodes":[],"categories_segments":[],"categories_sizes":[],"default_left":[0,0,0,0,0,0,0,0,0,0,0,0,0,0,0,0,0,0,0,0,0,0,0,0,0],"id":39,"left_children":[1,3,5,7,9,11,13,15,17,19,-1,-1,21,23,-1,-1,-1,-1,-1,-1,-1,-1,-1,-1,-1],"loss_changes":[9.626705E1,1.44884E2,1.2571743E2,9.479858E1,7.285556E1,7.8653305E1,9.4844925E1,1.1021827E2,3.4696392E1,2.8564438E1,0E0,0E0,8.940611E1,9.085791E1,0E0,0E0,0E0,0E0,0E0,0E0,0E0,0E0,0E0,0E0,0E0],"parents":[2147483647,0,0,1,1,2,2,3,3,4,4,5,5,6,6,7,7,8,8,9,9,12,12,13,13],"right_children":[2,4,6,8,10,12,14,16,18,20,-1,-1,22,24,-1,-1,-1,-1,-1,-1,-1,-1,-1,-1,-1],"split_conditions":[8.8E0,8.1855E-1,9.6E-2,5.202E-1,4.7E0,1.113E2,1.52E1,1.43E0,7.5E-1,4.4E0,3.608141E-2,6.5977216E-2,1.38E-2,5.03E-1,-7.97172E-2,3.0357933E-3,3.2580346E-2,-6.44565E-3,-8.788245E-2,-9.458373E-3,-7.426023E-2,-4.5239057E-2,-8.689833E-3,4.9072538E-2,-1.165952E-2],"split_indices":[42,61,144,1,87,110,66,31,101,7,0,0,74,114,0,0,0,0,0,0,0,0,0,0,0],"split_type":[0,0,0,0,0,0,0,0,0,0,0,0,0,0,0,0,0,0,0,0,0,0,0,0,0],"sum_hessian":[2.4648098E3,1.4958185E3,9.689912E2,1.3689121E3,1.2690639E2,6.9519586E2,2.7379535E2,1.3157357E3,5.317635E1,1.0477539E2,2.2130997E1,2.1464922E1,6.7373096E2,2.5205554E2,2.1739796E1,7.883299E2,5.274058E2,2.4829031E1,2.834732E1,2.3315866E1,8.1459526E1,3.3775146E2,3.359795E2,1.5099448E2,1.01061066E2],"tree_param":{"num_deleted":"0","num_feature":"155","num_nodes":"25","size_leaf_vector":"1"}},{"base_weights":[2.5030666E-3,-4.507257E-2,7.434256E-1,-7.985704E-1,6.05601E-3,9.6991265E-1,-2.9179437E-2,7.456828E-2,-1.3061001E0,-3.9521056E-1,9.7833134E-2,5.9206195E-2,-1.546938E-3,7.119324E-2,-4.150799E-2,-7.451459E-2,-3.233422E-2,4.9685497E-2,-2.767608E-2,2.4007797E-2,-2.1522667E-3],"categories":[],"categories_nodes":[],"categories_segments":[],"categories_sizes":[],"default_left":[0,0,0,0,0,0,0,0,0,0,0,0,0,0,0,0,0,0,0,0,0],"id":40,"left_children":[1,3,5,7,9,11,-1,13,15,17,19,-1,-1,-1,-1,-1,-1,-1,-1,-1,-1],"loss_changes":[8.748469E1,8.987143E1,4.634278E1,6.6484505E1,8.00664E1,2.8310776E1,0E0,7.1032196E1,8.444534E0,8.980931E1,9.578852E1,0E0,0E0,0E0,0E0,0E0,0E0,0E0,0E0,0E0,0E0],"parents":[2147483647,0,0,1,1,2,2,3,3,4,4,5,5,7,7,8,8,9,9,10,10],"right_children":[2,4,6,8,10,12,-1,14,16,18,20,-1,-1,-1,-1,-1,-1,-1,-1,-1,-1],"split_conditions":[1.205E1,4.4875E-1,3.7095E-1,-1E0,-1.9E-2,6.3E0,-2.9179437E-2,1.18E1,1.05E1,-7E0,-1.43E-2,5.9206195E-2,-1.546938E-3,7.119324E-2,-4.150799E-2,-7.451459E-2,-3.233422E-2,4.9685497E-2,-2.767608E-2,2.4007797E-2,-2.1522667E-3],"split_indices":[103,59,60,71,141,29,0,8,132,76,95,0,0,0,0,0,0,0,0,0,0],"split_type":[0,0,0,0,0,0,0,0,0,0,0,0,0,0,0,0,0,0,0,0,0],"sum_hessian":[2.4680378E3,2.3202546E3,1.4778317E2,1.4620007E2,2.1740544E3,1.27019264E2,2.0763912E1,5.4007763E1,9.2192314E1,4.0244223E2,1.7716123E3,1.04736046E2,2.2283215E1,2.1439016E1,3.256875E1,6.95007E1,2.2691608E1,3.9774426E1,3.6266782E2,4.7668744E2,1.2949248E3],"tree_param":{"num_deleted":"0","num_feature":"155","num_nodes":"21","size_leaf_vector":"1"}},{"base_weights":[-4.2305663E-3,-8.471627E-2,4.2618093E-1,-3.910061E-2,-1.1565558E0,6.461696E-1,-7.315677E-1,-7.372549E-1,2.023291E-2,-6.577026E-2,-3.0399984E-2,-4.0828098E-2,8.481533E-1,-7.859161E-2,4.126399E-2,6.117902E-3,-6.770276E-2,2.7366802E-2,-4.1546524E-3,5.3161837E-2,-2.4874559E-2],"categories":[],"categories_nodes":[],"categories_segments":[],"categories_sizes":[],"default_left":[0,0,0,0,0,0,0,0,0,0,0,0,0,0,0,0,0,0,0,0,0],"id":41,"left_children":[1,3,5,7,9,11,13,15,17,-1,-1,-1,19,-1,-1,-1,-1,-1,-1,-1,-1],"loss_changes":[8.5546135E1,1.012749E2,9.99347E1,8.335376E1,4.811737E0,9.8358E1,8.4938835E1,8.4505226E1,1.00930244E2,0E0,0E0,0E0,8.516815E1,0E0,0E0,0E0,0E0,0E0,0E0,0E0,0E0],"parents":[2147483647,0,0,1,1,2,2,3,3,4,4,5,5,6,6,7,7,8,8,12,12],"right_children":[2,4,6,8,10,12,14,16,18,-1,-1,-1,20,-1,-1,-1,-1,-1,-1,-1,-1],"split_conditions":[5.4E0,7.8E0,5.8E-2,4.4895E-1,2.78E1,3.8E0,6E-1,4.31E1,3.339E-1,-6.577026E-2,-3.0399984E-2,-4.0828098E-2,1.2045E2,-7.859161E-2,4.126399E-2,6.117902E-3,-6.770276E-2,2.7366802E-2,-4.1546524E-3,5.3161837E-2,-2.4874559E-2],"split_indices":[76,136,86,59,5,18,21,26,13,0,0,0,58,0,0,0,0,0,0,0,0],"split_type":[0,0,0,0,0,0,0,0,0,0,0,0,0,0,0,0,0,0,0,0,0],"sum_hessian":[2.4702803E3,2.0834495E3,3.8683096E2,2.0008365E3,8.261274E1,3.261697E2,6.066126E1,1.5559436E2,1.8452422E3,6.1186996E1,2.1425745E1,3.853621E1,2.876335E2,3.9593628E1,2.1067629E1,6.533369E1,9.026067E1,3.018157E2,1.5434265E3,2.4867708E2,3.895642E1],"tree_param":{"num_deleted":"0","num_feature":"155","num_nodes":"21","size_leaf_vector":"1"}},{"base_weights":[-1.03832735E-2,6.164936E-2,-4.7764176E-1,-6.5905754E-3,6.1368036E-1,-9.3875253E-1,2.3360604E-1,-1.1232753E-1,4.2191496E-1,-6.338291E-2,1.1286578E0,-6.772985E-2,1.1449999E-1,-3.250944E-1,1.3176885E0,2.228578E-2,-1.0678965E-2,4.029885E-2,-7.0809326E-3,-4.7990724E-2,4.757342E-2,7.824638E-2,1.3603414E-3,6.2678084E-2,-6.810148E-2,5.0512798E-2,-4.0536698E-2,3.4953397E-2,8.9971505E-2],"categories":[],"categories_nodes":[],"categories_segments":[],"categories_sizes":[],"default_left":[0,0,0,0,0,0,0,0,0,0,0,0,0,0,0,0,0,0,0,0,0,0,0,0,0,0,0,0,0],"id":42,"left_children":[1,3,5,7,9,11,13,15,17,19,21,-1,23,25,27,-1,-1,-1,-1,-1,-1,-1,-1,-1,-1,-1,-1,-1,-1],"loss_changes":[8.289806E1,8.047313E1,1.0871508E2,8.5801346E1,8.2592026E1,8.8732635E1,8.045776E1,8.60986E1,8.162426E1,9.55075E1,6.3494064E1,0E0,1.0132581E2,5.827365E1,9.680824E0,0E0,0E0,0E0,0E0,0E0,0E0,0E0,0E0,0E0,0E0,0E0,0E0,0E0,0E0],"parents":[2147483647,0,0,1,1,2,2,3,3,4,4,5,5,6,6,7,7,8,8,9,9,10,10,12,12,13,13,14,14],"right_children":[2,4,6,8,10,12,14,16,18,20,22,-1,24,26,28,-1,-1,-1,-1,-1,-1,-1,-1,-1,-1,-1,-1,-1,-1],"split_conditions":[4.66E1,4.76E1,1.495E1,5.4E0,-5.5E-1,1.17E2,5.6E0,3.8E0,7.883E-1,2E-1,2E0,-6.772985E-2,7.7E0,7.306E-1,1.0132E2,2.228578E-2,-1.0678965E-2,4.029885E-2,-7.0809326E-3,-4.7990724E-2,4.757342E-2,7.824638E-2,1.3603414E-3,6.2678084E-2,-6.810148E-2,5.0512798E-2,-4.0536698E-2,3.4953397E-2,8.9971505E-2],"split_indices":[62,40,66,76,99,109,65,54,25,79,113,0,64,14,108,0,0,0,0,0,0,0,0,0,0,0,0,0,0],"split_type":[0,0,0,0,0,0,0,0,0,0,0,0,0,0,0,0,0,0,0,0,0,0,0,0,0,0,0,0,0],"sum_hessian":[2.4530337E3,2.1259612E3,3.2707242E2,1.8930234E3,2.3293784E2,1.9846704E2,1.2860538E2,1.5204769E3,3.725465E2,1.0097048E2,1.3196736E2,1.4221881E2,5.6248234E1,8.548714E1,4.311824E1,2.3170518E2,1.2887717E3,2.2156876E2,1.5097774E2,5.3932415E1,4.7038067E1,9.359869E1,3.8368675E1,3.2114388E1,2.4133844E1,2.1947788E1,6.3539352E1,2.1477901E1,2.1640339E1],"tree_param":{"num_deleted":"0","num_feature":"155","num_nodes":"29","size_leaf_vector":"1"}},{"base_weights":[9.486294E-4,4.641916E-1,-7.1992725E-2,1.1357629E0,1.3006978E-1,-1.683752E-1,2.975071E-1,6.397974E-2,2.3548547E-2,5.890547E-1,-7.3027575E-1,-5.4342195E-2,-5.8862096E-1,4.8173642E-1,-9.324051E-1,-4.592084E-3,6.1030746E-2,3.6163162E-2,-8.423828E-2,-3.393565E-2,2.3147883E-3,-6.009243E-2,-7.4219764E-3,-5.5615973E-2,2.9926283E-2,-2.3857508E-4,-7.29393E-2],"categories":[],"categories_nodes":[],"categories_segments":[],"categories_sizes":[],"default_left":[0,0,0,0,0,0,0,0,0,0,0,0,0,0,0,0,0,0,0,0,0,0,0,0,0,0,0],"id":43,"left_children":[1,3,5,7,9,11,13,-1,-1,15,17,19,21,23,25,-1,-1,-1,-1,-1,-1,-1,-1,-1,-1,-1,-1],"loss_changes":[8.274516E1,7.3854546E1,7.517184E1,8.434448E0,8.976066E1,7.991509E1,9.949257E1,0E0,0E0,6.460941E1,1.1237851E2,8.339425E1,9.519909E1,7.2001015E1,2.715728E1,0E0,0E0,0E0,0E0,0E0,0E0,0E0,0E0,0E0,0E0,0E0,0E0],"parents":[2147483647,0,0,1,1,2,2,3,3,4,4,5,5,6,6,9,9,10,10,11,11,12,12,13,13,14,14],"right_children":[2,4,6,8,10,12,14,-1,-1,16,18,20,22,24,26,-1,-1,-1,-1,-1,-1,-1,-1,-1,-1,-1,-1],"split_conditions":[-4.7E0,0E0,5.89E-1,1E0,2.74E1,9.4E0,1.2085E2,6.397974E-2,2.3548547E-2,4.41E1,-2E0,6.95E0,1.33E1,-8.665E-2,1.23E1,-4.592084E-3,6.1030746E-2,3.6163162E-2,-8.423828E-2,-3.393565E-2,2.3147883E-3,-6.009243E-2,-7.4219764E-3,-5.5615973E-2,2.9926283E-2,-2.3857508E-4,-7.29393E-2],"split_indices":[136,72,115,153,52,53,22,0,0,15,77,64,55,97,30,0,0,0,0,0,0,0,0,0,0,0,0],"split_type":[0,0,0,0,0,0,0,0,0,0,0,0,0,0,0,0,0,0,0,0,0,0,0,0,0,0,0],"sum_hessian":[2.439056E3,3.31277E2,2.107779E3,1.079689E2,2.233081E2,1.6736549E3,4.3412405E2,8.662528E1,2.1343622E1,1.4641116E2,7.689694E1,1.3191532E3,3.545017E2,3.789796E2,5.514442E1,7.0895226E1,7.551594E1,3.0464668E1,4.643227E1,1.822057E2,1.1369475E3,1.4621263E2,2.0828906E2,2.4414642E1,3.5456497E2,2.1037807E1,3.4106613E1],"tree_param":{"num_deleted":"0","num_feature":"155","num_nodes":"27","size_leaf_vector":"1"}},{"base_weights":[-3.2471968E-3,2.0962352E-1,-1.5429528E-1,1.0587532E-1,1.484672E0,-1.115271E0,-7.717794E-2,3.2941226E-2,6.0926624E-2,8.679384E-2,4.036083E-2,-5.899794E-3,-1.4674444E0,1.3332258E-2,-6.635727E-1,6.357574E-3,-5.2812792E-2,-4.362439E-2,-8.2116626E-2,-6.9828196E-3,2.3981122E-2,-4.4239055E-2,3.765307E-2],"categories":[],"categories_nodes":[],"categories_segments":[],"categories_sizes":[],"default_left":[0,0,0,0,0,0,0,0,0,0,0,0,0,0,0,0,0,0,0,0,0,0,0],"id":44,"left_children":[1,3,5,7,9,11,13,15,-1,-1,-1,-1,17,19,21,-1,-1,-1,-1,-1,-1,-1,-1],"loss_changes":[7.843435E1,1.3269226E2,1.05111755E2,7.540373E1,8.7903595E0,3.591629E1,7.067865E1,9.03773E1,0E0,0E0,0E0,0E0,3.9330292E0,8.228792E1,5.7171036E1,0E0,0E0,0E0,0E0,0E0,0E0,0E0,0E0],"parents":[2147483647,0,0,1,1,2,2,3,3,4,4,5,5,6,6,7,7,12,12,13,13,14,14],"right_children":[2,4,6,8,10,12,14,16,-1,-1,-1,-1,18,20,22,-1,-1,-1,-1,-1,-1,-1,-1],"split_conditions":[-1.27E0,4.8155E-1,-3E-1,4.785E1,3.85E0,-6E-1,8.189E-1,4.104E-1,6.0926624E-2,8.679384E-2,4.036083E-2,-5.899794E-3,-3.5E0,5.55E0,5.55E0,6.357574E-3,-5.2812792E-2,-4.362439E-2,-8.2116626E-2,-6.9828196E-3,2.3981122E-2,-4.4239055E-2,3.765307E-2],"split_indices":[67,59,67,26,98,102,61,2,0,0,0,0,87,29,98,0,0,0,0,0,0,0,0],"split_type":[0,0,0,0,0,0,0,0,0,0,0,0,0,0,0,0,0,0,0,0,0,0,0],"sum_hessian":[2.4362043E3,1.0094748E3,1.4267296E3,9.3588214E2,7.359268E1,1.035064E2,1.3232233E3,8.806637E2,5.521846E1,5.0867817E1,2.2724863E1,2.8080017E1,7.5426384E1,1.1472472E3,1.7597607E2,8.12603E2,6.806063E1,2.0505346E1,5.492104E1,8.64075E2,2.8317218E2,1.5316333E2,2.2812737E1],"tree_param":{"num_deleted":"0","num_feature":"155","num_nodes":"23","size_leaf_vector":"1"}},{"base_weights":[-8.173009E-3,1.3131504E-1,-2.230238E-1,2.1775457E-1,-7.826156E-1,-4.1664594E-1,3.5305536E-1,-2.8705773E-1,3.5631144E-1,-1.0985409E0,3.0940166E-2,-5.131446E-1,7.303144E-1,1.027897E0,-2.799522E-1,-3.4852248E-2,3.0360634E-2,9.142179E-3,4.5415487E-2,9.222203E-3,-7.122063E-2,-3.0706426E-2,2.765117E-2,-1.4858374E-2,6.7348205E-2,-5.672939E-3,6.67275E-2,-5.2008998E-2,3.2373637E-2],"categories":[],"categories_nodes":[],"categories_segments":[],"categories_sizes":[],"default_left":[0,0,0,0,0,0,0,0,0,0,0,0,0,0,0,0,0,0,0,0,0,0,0,0,0,0,0,0,0],"id":45,"left_children":[1,3,5,7,9,11,13,15,17,19,-1,21,23,25,27,-1,-1,-1,-1,-1,-1,-1,-1,-1,-1,-1,-1,-1,-1],"loss_changes":[7.255061E1,1.15840195E2,1.0671043E2,9.403734E1,5.763935E1,7.982227E1,1.0362517E2,1.0689972E2,1.00036194E2,4.475257E1,0E0,7.1926956E1,3.677036E1,4.191407E1,8.982474E1,0E0,0E0,0E0,0E0,0E0,0E0,0E0,0E0,0E0,0E0,0E0,0E0,0E0,0E0],"parents":[2147483647,0,0,1,1,2,2,3,3,4,4,5,5,6,6,7,7,8,8,9,9,11,11,12,12,13,13,14,14],"right_children":[2,4,6,8,10,12,14,16,18,20,-1,22,24,26,28,-1,-1,-1,-1,-1,-1,-1,-1,-1,-1,-1,-1,-1,-1],"split_conditions":[8.8E0,8.1855E-1,1.5E-2,7.15E0,4.7E0,4.909E-1,7E-1,1.7E0,5.8E0,4E0,3.0940166E-2,3.875E-1,4.28E1,1.119E2,4.2E0,-3.4852248E-2,3.0360634E-2,9.142179E-3,4.5415487E-2,9.222203E-3,-7.122063E-2,-3.0706426E-2,2.765117E-2,-1.4858374E-2,6.7348205E-2,-5.672939E-3,6.67275E-2,-5.2008998E-2,3.2373637E-2],"split_indices":[42,61,142,64,87,23,83,99,7,7,0,49,4,123,20,0,0,0,0,0,0,0,0,0,0,0,0,0,0],"split_type":[0,0,0,0,0,0,0,0,0,0,0,0,0,0,0,0,0,0,0,0,0,0,0,0,0,0,0,0,0],"sum_hessian":[2.415361E3,1.4635972E3,9.51764E2,1.339023E3,1.2457419E2,7.13407E2,2.3835703E2,2.8713504E2,1.051888E3,1.023012E2,2.2272987E1,6.5946454E2,5.3942425E1,1.1514479E2,1.2321223E2,1.9756128E2,8.957375E1,8.0308374E2,2.4880424E2,2.0585997E1,8.17152E1,6.0360956E2,5.5854984E1,2.0316223E1,3.36262E1,2.4306398E1,9.083839E1,6.787213E1,5.53401E1],"tree_param":{"num_deleted":"0","num_feature":"155","num_nodes":"29","size_leaf_vector":"1"}},{"base_weights":[3.5695296E-3,7.345776E-2,-4.4680882E-1,6.488334E-3,6.090583E-1,-9.011264E-1,2.315021E-1,-1.0598595E0,4.244706E-2,-4.3623302E-2,1.0953379E0,-6.607683E-2,1.6927136E-1,-3.1918344E-1,1.3353281E0,-8.467008E-2,1.4983016E-3,3.6467865E-4,7.362538E-2,-6.8247765E-2,3.161601E-2,-1.1353303E-2,7.6603375E-2,5.9870936E-2,-6.561653E-2,5.072828E-2,-4.032929E-2,4.020713E-2,8.478197E-2],"categories":[],"categories_nodes":[],"categories_segments":[],"categories_sizes":[],"default_left":[0,0,0,0,0,0,0,0,0,0,0,0,0,0,0,0,0,0,0,0,0,0,0,0,0,0,0,0,0],"id":46,"left_children":[1,3,5,7,9,11,13,15,17,19,21,-1,23,25,27,-1,-1,-1,-1,-1,-1,-1,-1,-1,-1,-1,-1,-1,-1],"loss_changes":[7.53105E1,7.4191986E1,9.974888E1,7.048845E1,7.362353E1,8.79812E1,8.0385994E1,4.2323814E1,8.928845E1,9.112793E1,7.776929E1,0E0,8.828465E1,5.8769497E1,4.4364624E0,0E0,0E0,0E0,0E0,0E0,0E0,0E0,0E0,0E0,0E0,0E0,0E0,0E0,0E0],"parents":[2147483647,0,0,1,1,2,2,3,3,4,4,5,5,6,6,7,7,8,8,9,9,10,10,12,12,13,13,14,14],"right_children":[2,4,6,8,10,12,14,16,18,20,22,-1,24,26,28,-1,-1,-1,-1,-1,-1,-1,-1,-1,-1,-1,-1,-1,-1],"split_conditions":[4.66E1,4.76E1,1.495E1,6E0,-5.5E-1,1.17E2,5.6E0,2.6E1,3.5E-1,4.2E0,1.116E2,-6.607683E-2,8.1E0,7.306E-1,1.15E2,-8.467008E-2,1.4983016E-3,3.6467865E-4,7.362538E-2,-6.8247765E-2,3.161601E-2,-1.1353303E-2,7.6603375E-2,5.9870936E-2,-6.561653E-2,5.072828E-2,-4.032929E-2,4.020713E-2,8.478197E-2],"split_indices":[62,40,66,53,99,109,65,41,70,7,36,0,53,14,0,0,0,0,0,0,0,0,0,0,0,0,0,0,0],"split_type":[0,0,0,0,0,0,0,0,0,0,0,0,0,0,0,0,0,0,0,0,0,0,0,0,0,0,0,0,0],"sum_hessian":[2.3944666E3,2.075224E3,3.1924246E2,1.8472134E3,2.2801067E2,1.912366E2,1.2800587E2,5.7947254E1,1.7892661E3,9.768746E1,1.303232E2,1.3730605E2,5.3930546E1,8.604684E1,4.195903E1,3.6234432E1,2.1712824E1,1.7486412E3,4.0624947E1,3.262103E1,6.506644E1,3.2308712E1,9.801449E1,3.226297E1,2.1667576E1,2.2175589E1,6.387125E1,2.0131557E1,2.182747E1],"tree_param":{"num_deleted":"0","num_feature":"155","num_nodes":"29","size_leaf_vector":"1"}},{"base_weights":[5.7388586E-3,-3.0018505E-1,1.0827422E-1,-1.2987207E-1,-1.0607529E0,5.9067446E-1,2.8992034E-2,4.355277E-2,-1.1144774E0,-6.048925E-2,-1.738777E-2,8.063055E-2,2.4279119E-1,-1.4060252E0,7.488091E-2,-2.2613464E-2,2.3307737E-2,-6.403258E-2,-2.966216E-2,4.933649E-2,-2.4338622E-2,-3.5043556E-2,-9.854853E-2,1.1737203E-2,-1.4731116E-2],"categories":[],"categories_nodes":[],"categories_segments":[],"categories_sizes":[],"default_left":[0,0,0,0,0,0,0,0,0,0,0,0,0,0,0,0,0,0,0,0,0,0,0,0,0],"id":47,"left_children":[1,3,5,7,9,11,13,15,17,-1,-1,-1,19,21,23,-1,-1,-1,-1,-1,-1,-1,-1,-1,-1],"loss_changes":[7.533624E1,7.7167114E1,6.858344E1,8.5163376E1,1.0005371E1,8.8374245E1,1.0166947E2,8.89359E1,4.0088806E0,0E0,0E0,0E0,1.052886E2,1.495121E1,8.900953E1,0E0,0E0,0E0,0E0,0E0,0E0,0E0,0E0,0E0,0E0],"parents":[2147483647,0,0,1,1,2,2,3,3,4,4,5,5,6,6,7,7,8,8,12,12,13,13,14,14],"right_children":[2,4,6,8,10,12,14,16,18,-1,-1,-1,20,22,24,-1,-1,-1,-1,-1,-1,-1,-1,-1,-1],"split_conditions":[-5.5E0,1.035E-2,-5E0,2.6E0,1.206E2,1.136E2,-4.4E0,-6.8E0,5E0,-6.048925E-2,-1.738777E-2,8.063055E-2,-5E-2,1E0,3.65E-2,-2.2613464E-2,2.3307737E-2,-6.403258E-2,-2.966216E-2,4.933649E-2,-2.4338622E-2,-3.5043556E-2,-9.854853E-2,1.1737203E-2,-1.4731116E-2],"split_indices":[137,95,94,9,36,36,94,9,29,0,0,0,102,107,86,0,0,0,0,0,0,0,0,0,0],"split_type":[0,0,0,0,0,0,0,0,0,0,0,0,0,0,0,0,0,0,0,0,0,0,0,0,0],"sum_hessian":[2.400676E3,6.004488E2,1.8002273E3,4.9304156E2,1.0740726E2,2.5139326E2,1.548834E3,4.2039792E2,7.264366E1,8.7105515E1,2.0301737E1,6.163296E1,1.897603E2,4.5819237E1,1.5030148E3,1.928321E2,2.275658E2,5.21459E1,2.0497759E1,9.394481E1,9.581549E1,2.2767511E1,2.3051725E1,1.0505736E3,4.524412E2],"tree_param":{"num_deleted":"0","num_feature":"155","num_nodes":"25","size_leaf_vector":"1"}},{"base_weights":[2.770941E-3,1.386181E-1,-2.09113E-1,2.2436787E-1,-7.815546E-1,-4.0252718E-1,2.7827263E-1,-2.7971032E-1,3.639371E-1,-1.1732892E0,1.5162899E-2,-5.5291873E-1,4.3473837E-1,1.077014E0,-1.6347648E-1,2.233224E-2,-3.6474608E-2,3.826977E-2,5.5130324E-3,-7.138621E-2,-1.2672936E-2,-5.317817E-2,-1.4939929E-2,-1.869134E-2,5.9638936E-2,-4.94533E-3,7.029913E-2,2.4638945E-2,-4.2803854E-2],"categories":[],"categories_nodes":[],"categories_segments":[],"categories_sizes":[],"default_left":[0,0,0,0,0,0,0,0,0,0,0,0,0,0,0,0,0,0,0,0,0,0,0,0,0,0,0,0,0],"id":48,"left_children":[1,3,5,7,9,11,13,15,17,19,-1,21,23,25,27,-1,-1,-1,-1,-1,-1,-1,-1,-1,-1,-1,-1,-1,-1],"loss_changes":[6.854751E1,1.1474103E2,8.789902E1,9.391675E1,5.3770126E1,8.451651E1,9.4133026E1,9.523013E1,1.0575215E2,1.9903488E1,0E0,7.22278E1,6.3921078E1,3.7625206E1,7.903847E1,0E0,0E0,0E0,0E0,0E0,0E0,0E0,0E0,0E0,0E0,0E0,0E0,0E0,0E0],"parents":[2147483647,0,0,1,1,2,2,3,3,4,4,5,5,6,6,7,7,8,8,9,9,11,11,12,12,13,13,14,14],"right_children":[2,4,6,8,10,12,14,16,18,20,-1,22,24,26,28,-1,-1,-1,-1,-1,-1,-1,-1,-1,-1,-1,-1,-1,-1],"split_conditions":[8.8E0,8.1855E-1,9.6E-2,7.15E0,3.4E0,8.278E-1,1.79E0,-2.2E0,7.771E-1,1.3E-1,1.5162899E-2,-7.6E0,4.4E0,2.48E1,-1.52E0,2.233224E-2,-3.6474608E-2,3.826977E-2,5.5130324E-3,-7.138621E-2,-1.2672936E-2,-5.317817E-2,-1.4939929E-2,-1.869134E-2,5.9638936E-2,-4.94533E-3,7.029913E-2,2.4638945E-2,-4.2803854E-2],"split_indices":[42,61,144,64,78,39,113,45,25,139,0,145,29,52,67,0,0,0,0,0,0,0,0,0,0,0,0,0,0],"split_type":[0,0,0,0,0,0,0,0,0,0,0,0,0,0,0,0,0,0,0,0,0,0,0,0,0,0,0,0,0],"sum_hessian":[2.3786692E3,1.4512603E3,9.274089E2,1.3294281E3,1.2183207E2,6.649172E2,2.624917E2,2.8706244E2,1.0423657E3,8.972826E1,3.210381E1,5.647516E2,1.0016556E2,9.285436E1,1.6963734E2,1.0935949E2,1.7770294E2,4.012918E2,6.410739E2,6.899547E1,2.073279E1,1.8488805E2,3.7986356E2,4.8638893E1,5.152667E1,2.027146E1,7.258291E1,8.702973E1,8.260762E1],"tree_param":{"num_deleted":"0","num_feature":"155","num_nodes":"29","size_leaf_vector":"1"}},{"base_weights":[-1.0014032E-2,5.848672E-2,-4.3984085E-1,-8.511169E-3,6.244006E-1,-1.040251E0,-2.9886195E-2,1.1176659E0,-5.3809594E-2,1.0807065E0,-1.2527049E-1,-1.2626517E0,-2.8529984E-3,-5.777463E-1,5.862742E-1,3.7603618E-3,7.5974286E-2,-6.0417945E-3,2.9062582E-2,5.4148673E-3,6.6847436E-2,-5.9067555E-2,5.6230288E-2,-4.006603E-2,-6.830177E-2,5.6265224E-2,-5.6818735E-2,-4.145677E-2,5.795875E-2],"categories":[],"categories_nodes":[],"categories_segments":[],"categories_sizes":[],"default_left":[0,0,0,0,0,0,0,0,0,0,0,0,0,0,0,0,0,0,0,0,0,0,0,0,0,0,0,0,0],"id":49,"left_children":[1,3,5,7,9,11,13,15,17,19,21,23,-1,25,27,-1,-1,-1,-1,-1,-1,-1,-1,-1,-1,-1,-1,-1,-1],"loss_changes":[6.99576E1,7.7781235E1,7.9820786E1,9.284056E1,7.500985E1,2.8061798E1,6.707481E1,2.8441826E1,7.480998E1,3.2768295E1,1.1292591E2,1.8374023E0,0E0,1.0299024E2,7.761723E1,0E0,0E0,0E0,0E0,0E0,0E0,0E0,0E0,0E0,0E0,0E0,0E0,0E0,0E0],"parents":[2147483647,0,0,1,1,2,2,3,3,4,4,5,5,6,6,7,7,8,8,9,9,10,10,11,11,13,13,14,14],"right_children":[2,4,6,8,10,12,14,16,18,20,22,24,-1,26,28,-1,-1,-1,-1,-1,-1,-1,-1,-1,-1,-1,-1,-1,-1],"split_conditions":[4.655E1,8.34E-1,4.85E0,-9.3E-2,2E0,1.45E0,4.47E1,1.101E2,4.2E0,-3.16E-2,1.26E1,2.62E1,-2.8529984E-3,3.265E-1,3E0,3.7603618E-3,7.5974286E-2,-6.0417945E-3,2.9062582E-2,5.4148673E-3,6.6847436E-2,-5.9067555E-2,5.6230288E-2,-4.006603E-2,-6.830177E-2,5.6265224E-2,-5.6818735E-2,-4.145677E-2,5.795875E-2],"split_indices":[62,39,65,74,76,100,15,11,80,73,55,41,0,13,149,0,0,0,0,0,0,0,0,0,0,0,0,0,0],"split_type":[0,0,0,0,0,0,0,0,0,0,0,0,0,0,0,0,0,0,0,0,0,0,0,0,0,0,0,0,0],"sum_hessian":[2.3657747E3,2.0410592E3,3.2471545E2,1.825971E3,2.150882E2,1.3001048E2,1.9470497E2,6.834874E1,1.7576222E3,1.3357082E2,8.151737E1,1.05148544E2,2.4861937E1,1.0356031E2,9.114466E1,2.002241E1,4.8326332E1,1.592004E3,1.6561816E2,2.8857315E1,1.0471351E2,4.446036E1,3.705701E1,2.3339285E1,8.180926E1,2.4856922E1,7.870339E1,2.5752705E1,6.539195E1],"tree_param":{"num_deleted":"0","num_feature":"155","num_nodes":"29","size_leaf_vector":"1"}},{"base_weights":[1.8637441E-3,2.0581529E-2,-7.2008945E-2,-3.1109212E-2,5.780513E-1,7.044248E-2,-6.9677186E-1,-1.522435E-1,1.2823772E0,1.7822308E-4,3.2583814E-2,-4.346364E-2,4.8300575E-2,8.0115244E-2,-3.739739E-2,8.476908E-2,2.6856398E-2],"categories":[],"categories_nodes":[],"categories_segments":[],"categories_sizes":[],"default_left":[0,0,0,0,0,0,0,0,0,0,0,0,0,0,0,0,0],"id":50,"left_children":[1,3,-1,5,7,9,11,13,15,-1,-1,-1,-1,-1,-1,-1,-1],"loss_changes":[6.28637E1,6.731395E1,0E0,1.4433119E2,1.0292016E2,7.151741E1,8.270146E1,1.051949E2,2.8294601E1,0E0,0E0,0E0,0E0,0E0,0E0,0E0,0E0],"parents":[2147483647,0,0,1,1,3,3,4,4,5,5,6,6,7,7,8,8],"right_children":[2,4,-1,6,8,10,12,14,16,-1,-1,-1,-1,-1,-1,-1,-1],"split_conditions":[1.2E1,4.2E0,-7.2008945E-2,2.6E0,-5.8E0,5.3E0,1.45E0,-6E0,2E-1,1.7822308E-4,3.2583814E-2,-4.346364E-2,4.8300575E-2,8.0115244E-2,-3.739739E-2,8.476908E-2,2.6856398E-2],"split_indices":[17,80,0,80,9,87,100,107,82,0,0,0,0,0,0,0,0],"split_type":[0,0,0,0,0,0,0,0,0,0,0,0,0,0,0,0,0],"sum_hessian":[2.3510896E3,2.3232517E3,2.7837736E1,2.127018E3,1.962338E2,1.846377E3,2.8064105E2,9.6761955E1,9.947184E1,1.6584272E3,1.8794972E2,2.5540038E2,2.5240677E1,2.3456333E1,7.330562E1,6.1930347E1,3.7541492E1],"tree_param":{"num_deleted":"0","num_feature":"155","num_nodes":"17","size_leaf_vector":"1"}},{"base_weights":[1.0691011E-2,-2.9535703E-2,6.516023E-1,-7.510898E-1,1.7394692E-2,-3.0282123E-2,1.0276544E0,-1.210049E0,1.6376793E-2,2.0168589E-1,-1.8670994E-1,5.714899E-2,2.2623887E-2,-2.7920937E-2,-7.5384445E-2,-5.185422E-3,2.7479125E-2,1.5415217E-2,-1.7447323E-2],"categories":[],"categories_nodes":[],"categories_segments":[],"categories_sizes":[],"default_left":[0,0,0,0,0,0,0,0,0,0,0,0,0,0,0,0,0,0,0],"id":51,"left_children":[1,3,5,7,9,-1,11,13,-1,15,17,-1,-1,-1,-1,-1,-1,-1,-1],"loss_changes":[6.0637352E1,7.494094E1,6.713652E1,6.8132805E1,7.788249E1,0E0,5.330757E0,1.5815262E1,0E0,1.1605667E2,7.903194E1,0E0,0E0,0E0,0E0,0E0,0E0,0E0,0E0],"parents":[2147483647,0,0,1,1,2,2,3,3,4,4,6,6,7,7,9,9,10,10],"right_children":[2,4,6,8,10,-1,12,14,-1,16,18,-1,-1,-1,-1,-1,-1,-1,-1],"split_conditions":[1.205E1,4.4875E-1,-1E1,1.2E0,-1E-3,-3.0282123E-2,1E0,5.16E-1,1.6376793E-2,-6E-3,3.2E-1,5.714899E-2,2.2623887E-2,-2.7920937E-2,-7.5384445E-2,-5.185422E-3,2.7479125E-2,1.5415217E-2,-1.7447323E-2],"split_indices":[103,59,136,78,85,0,71,118,0,141,38,0,0,0,0,0,0,0,0],"split_type":[0,0,0,0,0,0,0,0,0,0,0,0,0,0,0,0,0,0,0],"sum_hessian":[2.336391E3,2.1994695E3,1.3692172E2,1.331369E2,2.0663325E3,3.0937742E1,1.0598398E2,9.355063E1,3.9586273E1,1.0871715E3,9.791611E2,8.591416E1,2.0069815E1,3.1662762E1,6.188787E1,5.789329E2,5.0823856E2,2.40492E2,7.3866907E2],"tree_param":{"num_deleted":"0","num_feature":"155","num_nodes":"19","size_leaf_vector":"1"}},{"base_weights":[3.583006E-3,4.2188153E-1,-5.8919236E-2,9.693019E-2,1.0948153E0,5.035349E-1,-1.1719097E-1,5.954011E-2,-1.7722042E-1,6.2630765E-2,2.0341562E-2,-5.447361E-1,9.734955E-1,-7.3820725E-2,-1.0969887E0,-5.0607212E-2,1.5115636E-2,2.5157118E-2,-6.797464E-2,-1.7668929E-2,6.622484E-2,-7.753797E-6,-3.0434877E-2,-2.7996307E-2,-6.343928E-2],"categories":[],"categories_nodes":[],"categories_segments":[],"categories_sizes":[],"default_left":[0,0,0,0,0,0,0,0,0,0,0,0,0,0,0,0,0,0,0,0,0,0,0,0,0],"id":52,"left_children":[1,3,5,7,9,11,13,-1,15,-1,-1,17,19,21,23,-1,-1,-1,-1,-1,-1,-1,-1,-1,-1],"loss_changes":[6.1788136E1,6.6402176E1,6.70852E1,6.389451E1,8.941536E0,9.5831985E1,7.825698E1,0E0,6.873575E1,0E0,0E0,5.333481E1,6.3630234E1,6.9949646E1,4.877617E0,0E0,0E0,0E0,0E0,0E0,0E0,0E0,0E0,0E0,0E0],"parents":[2147483647,0,0,1,1,2,2,3,3,4,4,5,5,6,6,8,8,11,11,12,12,13,13,14,14],"right_children":[2,4,6,8,10,12,14,-1,16,-1,-1,18,20,22,24,-1,-1,-1,-1,-1,-1,-1,-1,-1,-1],"split_conditions":[-4.7E0,-6E-1,3.078E-1,-2.5E-1,4.66E1,-1.31E1,7.8E0,5.954011E-2,7.786E-1,6.2630765E-2,2.0341562E-2,2.45E-2,-1.5E-1,4.67E1,4.593E-1,-5.0607212E-2,1.5115636E-2,2.5157118E-2,-6.797464E-2,-1.7668929E-2,6.622484E-2,-7.753797E-6,-3.0434877E-2,-2.7996307E-2,-6.343928E-2],"split_indices":[136,102,38,100,26,143,136,0,14,0,0,85,139,62,48,0,0,0,0,0,0,0,0,0,0],"split_type":[0,0,0,0,0,0,0,0,0,0,0,0,0,0,0,0,0,0,0,0,0,0,0,0,0],"sum_hessian":[2.3524805E3,3.053584E2,2.0471222E3,2.0796553E2,9.739287E1,1.8993704E2,1.857185E3,4.0701504E1,1.6726402E2,7.729571E1,2.0097164E1,5.8366177E1,1.3157088E2,1.7810105E3,7.6174545E1,6.0590363E1,1.0667367E2,2.559678E1,3.2769394E1,2.7223005E1,1.0434787E2,1.5679946E3,2.1301591E2,2.123129E1,5.4943256E1],"tree_param":{"num_deleted":"0","num_feature":"155","num_nodes":"25","size_leaf_vector":"1"}},{"base_weights":[-2.5100347E-3,-1.2842883E-1,2.0578651E-1,4.201299E-1,-2.2860545E-1,-7.5190884E-1,2.967286E-1,-5.7825774E-2,7.556948E-1,-9.910245E-1,-1.288431E-1,-1.3267417E0,3.191958E-2,-7.426684E-2,3.4630036E-1,-1.8835662E-2,5.7939935E-2,3.6785718E-2,-6.438041E-2,-1.0454486E-2,