{"learner":{"attributes":{"scikit_learn":"{\"_estimator_type\": \"classifier\"}"},"feature_names":[],"feature_types":[],"gradient_booster":{"model":{"cats":{"enc":[],"feature_segments":[],"sorted_idx":[]},"gbtree_model_param":{"num_parallel_tree":"1","num_trees":"500"},"iteration_indptr":[0,1,2,3,4,5,6,7,8,9,10,11,12,13,14,15,16,17,18,19,20,21,22,23,24,25,26,27,28,29,30,31,32,33,34,35,36,37,38,39,40,41,42,43,44,45,46,47,48,49,50,51,52,53,54,55,56,57,58,59,60,61,62,63,64,65,66,67,68,69,70,71,72,73,74,75,76,77,78,79,80,81,82,83,84,85,86,87,88,89,90,91,92,93,94,95,96,97,98,99,100,101,102,103,104,105,106,107,108,109,110,111,112,113,114,115,116,117,118,119,120,121,122,123,124,125,126,127,128,129,130,131,132,133,134,135,136,137,138,139,140,141,142,143,144,145,146,147,148,149,150,151,152,153,154,155,156,157,158,159,160,161,162,163,164,165,166,167,168,169,170,171,172,173,174,175,176,177,178,179,180,181,182,183,184,185,186,187,188,189,190,191,192,193,194,195,196,197,198,199,200,201,202,203,204,205,206,207,208,209,210,211,212,213,214,215,216,217,218,219,220,221,222,223,224,225,226,227,228,229,230,231,232,233,234,235,236,237,238,239,240,241,242,243,244,245,246,247,248,249,250,251,252,253,254,255,256,257,258,259,260,261,262,263,264,265,266,267,268,269,270,271,272,273,274,275,276,277,278,279,280,281,282,283,284,285,286,287,288,289,290,291,292,293,294,295,296,297,298,299,300,301,302,303,304,305,306,307,308,309,310,311,312,313,314,315,316,317,318,319,320,321,322,323,324,325,326,327,328,329,330,331,332,333,334,335,336,337,338,339,340,341,342,343,344,345,346,347,348,349,350,351,352,353,354,355,356,357,358,359,360,361,362,363,364,365,366,367,368,369,370,371,372,373,374,375,376,377,378,379,380,381,382,383,384,385,386,387,388,389,390,391,392,393,394,395,396,397,398,399,400,401,402,403,404,405,406,407,408,409,410,411,412,413,414,415,416,417,418,419,420,421,422,423,424,425,426,427,428,429,430,431,432,433,434,435,436,437,438,439,440,441,442,443,444,445,446,447,448,449,450,451,452,453,454,455,456,457,458,459,460,461,462,463,464,465,466,467,468,469,470,471,472,473,474,475,476,477,478,479,480,481,482,483,484,485,486,487,488,489,490,491,492,493,494,495,496,497,498,499,500],"tree_info":[0,0,0,0,0,0,0,0,0,0,0,0,0,0,0,0,0,0,0,0,0,0,0,0,0,0,0,0,0,0,0,0,0,0,0,0,0,0,0,0,0,0,0,0,0,0,0,0,0,0,0,0,0,0,0,0,0,0,0,0,0,0,0,0,0,0,0,0,0,0,0,0,0,0,0,0,0,0,0,0,0,0,0,0,0,0,0,0,0,0,0,0,0,0,0,0,0,0,0,0,0,0,0,0,0,0,0,0,0,0,0,0,0,0,0,0,0,0,0,0,0,0,0,0,0,0,0,0,0,0,0,0,0,0,0,0,0,0,0,0,0,0,0,0,0,0,0,0,0,0,0,0,0,0,0,0,0,0,0,0,0,0,0,0,0,0,0,0,0,0,0,0,0,0,0,0,0,0,0,0,0,0,0,0,0,0,0,0,0,0,0,0,0,0,0,0,0,0,0,0,0,0,0,0,0,0,0,0,0,0,0,0,0,0,0,0,0,0,0,0,0,0,0,0,0,0,0,0,0,0,0,0,0,0,0,0,0,0,0,0,0,0,0,0,0,0,0,0,0,0,0,0,0,0,0,0,0,0,0,0,0,0,0,0,0,0,0,0,0,0,0,0,0,0,0,0,0,0,0,0,0,0,0,0,0,0,0,0,0,0,0,0,0,0,0,0,0,0,0,0,0,0,0,0,0,0,0,0,0,0,0,0,0,0,0,0,0,0,0,0,0,0,0,0,0,0,0,0,0,0,0,0,0,0,0,0,0,0,0,0,0,0,0,0,0,0,0,0,0,0,0,0,0,0,0,0,0,0,0,0,0,0,0,0,0,0,0,0,0,0,0,0,0,0,0,0,0,0,0,0,0,0,0,0,0,0,0,0,0,0,0,0,0,0,0,0,0,0,0,0,0,0,0,0,0,0,0,0,0,0,0,0,0,0,0,0,0,0,0,0,0,0,0,0,0,0,0,0,0,0,0,0,0,0,0,0,0,0,0,0,0,0,0,0,0,0,0,0,0,0,0,0,0,0,0,0,0,0,0,0,0,0,0,0,0,0,0,0,0,0,0,0,0,0,0,0,0,0,0,0,0,0,0,0,0,0,0,0,0,0,0,0,0,0,0,0,0,0,0,0],"trees":[{"base_weights":[-2.6712562E-3,-7.7665657E-1,9.6833116E-1,-1.4600707E0,-1.5801972E-1,-4.0655696E-1,1.324136E0,-7.3337996E-1,-1.8557061E0,1.3608928E-1,-1.6313365E0,5.817693E-1,-1.3052555E0,-1.6447991E-1,1.4468368E0,-1.1004846E0,9.641755E-1,-1.9322976E0,-7.2372598E-3,-1.21466845E-1,1.3738998E0,-5.9152562E-2,-1.1211077E-2,9.5840925E-1,-3.0931523E-2,-1.6866759E0,3.4427296E-3,-4.9887817E-2,5.10069E-2,1.5127752E0,-3.1908296E-2,-1.346767E0,2.4746956E-2,9.387714E-3,4.4729456E-2,-3.4353048E-2,-1.9894739E0,-3.4041366E-1,1.4842523E0,5.0332848E-2,9.3994953E-4,-1.0594418E-2,1.483806E0,-2.6045678E-2,-5.5513553E-2,7.600407E-1,1.6521404E0,8.362992E-3,-1.568257E0,-6.0767412E-2,-3.4200683E-2,7.793779E-1,-6.624773E-1,5.234254E-2,2.4049321E-2,2.5377518E-2,5.134418E-2,1.4773158E0,-3.5102323E-1,1.0806406E0,1.7750554E0,-1.7348522E-2,-5.361045E-2,-3.2940242E-2,4.2267818E-2,-3.2433797E-2,6.9621806E-3,5.215832E-2,2.0666819E-2,-5.3623788E-2,4.8820302E-2,4.3260455E-2,-2.1168366E-2,5.413446E-2,2.6136627E-2],"categories":[],"categories_nodes":[],"categories_segments":[],"categories_sizes":[],"default_left":[0,0,0,0,0,0,0,0,0,0,0,0,0,0,0,0,0,0,0,0,0,0,0,0,0,0,0,0,0,0,0,0,0,0,0,0,0,0,0,0,0,0,0,0,0,0,0,0,0,0,0,0,0,0,0,0,0,0,0,0,0,0,0,0,0,0,0,0,0,0,0,0,0,0,0],"id":0,"left_children":[1,3,5,7,9,11,13,15,17,19,21,23,25,27,29,31,33,35,-1,37,39,-1,-1,41,-1,43,-1,-1,-1,45,-1,47,-1,-1,-1,-1,49,51,53,-1,-1,-1,55,-1,-1,57,59,-1,61,-1,-1,63,65,-1,-1,-1,-1,67,69,71,73,-1,-1,-1,-1,-1,-1,-1,-1,-1,-1,-1,-1,-1,-1],"loss_changes":[7.8973395E2,2.4673651E2,2.2888425E2,7.7509155E1,1.342494E2,8.728013E1,6.818469E1,6.4188065E1,2.1176514E1,8.283882E1,2.072638E1,3.0106726E1,2.8215141E1,8.66905E1,5.917621E1,4.1226944E1,5.5035286E0,3.9345703E0,0E0,7.637922E1,1.8002098E1,0E0,0E0,2.7799976E1,0E0,2.755806E0,0E0,0E0,0E0,3.296826E1,0E0,2.7602188E1,0E0,0E0,0E0,0E0,1.0231934E0,6.9591354E1,2.2838554E0,0E0,0E0,0E0,1.6702652E0,0E0,0E0,4.4841362E1,1.6567322E1,0E0,1.2470566E1,0E0,0E0,5.3468277E1,5.629947E1,0E0,0E0,0E0,0E0,4.935486E0,6.915248E1,3.6259846E1,3.4563599E0,0E0,0E0,0E0,0E0,0E0,0E0,0E0,0E0,0E0,0E0,0E0,0E0,0E0,0E0],"parents":[2147483647,0,0,1,1,2,2,3,3,4,4,5,5,6,6,7,7,8,8,9,9,10,10,11,11,12,12,13,13,14,14,15,15,16,16,17,17,19,19,20,20,23,23,25,25,29,29,31,31,36,36,37,37,38,38,42,42,45,45,46,46,48,48,51,51,52,52,57,57,58,58,59,59,60,60],"right_children":[2,4,6,8,10,12,14,16,18,20,22,24,26,28,30,32,34,36,-1,38,40,-1,-1,42,-1,44,-1,-1,-1,46,-1,48,-1,-1,-1,-1,50,52,54,-1,-1,-1,56,-1,-1,58,60,-1,62,-1,-1,64,66,-1,-1,-1,-1,68,70,72,74,-1,-1,-1,-1,-1,-1,-1,-1,-1,-1,-1,-1,-1,-1],"split_conditions":[1E1,-2.7E0,-4.5E0,1E1,1.7E1,3E0,2.38E1,1.202E2,4.6E0,5.4E0,5.2E0,1.6E0,8E0,4.712E-1,1.06E1,2.94E1,2.3E0,-6.02E-2,-7.2372598E-3,2.07E1,2.915E1,-5.9152562E-2,-1.1211077E-2,1.1395E2,-3.0931523E-2,-1E-1,3.4427296E-3,-4.9887817E-2,5.10069E-2,3.8E0,-3.1908296E-2,-9.8E0,2.4746956E-2,9.387714E-3,4.4729456E-2,-3.4353048E-2,8.352E-1,-7.45E0,1E-1,5.0332848E-2,9.3994953E-4,-1.0594418E-2,4.1E0,-2.6045678E-2,-5.5513553E-2,3.6E0,-8E-1,8.362992E-3,4.2E0,-6.0767412E-2,-3.4200683E-2,-1.5E1,4.6E0,5.234254E-2,2.4049321E-2,2.5377518E-2,5.134418E-2,6E0,4.65E-1,2.55E0,3.045E1,-1.7348522E-2,-5.361045E-2,-3.2940242E-2,4.2267818E-2,-3.2433797E-2,6.9621806E-3,5.215832E-2,2.0666819E-2,-5.3623788E-2,4.8820302E-2,4.3260455E-2,-2.1168366E-2,5.413446E-2,2.6136627E-2],"split_indices":[179,101,77,178,178,185,20,146,66,90,32,80,158,143,134,20,14,63,0,154,20,0,0,26,0,81,0,0,0,141,0,90,0,0,0,0,35,59,82,0,0,0,158,0,0,141,101,0,32,0,0,59,101,0,0,0,0,178,143,77,20,0,0,0,0,0,0,0,0,0,0,0,0,0,0],"split_type":[0,0,0,0,0,0,0,0,0,0,0,0,0,0,0,0,0,0,0,0,0,0,0,0,0,0,0,0,0,0,0,0,0,0,0,0,0,0,0,0,0,0,0,0,0,0,0,0,0,0,0,0,0,0,0,0,0,0,0,0,0,0,0,0,0,0,0,0,0,0,0,0,0,0,0],"sum_hessian":[1.0478433E3,5.8329913E2,4.6454413E2,2.7609378E2,3.0720535E2,9.5401634E1,3.691425E2,9.892491E1,1.7716888E2,2.571631E2,5.0042282E1,4.5634117E1,4.976752E1,2.8009012E1,3.4113345E2,8.181789E1,1.7107021E1,1.6880348E2,8.365407E0,2.1392323E2,4.3239838E1,3.864942E1,1.1392863E1,3.7538445E1,8.095673E0,3.9063633E1,1.0703887E1,1.5649389E1,1.2359623E1,3.3302237E2,8.111097E0,7.298486E1,8.833028E0,8.80405E0,8.30297E0,1.3684711E1,1.5511876E2,1.8934895E2,2.457428E1,3.489346E1,8.346377E0,1.0822786E1,2.6715658E1,8.190917E0,3.0872717E1,5.364964E1,2.7937274E2,8.65149E0,6.4333374E1,1.4668907E2,8.429698E0,4.17493E1,1.4759966E2,1.599117E1,8.583111E0,9.003051E0,1.7712606E1,3.2356583E1,2.1293056E1,5.219421E1,2.2717853E2,1.2714996E1,5.1618374E1,1.0164027E1,3.1585272E1,1.00407776E2,4.7191883E1,2.2849358E1,9.507224E0,1.2449279E1,8.843779E0,4.3698647E1,8.4955635E0,2.1846063E2,8.717891E0],"tree_param":{"num_deleted":"0","num_feature":"188","num_nodes":"75","size_leaf_vector":"1"}},{"base_weights":[-1.1472087E-2,-9.967749E-1,6.9591904E-1,-1.6098593E0,-3.4039646E-1,2.0118868E-2,1.4089141E0,-7.0986956E-1,-1.8408786E0,7.0850655E-2,-1.626957E0,-2.2326234E-1,1.5580237E0,1.4890423E0,-1.6955452E-2,-1.1159523E0,9.902803E-3,-5.7576634E-2,-1.0113189E0,-4.4365653E-1,8.789504E-1,-5.762386E-2,-1.0328035E-2,-4.728643E-1,1.4480596E0,2.452674E-2,5.3130846E-2,1.1526701E0,1.7481138E0,-1.550713E0,-1.6743053E-3,-2.6507748E-4,-5.253427E-2,-1.0077535E0,6.147619E-1,1.3149894E0,-1.8898541E-2,5.2221555E-1,-7.671457E-1,8.359706E-3,5.331393E-2,-1.2749485E-2,1.2691313E0,2.845952E-2,5.3536754E-2,-2.4634372E-2,-5.5795703E-2,-1.4410559E0,9.980735E-2,-3.9771855E-2,4.781196E-2,1.6282947E0,-3.7272088E-3,-2.9951796E-2,1.1184884E0,-8.9481145E-1,4.311056E-2,1.6043984E0,8.630483E-1,-8.3651375E-3,-5.339772E-2,3.9261345E-2,-2.9636998E-2,2.371738E-2,5.3743225E-2,-1.564793E-2,4.706508E-2,3.8801998E-2,-3.0658148E-2,5.2607957E-2,2.9157361E-2,-1.956569E-2,3.8941033E-2],"categories":[],"categories_nodes":[],"categories_segments":[],"categories_sizes":[],"default_left":[0,0,0,0,0,0,0,0,0,0,0,0,0,0,0,0,0,0,0,0,0,0,0,0,0,0,0,0,0,0,0,0,0,0,0,0,0,0,0,0,0,0,0,0,0,0,0,0,0,0,0,0,0,0,0,0,0,0,0,0,0,0,0,0,0,0,0,0,0,0,0,0,0],"id":1,"left_children":[1,3,5,7,9,11,13,15,17,19,21,23,25,27,-1,29,-1,-1,31,33,35,-1,-1,37,39,-1,-1,41,43,45,-1,-1,-1,47,49,51,-1,53,55,-1,-1,-1,57,-1,-1,-1,-1,59,61,-1,-1,63,-1,-1,65,67,-1,69,71,-1,-1,-1,-1,-1,-1,-1,-1,-1,-1,-1,-1,-1,-1],"loss_changes":[7.3309235E2,1.7587924E2,2.947832E2,4.494153E1,1.1370188E2,1.18886604E2,4.845996E1,2.1264204E1,8.458008E0,6.871285E1,1.8389786E1,1.1522145E2,4.4148865E0,2.1666382E1,0E0,1.6094254E1,0E0,0E0,1.3718594E1,6.1254658E1,4.3603836E1,0E0,0E0,7.0775406E1,1.2872993E1,0E0,0E0,2.464769E1,1.8156738E0,3.0993004E0,0E0,0E0,0E0,3.2262825E1,7.153747E1,2.3183144E1,0E0,5.2000336E1,5.409194E1,0E0,0E0,0E0,1.4127182E1,0E0,0E0,0E0,0E0,1.7938278E1,2.8319603E1,0E0,0E0,3.2972336E0,0E0,0E0,3.13308E1,5.1018997E1,0E0,3.239334E0,3.958006E1,0E0,0E0,0E0,0E0,0E0,0E0,0E0,0E0,0E0,0E0,0E0,0E0,0E0,0E0],"parents":[2147483647,0,0,1,1,2,2,3,3,4,4,5,5,6,6,7,7,8,8,9,9,10,10,11,11,12,12,13,13,15,15,18,18,19,19,20,20,23,23,24,24,27,27,28,28,29,29,33,33,34,34,35,35,37,37,38,38,42,42,47,47,48,48,51,51,54,54,55,55,57,57,58,58],"right_children":[2,4,6,8,10,12,14,16,18,20,22,24,26,28,-1,30,-1,-1,32,34,36,-1,-1,38,40,-1,-1,42,44,46,-1,-1,-1,48,50,52,-1,54,56,-1,-1,-1,58,-1,-1,-1,-1,60,62,-1,-1,64,-1,-1,66,68,-1,70,72,-1,-1,-1,-1,-1,-1,-1,-1,-1,-1,-1,-1,-1,-1],"split_conditions":[-2.5E-1,-2.4E0,2.4E0,1E1,1.7E1,4.8795E-1,3.8575E-1,5E-1,4.004E-1,1.24E-1,5.2E0,2.5E1,4.6E0,7E0,-1.6955452E-2,7.8E0,9.902803E-3,-5.7576634E-2,1.6E1,3E0,1.157E2,-5.762386E-2,-1.0328035E-2,5E-1,4E0,2.452674E-2,5.3130846E-2,3.6E0,1.15E1,-8.3E-3,-1.6743053E-3,-2.6507748E-4,-5.253427E-2,5.25E0,4.4E0,2.68E1,-1.8898541E-2,-6.6E0,1.89E-1,8.359706E-3,5.331393E-2,-1.2749485E-2,3.604E-1,2.845952E-2,5.3536754E-2,-2.4634372E-2,-5.5795703E-2,9E0,1E0,-3.9771855E-2,4.781196E-2,3.3995E-1,-3.7272088E-3,-2.9951796E-2,7.7E0,-2.45E0,4.311056E-2,3.621E-1,4E-1,-8.3651375E-3,-5.339772E-2,3.9261345E-2,-2.9636998E-2,2.371738E-2,5.3743225E-2,-1.564793E-2,4.706508E-2,3.8801998E-2,-3.0658148E-2,5.2607957E-2,2.9157361E-2,-1.956569E-2,3.8941033E-2],"split_indices":[177,101,101,178,178,132,22,62,33,97,32,174,119,0,0,36,0,0,178,90,124,0,0,19,171,0,0,119,138,64,0,0,0,2,141,129,0,36,97,0,0,0,142,0,0,0,0,178,123,0,0,22,0,0,137,73,0,131,123,0,0,0,0,0,0,0,0,0,0,0,0,0,0],"split_type":[0,0,0,0,0,0,0,0,0,0,0,0,0,0,0,0,0,0,0,0,0,0,0,0,0,0,0,0,0,0,0,0,0,0,0,0,0,0,0,0,0,0,0,0,0,0,0,0,0,0,0,0,0,0,0,0,0,0,0,0,0,0,0,0,0,0,0,0,0,0,0,0,0],"sum_hessian":[1.0487548E3,4.3808612E2,6.1066864E2,2.2530792E2,2.1277818E2,3.1437564E2,2.96293E2,4.7357525E1,1.7795041E2,1.6225371E2,5.052448E1,2.7247266E2,4.1902958E1,2.851385E2,1.1154506E1,3.4048782E1,1.3308745E1,1.6068468E2,1.7265728E1,9.947312E1,6.278058E1,4.0437E1,1.0087479E1,2.3805588E2,3.4416782E1,1.1087251E1,3.0815708E1,1.2778514E2,1.5735333E2,2.3587278E1,1.0461503E1,8.033362E0,9.232366E0,6.4997955E1,3.4475166E1,4.890668E1,1.38739E1,5.39907E1,1.8406519E2,8.233159E0,2.6183626E1,8.452333E0,1.1933281E2,8.747803E0,1.4860553E2,8.748629E0,1.483865E1,4.6460285E1,1.8537668E1,1.1347994E1,2.3127174E1,4.0058746E1,8.847935E0,1.4875657E1,3.9115044E1,1.7487292E2,9.192262E0,6.2806427E1,5.6526386E1,1.1172223E1,3.5288063E1,8.678895E0,9.858772E0,8.059075E0,3.199967E1,8.327693E0,3.0787352E1,8.8028755E0,1.6607005E2,4.853933E1,1.4267096E1,1.2389545E1,4.413684E1],"tree_param":{"num_deleted":"0","num_feature":"188","num_nodes":"73","size_leaf_vector":"1"}},{"base_weights":[-5.957929E-3,-7.396722E-1,9.350639E-1,-1.3803107E0,-1.5219708E-1,-1.6630673E-1,1.3562579E0,-7.187859E-1,-1.7371553E0,1.2835214E-1,-1.5246501E0,4.7712285E-2,-5.194405E-1,9.633199E-1,1.6741773E0,-1.043755E0,8.6350244E-1,-1.8089526E0,-6.842541E-3,-3.0606368E-1,8.727501E-1,-4.453895E-3,-5.4867923E-2,1.3896334E0,-9.6326363E-1,1.1750944E0,-3.901569E-2,1.9453598E-2,1.7434376E0,3.1599596E-2,-1.3721842E0,4.2642146E-2,4.37178E-3,-2.5733007E-2,-1.8567206E0,-8.2697934E-1,7.0935655E-1,1.4739916E0,2.8605843E-1,4.9285937E-2,2.4898887E-2,-1.4279523E0,3.4517568E-1,1.3575886E0,-2.6671162E-2,3.1653155E-2,5.3315837E-2,-3.2503663E-3,-1.5905782E0,-3.592906E-2,-5.699634E-2,1.0759783E0,-1.3512802E0,4.8292734E-2,-2.7198723E-1,5.2580815E-2,3.6433586E-3,7.6072407E-1,-4.4714317E-2,1.9615726E-3,-1.7217011E0,4.9484618E-2,-4.4626135E-2,1.6048299E0,4.5392913E-1,-5.3649448E-2,-2.3452962E-2,5.0769396E-2,-2.9601129E-3,-1.904368E-2,-5.2726813E-2,-3.4428563E-2,4.675613E-2,-2.25713E-2,3.9570816E-2,-1.935844E-2,-5.6603905E-2,2.5841111E-2,5.3967785E-2,-1.706037E-2,4.908402E-2],"categories":[],"categories_nodes":[],"categories_segments":[],"categories_sizes":[],"default_left":[0,0,0,0,0,0,0,0,0,0,0,0,0,0,0,0,0,0,0,0,0,0,0,0,0,0,0,0,0,0,0,0,0,0,0,0,0,0,0,0,0,0,0,0,0,0,0,0,0,0,0,0,0,0,0,0,0,0,0,0,0,0,0,0,0,0,0,0,0,0,0,0,0,0,0,0,0,0,0,0,0],"id":2,"left_children":[1,3,5,7,9,11,13,15,17,19,21,-1,23,25,27,29,31,33,-1,35,37,-1,-1,39,41,43,-1,-1,45,-1,47,-1,-1,-1,49,51,53,55,57,-1,-1,59,61,63,-1,-1,-1,-1,65,-1,-1,67,69,-1,71,-1,-1,73,-1,-1,75,-1,-1,77,79,-1,-1,-1,-1,-1,-1,-1,-1,-1,-1,-1,-1,-1,-1,-1,-1],"loss_changes":[7.2400555E2,2.2131131E2,2.1355109E2,6.436029E1,1.1947239E2,8.07522E1,3.8855896E1,5.3477222E1,1.887262E1,8.389288E1,2.1441132E1,0E0,9.350848E1,7.5337265E1,1.0968353E1,6.060694E1,6.754652E0,5.2111206E0,0E0,8.761562E1,3.2898552E1,0E0,0E0,6.768036E-1,5.4712334E1,5.4661438E1,0E0,0E0,8.3477783E-1,0E0,2.0000137E1,0E0,0E0,0E0,9.2993164E-1,1.1108167E2,5.0567116E1,1.711525E1,4.405136E1,0E0,0E0,2.916452E1,6.1948708E1,2.7618881E1,0E0,0E0,0E0,0E0,7.7105103E0,0E0,0E0,1.8049356E1,2.3196335E1,0E0,4.781904E1,0E0,0E0,3.59602E1,0E0,0E0,7.699997E0,0E0,0E0,1.1976532E1,3.775002E1,0E0,0E0,0E0,0E0,0E0,0E0,0E0,0E0,0E0,0E0,0E0,0E0,0E0,0E0,0E0,0E0],"parents":[2147483647,0,0,1,1,2,2,3,3,4,4,5,5,6,6,7,7,8,8,9,9,10,10,12,12,13,13,14,14,15,15,16,16,17,17,19,19,20,20,23,23,24,24,25,25,28,28,30,30,34,34,35,35,36,36,37,37,38,38,41,41,42,42,43,43,48,48,51,51,52,52,54,54,57,57,60,60,63,63,64,64],"right_children":[2,4,6,8,10,12,14,16,18,20,22,-1,24,26,28,30,32,34,-1,36,38,-1,-1,40,42,44,-1,-1,46,-1,48,-1,-1,-1,50,52,54,56,58,-1,-1,60,62,64,-1,-1,-1,-1,66,-1,-1,68,70,-1,72,-1,-1,74,-1,-1,76,-1,-1,78,80,-1,-1,-1,-1,-1,-1,-1,-1,-1,-1,-1,-1,-1,-1,-1,-1],"split_conditions":[1E1,-2.7E0,-1.4E0,1E1,1.7E1,-1.83E1,4.682E-1,1.202E2,4.6E0,1.24E-1,2.52E1,4.7712285E-2,-6.68E-2,8.4E0,7.064E-1,3.5E0,1.325E1,4.386E-1,-6.842541E-3,3E0,6.11E-1,-4.453895E-3,-5.4867923E-2,1.1E2,-2.8E0,1.12E1,-3.901569E-2,1.9453598E-2,3.5E0,3.1599596E-2,1.085E2,4.2642146E-2,4.37178E-3,-2.5733007E-2,3.072E-1,-7.45E0,1.79E0,4.2E0,2.51E1,4.9285937E-2,2.4898887E-2,7.502E-1,2.95E1,4.874E-1,-2.6671162E-2,3.1653155E-2,5.3315837E-2,-3.2503663E-3,4.445E1,-3.592906E-2,-5.699634E-2,3.7185E-1,8E0,4.8292734E-2,5.25E0,5.2580815E-2,3.6433586E-3,1.46E0,-4.4714317E-2,1.9615726E-3,1.098E2,4.9484618E-2,-4.4626135E-2,1.2E1,1E0,-5.3649448E-2,-2.3452962E-2,5.0769396E-2,-2.9601129E-3,-1.904368E-2,-5.2726813E-2,-3.4428563E-2,4.675613E-2,-2.25713E-2,3.9570816E-2,-1.935844E-2,-5.6603905E-2,2.5841111E-2,5.3967785E-2,-1.706037E-2,4.908402E-2],"split_indices":[179,101,102,178,178,96,143,146,66,97,31,0,85,67,144,10,138,121,0,90,152,0,0,124,101,148,0,0,10,0,124,0,0,0,33,59,44,78,96,0,0,13,129,34,0,0,0,0,136,0,0,131,178,0,21,0,0,66,0,0,160,0,0,179,58,0,0,0,0,0,0,0,0,0,0,0,0,0,0,0,0],"split_type":[0,0,0,0,0,0,0,0,0,0,0,0,0,0,0,0,0,0,0,0,0,0,0,0,0,0,0,0,0,0,0,0,0,0,0,0,0,0,0,0,0,0,0,0,0,0,0,0,0,0,0,0,0,0,0,0,0,0,0,0,0,0,0,0,0,0,0,0,0,0,0,0,0,0,0,0,0,0,0,0,0],"sum_hessian":[1.0456387E3,5.877767E2,4.57862E2,2.8011655E2,3.0766016E2,1.2684589E2,3.310161E2,9.983758E1,1.8027896E2,2.565122E2,5.114794E1,2.0303646E1,1.0654224E2,1.5088582E2,1.801303E2,8.3302666E1,1.6534912E1,1.7174356E2,8.535407E0,1.624554E2,9.405681E1,9.724943E0,4.1423E1,1.9451424E1,8.709081E1,1.386785E2,1.2207318E1,1.2468178E1,1.6766211E2,1.0790207E1,7.251246E1,8.397824E0,8.137088E0,9.672269E0,1.6207129E2,1.0762176E2,5.483365E1,4.524783E1,4.880898E1,1.1270241E1,8.181182E0,6.422197E1,2.2868845E1,1.27929855E2,1.0748648E1,1.0238432E1,1.5742368E2,1.1082196E1,6.1430267E1,1.2753131E1,1.4931816E2,2.2864754E1,8.4757E1,2.8148361E1,2.6685287E1,3.7087887E1,8.159943E0,3.9238876E1,9.570103E0,1.069208E1,5.3529892E1,1.3479931E1,9.388914E0,9.9446686E1,2.8483168E1,4.7803238E1,1.3627028E1,1.4618535E1,8.246219E0,3.214965E1,5.260735E1,1.8466206E1,8.219081E0,1.0387195E1,2.885168E1,8.178002E0,4.535189E1,2.2383133E1,7.706355E1,1.5644515E1,1.2838654E1],"tree_param":{"num_deleted":"0","num_feature":"188","num_nodes":"81","size_leaf_vector":"1"}},{"base_weights":[1.10447975E-2,-7.084499E-1,9.193832E-1,-1.3304437E0,-1.386442E-1,-1.447557E-1,1.3288088E0,-1.6932527E0,-7.108469E-1,-5.762714E-1,7.15401E-1,1.3918747E0,-6.240471E-1,1.4264132E0,-3.2145873E-2,-1.885776E-2,-1.7620021E0,-1.148009E0,5.0391257E-1,9.675381E-1,-8.746333E-1,-3.309129E-2,9.481402E-1,1.2519731E-2,5.0973196E-2,-9.100148E-1,4.549858E-2,6.141443E-1,1.5825025E0,-1.8118637E0,-2.94917E-2,-4.6894637E-1,-1.673016E0,-1.5845902E-2,1.2006009E0,4.8583712E-2,-2.2369998E-2,-1.376784E0,8.05316E-2,-1.3614226E-2,1.1720803E0,-1.2734225E0,2.7161827E-2,1.0182457E0,-4.3655504E-2,7.070675E-1,1.6454055E0,-5.5580936E-2,-2.7838571E-2,2.4478247E-2,-1.0308568E0,-2.9972129E-2,-5.377088E-2,4.7207918E-2,1.8451137E-2,-1.5132068E0,5.5613774E-3,-9.446059E-1,1.3761132E0,1.491499E0,3.325956E-2,7.2115357E-3,-1.657915E0,-2.476719E-2,4.7054596E-2,4.7783747E-2,-1.7712332E-2,2.0598369E-2,1.6793168E0,-4.7291834E-2,-5.0306704E-4,-2.993436E-2,-5.1416848E-2,-4.5478776E-2,1.2304941E-2,1.7357161E-2,5.020286E-2,5.212773E-2,1.5415876E-2,2.7335882E-2,-3.0584192E-2,-5.5114962E-2,-1.7631603E-2,3.375966E-2,5.188622E-2],"categories":[],"categories_nodes":[],"categories_segments":[],"categories_sizes":[],"default_left":[0,0,0,0,0,0,0,0,0,0,0,0,0,0,0,0,0,0,0,0,0,0,0,0,0,0,0,0,0,0,0,0,0,0,0,0,0,0,0,0,0,0,0,0,0,0,0,0,0,0,0,0,0,0,0,0,0,0,0,0,0,0,0,0,0,0,0,0,0,0,0,0,0,0,0,0,0,0,0,0,0,0,0,0,0],"id":3,"left_children":[1,3,5,7,9,11,13,15,17,19,21,23,25,27,-1,-1,29,31,33,35,37,-1,39,-1,-1,41,-1,43,45,47,-1,49,51,-1,53,-1,-1,55,57,-1,59,61,-1,63,-1,65,67,-1,-1,-1,69,-1,-1,-1,-1,71,-1,73,75,77,79,-1,81,-1,-1,-1,-1,-1,83,-1,-1,-1,-1,-1,-1,-1,-1,-1,-1,-1,-1,-1,-1,-1,-1],"loss_changes":[6.876664E2,2.076438E2,2.030492E2,6.0992035E1,1.15775856E2,9.7349266E1,8.107001E1,1.0958008E1,5.735559E1,9.552639E1,4.5989338E1,8.139778E0,6.35744E1,3.935663E1,0E0,0E0,3.4222717E0,2.6648659E1,2.1942783E1,3.9653458E1,8.2961136E1,0E0,3.036126E1,0E0,0E0,6.0942116E1,0E0,4.7939484E1,1.2911316E1,2.6411133E0,0E0,2.7607534E1,5.4885864E-1,0E0,2.2365685E0,0E0,0E0,2.4659866E1,8.2658646E1,0E0,2.9411766E1,4.4628967E1,0E0,4.9401596E1,0E0,2.5489288E1,6.1967163E0,0E0,0E0,0E0,1.4231302E1,0E0,0E0,0E0,0E0,7.9467773E0,0E0,2.7943878E1,4.8391724E0,1.3719696E1,1.935905E1,0E0,9.719803E0,0E0,0E0,0E0,0E0,0E0,3.510254E0,0E0,0E0,0E0,0E0,0E0,0E0,0E0,0E0,0E0,0E0,0E0,0E0,0E0,0E0,0E0,0E0],"parents":[2147483647,0,0,1,1,2,2,3,3,4,4,5,5,6,6,7,7,8,8,9,9,10,10,11,11,12,12,13,13,16,16,17,17,18,18,19,19,20,20,22,22,25,25,27,27,28,28,29,29,31,31,32,32,34,34,37,37,38,38,40,40,41,41,43,43,45,45,46,46,50,50,55,55,57,57,58,58,59,59,60,60,62,62,68,68],"right_children":[2,4,6,8,10,12,14,16,18,20,22,24,26,28,-1,-1,30,32,34,36,38,-1,40,-1,-1,42,-1,44,46,48,-1,50,52,-1,54,-1,-1,56,58,-1,60,62,-1,64,-1,66,68,-1,-1,-1,70,-1,-1,-1,-1,72,-1,74,76,78,80,-1,82,-1,-1,-1,-1,-1,84,-1,-1,-1,-1,-1,-1,-1,-1,-1,-1,-1,-1,-1,-1,-1,-1],"split_conditions":[1E1,-2.7E0,-1.4E0,-2E0,1.24E-1,-2.21E-2,4.73E1,4.386E-1,-1.4E0,-7.45E0,4.454E-1,2.52E1,9.6E0,3.8E0,-3.2145873E-2,-1.885776E-2,1.221E2,-8E-2,8E-1,2.5E-1,3E0,-3.309129E-2,3.3575E-1,1.2519731E-2,5.0973196E-2,2.5E0,4.549858E-2,3.739E-1,-3.75E-2,4.6E0,-2.94917E-2,-4.16E-2,-1.63E-2,-1.5845902E-2,1.345E1,4.8583712E-2,-2.2369998E-2,7.6E0,5E0,-1.3614226E-2,7E0,-2.1E-2,2.7161827E-2,3.4345E-1,-4.3655504E-2,0E0,1.1E1,-5.5580936E-2,-2.7838571E-2,2.4478247E-2,2.5E-2,-2.9972129E-2,-5.377088E-2,4.7207918E-2,1.8451137E-2,1.34E1,5.5613774E-3,1.4E0,4.26E1,1.1675E2,3.693E-1,7.2115357E-3,-2.2E0,-2.476719E-2,4.7054596E-2,4.7783747E-2,-1.7712332E-2,2.0598369E-2,1.1E1,-4.7291834E-2,-5.0306704E-4,-2.993436E-2,-5.1416848E-2,-4.5478776E-2,1.2304941E-2,1.7357161E-2,5.020286E-2,5.212773E-2,1.5415876E-2,2.7335882E-2,-3.0584192E-2,-5.5114962E-2,-1.7631603E-2,3.375966E-2,5.188622E-2],"split_indices":[179,101,102,175,97,75,27,121,100,59,12,31,89,141,0,0,15,95,89,57,90,0,131,0,0,100,0,22,64,66,0,85,75,0,138,0,0,101,141,0,101,99,0,22,0,71,40,0,0,0,94,0,0,0,0,40,0,102,38,135,11,0,88,0,0,0,0,0,179,0,0,0,0,0,0,0,0,0,0,0,0,0,0,0,0],"split_type":[0,0,0,0,0,0,0,0,0,0,0,0,0,0,0,0,0,0,0,0,0,0,0,0,0,0,0,0,0,0,0,0,0,0,0,0,0,0,0,0,0,0,0,0,0,0,0,0,0,0,0,0,0,0,0,0,0,0,0,0,0,0,0,0,0,0,0,0,0,0,0,0,0,0,0,0,0,0,0,0,0,0,0,0,0],"sum_hessian":[1.049183E3,5.855717E2,4.6361124E2,2.789237E2,3.06648E2,1.2901457E2,3.3459668E2,1.7417422E2,1.0474948E2,2.0315363E2,1.034944E2,2.9944963E1,9.906961E1,3.2214755E2,1.2449123E1,1.1576041E1,1.6259819E2,7.714988E1,2.75996E1,3.230402E1,1.7084961E2,1.1057885E1,9.2436516E1,8.103471E0,2.1841492E1,8.819664E1,1.0872974E1,5.3223244E1,2.6892432E2,1.5082611E2,1.1772076E1,3.496074E1,4.2189144E1,1.1210714E1,1.6388885E1,2.350153E1,8.802492E0,1.1161421E2,5.923539E1,1.2458078E1,7.997843E1,7.390523E1,1.4291409E1,4.5205643E1,8.017599E0,1.9365192E1,2.4955911E2,1.4248648E2,8.339642E0,1.0376746E1,2.4583992E1,8.587966E0,3.3601177E1,8.361165E0,8.0277195E0,1.0275196E2,8.862255E0,3.3252945E1,2.5982445E1,6.2028275E1,1.795016E1,1.5030384E1,5.8874847E1,1.0175601E1,3.5030045E1,1.1351649E1,8.013542E0,9.714518E0,2.398446E2,1.53798895E1,9.204103E0,3.144726E1,7.1304695E1,2.331539E1,9.937555E0,8.347043E0,1.7635403E1,4.8541138E1,1.348714E1,9.949412E0,8.000747E0,4.9427616E1,9.447228E0,2.3020275E1,2.1682433E2],"tree_param":{"num_deleted":"0","num_feature":"188","num_nodes":"85","size_leaf_vector":"1"}},{"base_weights":[-4.6960567E-3,-6.1222744E-1,9.46985E-1,-1.7526032E-1,-1.5516127E0,-1.2709959E-1,1.2877915E0,-3.783242E-1,1.3556916E0,-4.162994E-1,-1.688253E0,-4.466747E-1,4.3457236E-2,2.9678863E-1,1.4606308E0,-5.339377E-1,1.4783688E0,3.2271212E-3,4.83206E-2,-4.3555737E-2,4.082697E-2,-1.7683033E0,-2.183677E-2,-1.0673946E0,4.1976887E-1,9.4849294E-1,-3.7185352E-2,1.1467198E0,1.6802362E0,4.060941E-1,-7.9140747E-1,2.5162559E-2,4.950929E-2,-5.4569084E-2,-1.9792141E-2,1.0945179E-2,-1.4677223E0,1.1625447E0,-1.8253E-2,-1.2157116E-2,1.3963577E0,-5.3098798E-2,1.4375855E0,5.1472995E-2,3.082594E-2,7.497359E-1,-4.6730954E-2,2.7290067E-1,-1.0674953E0,-1.793431E-2,-5.234688E-2,1.832153E-2,4.6439715E-2,4.8934776E-2,2.1381037E-2,3.1004176E-2,-3.7170436E-2,1.544327E0,1.02391895E-2,3.6638223E-2,-1.3417667E-2,3.207675E-2,-2.7872017E-2,-3.6094077E-2,3.749498E-2,1.9520087E-2,4.9740728E-2],"categories":[],"categories_nodes":[],"categories_segments":[],"categories_sizes":[],"default_left":[0,0,0,0,0,0,0,0,0,0,0,0,0,0,0,0,0,0,0,0,0,0,0,0,0,0,0,0,0,0,0,0,0,0,0,0,0,0,0,0,0,0,0,0,0,0,0,0,0,0,0,0,0,0,0,0,0,0,0,0,0,0,0,0,0,0,0],"id":4,"left_children":[1,3,5,7,9,11,13,15,17,19,21,23,-1,25,27,29,31,-1,-1,-1,-1,33,-1,35,37,39,-1,41,43,45,47,-1,-1,-1,-1,-1,49,51,-1,-1,53,55,57,-1,-1,59,-1,61,63,-1,-1,-1,-1,-1,-1,-1,-1,65,-1,-1,-1,-1,-1,-1,-1,-1,-1],"loss_changes":[6.0466125E2,2.6147504E2,1.4951059E2,1.3667934E2,3.013675E1,5.0941746E1,5.218866E1,1.1304536E2,1.5959709E1,4.680125E1,1.166571E1,4.5843536E1,0E0,4.972593E1,1.4962891E1,8.73308E1,1.0085297E0,0E0,0E0,0E0,0E0,7.225342E0,0E0,2.9211468E1,2.8622166E1,2.1896173E1,0E0,3.975807E1,5.9176636E-1,5.4325584E1,8.342424E1,0E0,0E0,0E0,0E0,0E0,7.5867615E0,2.9352055E0,0E0,0E0,2.252472E0,3.2180798E1,9.696686E0,0E0,0E0,3.897354E1,0E0,5.8202106E1,7.278978E1,0E0,0E0,0E0,0E0,0E0,0E0,0E0,0E0,6.546524E0,0E0,0E0,0E0,0E0,0E0,0E0,0E0,0E0,0E0],"parents":[2147483647,0,0,1,1,2,2,3,3,4,4,5,5,6,6,7,7,8,8,9,9,10,10,11,11,13,13,14,14,15,15,16,16,21,21,23,23,24,24,25,25,27,27,28,28,29,29,30,30,36,36,37,37,40,40,41,41,42,42,45,45,47,47,48,48,57,57],"right_children":[2,4,6,8,10,12,14,16,18,20,22,24,-1,26,28,30,32,-1,-1,-1,-1,34,-1,36,38,40,-1,42,44,46,48,-1,-1,-1,-1,-1,50,52,-1,-1,54,56,58,-1,-1,60,-1,62,64,-1,-1,-1,-1,-1,-1,-1,-1,66,-1,-1,-1,-1,-1,-1,-1,-1,-1],"split_conditions":[2.4E0,1.3E1,-5E-1,4.8795E-1,-7E0,5.5E0,-5E-3,2.5E1,-5.4E0,-1.6E0,6E0,4.679E-1,4.3457236E-2,2.06E-2,2E-1,-2.21E-2,1.1E1,3.2271212E-3,4.83206E-2,-4.3555737E-2,4.082697E-2,1.58E-1,-2.183677E-2,4.27E1,2.66E1,1.26E1,-3.7185352E-2,4.205E1,1.171E2,1.1E1,4.2E0,2.5162559E-2,4.950929E-2,-5.4569084E-2,-1.9792141E-2,1.0945179E-2,1.375E1,1.36E1,-1.8253E-2,-1.2157116E-2,2.3E0,1.1E1,5.2E0,5.1472995E-2,3.082594E-2,7.892E-1,-4.6730954E-2,6E-1,2.2E-2,-1.793431E-2,-5.234688E-2,1.832153E-2,4.6439715E-2,4.8934776E-2,2.1381037E-2,3.1004176E-2,-3.7170436E-2,7.5E-1,1.02391895E-2,3.6638223E-2,-1.3417667E-2,3.207675E-2,-2.7872017E-2,-3.6094077E-2,3.749498E-2,1.9520087E-2,4.9740728E-2],"split_indices":[101,178,177,132,111,10,99,174,101,101,66,12,0,85,84,75,0,0,0,0,0,97,0,136,140,127,0,27,15,178,32,0,0,0,0,0,29,127,0,0,2,173,119,0,0,122,0,19,106,0,0,0,0,0,0,0,0,177,0,0,0,0,0,0,0,0,0],"split_type":[0,0,0,0,0,0,0,0,0,0,0,0,0,0,0,0,0,0,0,0,0,0,0,0,0,0,0,0,0,0,0,0,0,0,0,0,0,0,0,0,0,0,0,0,0,0,0,0,0,0,0,0,0,0,0,0,0,0,0,0,0,0,0,0,0,0,0],"sum_hessian":[1.0428618E3,6.369119E2,4.0594986E2,4.359913E2,2.0092062E2,9.793749E1,3.0801236E2,3.8598877E2,5.0002514E1,2.2314701E1,1.7860593E2,8.2369675E1,1.5567813E1,4.6433353E1,2.61579E2,3.571756E2,2.8813168E1,8.910987E0,4.1091526E1,1.4308261E1,8.00644E0,1.6360286E2,1.5003068E1,4.785436E1,3.451532E1,3.305171E1,1.3381647E1,1.11699745E2,1.4987926E2,7.6525154E1,2.8065045E2,8.095788E0,2.071738E1,1.5544682E2,8.156035E0,1.0428387E1,3.7425972E1,1.9981735E1,1.4533585E1,8.196423E0,2.4855286E1,2.1967276E1,8.973247E1,1.3967947E2,1.0199785E1,6.5960976E1,1.0564181E1,5.77359E1,2.2291455E2,1.0274709E1,2.7151262E1,9.918265E0,1.006347E1,1.6844774E1,8.01051E0,1.152042E1,1.04468565E1,8.1128914E1,8.603556E0,4.7358044E1,1.860293E1,3.487769E1,2.2858212E1,2.1131026E2,1.1604299E1,1.0394244E1,7.0734665E1],"tree_param":{"num_deleted":"0","num_feature":"188","num_nodes":"67","size_leaf_vector":"1"}},{"base_weights":[1.5751325E-2,-6.772962E-1,9.017121E-1,-1.1882849E0,-3.0188406E-2,-1.1226917E-1,1.2719758E0,-5.3174865E-1,-1.5845327E0,2.2665986E-1,-1.2898784E0,1.346382E0,-5.77122E-1,7.254497E-1,1.4850421E0,-8.127346E-1,8.651926E-1,-1.6440597E0,-6.0348148E-3,4.8866907E-1,-8.501866E-1,-5.083593E-2,1.2314218E-2,1.3748243E-2,4.9327835E-2,4.019587E-2,-9.2528707E-1,9.8152566E-1,-4.3402284E-2,6.634831E-1,1.58643E0,2.747882E-2,-1.0950974E0,4.4220068E-2,-5.966889E-4,-8.667164E-1,-1.7070987E0,-3.725201E-1,8.841266E-1,4.4585045E-2,-1.4759556E0,-1.2164819E0,4.162877E-2,2.8908598E-1,4.731003E-2,4.4544525E-2,-3.0964358E-2,1.1219431E0,1.6526605E0,3.141742E-2,-1.3751764E0,-3.434517E-3,-4.360696E-2,-1.7442654E0,-2.5687274E-2,1.7501016E-1,-1.3900056E0,1.1895941E0,-5.6769073E-1,-1.1953807E-2,-5.3361326E-2,-1.6176689E-1,-1.605576E0,-3.8263906E-2,7.199042E-1,4.7927413E-2,-5.965948E-3,2.4856228E-2,5.063232E-2,-4.83242E-3,-4.5661695E-2,-5.3604767E-2,-3.6300864E-2,-5.0695494E-2,2.5112081E-2,-2.3724932E-2,-5.0601684E-2,4.1835953E-2,-6.1781367E-4,2.0812014E-2,-4.2482216E-2,2.2752699E-2,-3.7972186E-2,-5.265022E-2,-2.2310823E-2,4.2605475E-2,-1.5453592E-2],"categories":[],"categories_nodes":[],"categories_segments":[],"categories_sizes":[],"default_left":[0,0,0,0,0,0,0,0,0,0,0,0,0,0,0,0,0,0,0,0,0,0,0,0,0,0,0,0,0,0,0,0,0,0,0,0,0,0,0,0,0,0,0,0,0,0,0,0,0,0,0,0,0,0,0,0,0,0,0,0,0,0,0,0,0,0,0,0,0,0,0,0,0,0,0,0,0,0,0,0,0,0,0,0,0,0,0],"id":5,"left_children":[1,3,5,7,9,11,13,15,17,19,21,23,25,27,29,31,33,35,-1,37,39,-1,-1,-1,-1,-1,41,43,-1,45,47,-1,49,-1,-1,51,53,55,57,-1,59,61,-1,63,-1,-1,-1,65,67,-1,69,-1,-1,71,-1,73,75,77,79,-1,-1,81,83,-1,85,-1,-1,-1,-1,-1,-1,-1,-1,-1,-1,-1,-1,-1,-1,-1,-1,-1,-1,-1,-1,-1,-1],"loss_changes":[6.4376025E2,1.9432327E2,1.731128E2,8.399588E1,8.504309E1,8.544302E1,3.7441223E1,5.0511395E1,1.6121216E1,6.213353E1,3.1804878E1,6.718464E0,6.5519196E1,5.6417202E1,1.8281189E1,5.3137238E1,1.1919403E1,7.095459E0,0E0,6.064688E1,6.639256E1,0E0,0E0,0E0,0E0,0E0,5.754326E1,3.5543808E1,0E0,4.2975693E1,3.5076904E0,0E0,5.717237E1,0E0,0E0,7.459647E0,3.1608887E0,3.1969357E1,5.4942978E1,0E0,1.0081284E1,2.955806E1,0E0,3.0134449E1,0E0,0E0,0E0,2.040374E1,2.9551392E0,0E0,1.403746E1,0E0,0E0,3.2177734E-1,0E0,4.8964443E1,1.3075485E0,2.520311E1,2.5167408E1,0E0,0E0,2.3351551E1,4.668045E0,0E0,3.104808E1,0E0,0E0,0E0,0E0,0E0,0E0,0E0,0E0,0E0,0E0,0E0,0E0,0E0,0E0,0E0,0E0,0E0,0E0,0E0,0E0,0E0,0E0],"parents":[2147483647,0,0,1,1,2,2,3,3,4,4,5,5,6,6,7,7,8,8,9,9,10,10,11,11,12,12,13,13,14,14,15,15,16,16,17,17,19,19,20,20,26,26,27,27,29,29,30,30,32,32,35,35,36,36,37,37,38,38,40,40,41,41,43,43,47,47,48,48,50,50,53,53,55,55,56,56,57,57,58,58,61,61,62,62,64,64],"right_children":[2,4,6,8,10,12,14,16,18,20,22,24,26,28,30,32,34,36,-1,38,40,-1,-1,-1,-1,-1,42,44,-1,46,48,-1,50,-1,-1,52,54,56,58,-1,60,62,-1,64,-1,-1,-1,66,68,-1,70,-1,-1,72,-1,74,76,78,80,-1,-1,82,84,-1,86,-1,-1,-1,-1,-1,-1,-1,-1,-1,-1,-1,-1,-1,-1,-1,-1,-1,-1,-1,-1,-1,-1],"split_conditions":[1E1,-1E0,-1.5E0,1E1,1.7E1,-2.21E-2,2.4E0,1.198E2,4.7E0,2E0,5.4E0,2.515E1,-6.68E-2,4.81E1,-2.1E0,-2.635E-2,1.23E1,4.4935E-1,-6.0348148E-3,4.25E0,1.22E1,-5.083593E-2,1.2314218E-2,1.3748243E-2,4.9327835E-2,4.019587E-2,4.51E1,4.709E-1,-4.3402284E-2,6.8E-1,4.35E-1,2.747882E-2,3.5E0,4.4220068E-2,-5.966889E-4,1.166E2,4.5E0,8E-1,8.105E-1,4.4585045E-2,3.54E-1,0E0,4.162877E-2,2.46E1,4.731003E-2,4.4544525E-2,-3.0964358E-2,8.3E0,3.2E0,3.141742E-2,4.085E1,-3.434517E-3,-4.360696E-2,0E0,-2.5687274E-2,-2.6E0,1.18E1,8.16E-1,2.52E1,-1.1953807E-2,-5.3361326E-2,2E-1,1.1585E2,-3.8263906E-2,1E0,4.7927413E-2,-5.965948E-3,2.4856228E-2,5.063232E-2,-4.83242E-3,-4.5661695E-2,-5.3604767E-2,-3.6300864E-2,-5.0695494E-2,2.5112081E-2,-2.3724932E-2,-5.0601684E-2,4.1835953E-2,-6.1781367E-4,2.0812014E-2,-4.2482216E-2,2.2752699E-2,-3.7972186E-2,-5.265022E-2,-2.2310823E-2,4.2605475E-2,-1.5453592E-2],"split_indices":[179,101,102,178,178,75,101,146,66,80,10,20,85,125,66,75,18,132,0,130,40,0,0,0,0,0,125,23,0,88,34,0,10,0,0,26,70,70,24,0,142,184,0,20,0,0,0,28,10,0,136,0,0,175,0,81,40,122,118,0,0,154,26,0,165,0,0,0,0,0,0,0,0,0,0,0,0,0,0,0,0,0,0,0,0,0,0],"split_type":[0,0,0,0,0,0,0,0,0,0,0,0,0,0,0,0,0,0,0,0,0,0,0,0,0,0,0,0,0,0,0,0,0,0,0,0,0,0,0,0,0,0,0,0,0,0,0,0,0,0,0,0,0,0,0,0,0,0,0,0,0,0,0,0,0,0,0,0,0,0,0,0,0,0,0,0,0,0,0,0,0,0,0,0,0,0,0],"sum_hessian":[1.0454188E3,5.867057E2,4.5871323E2,3.2704532E2,2.5966034E2,1.2290587E2,3.3580734E2,1.2451081E2,2.0253452E2,2.1663884E2,4.3021507E1,2.8963207E1,9.3942665E1,9.6179214E1,2.3962813E2,1.0424206E2,2.0268745E1,1.9383864E2,8.695879E0,1.7497707E2,4.1661774E1,3.4802982E1,8.218526E0,8.315247E0,2.064796E1,1.3738612E1,8.020405E1,8.681321E1,9.36601E0,2.7675158E1,2.1195297E2,1.4113804E1,9.012826E1,1.1484182E1,8.784564E0,1.6318829E1,1.775198E2,5.5011806E1,1.19965256E2,8.331875E0,3.33299E1,7.190549E1,8.298566E0,4.1246487E1,4.5566723E1,1.8809574E1,8.865583E0,2.9997147E1,1.8195583E2,9.904249E0,8.022401E1,8.011975E0,8.306853E0,1.684683E2,9.0514965E0,3.650917E1,1.8502636E1,9.939252E1,2.0572735E1,8.145352E0,2.5184546E1,2.001947E1,5.1886013E1,8.220424E0,3.3026062E1,2.1879494E1,8.117653E0,9.053857E0,1.7290196E2,9.07088E0,7.115313E1,1.5260672E2,1.5861585E1,8.915816E0,2.7593355E1,8.060543E0,1.0442093E1,8.4873825E1,1.4518694E1,8.335136E0,1.2237599E1,1.1125227E1,8.894243E0,4.279577E1,9.090248E0,2.0983925E1,1.2042136E1],"tree_param":{"num_deleted":"0","num_feature":"188","num_nodes":"87","size_leaf_vector":"1"}},{"base_weights":[-1.1476256E-2,-6.8173873E-1,8.5882425E-1,-1.2671471E0,-1.5118547E-1,-2.0519613E-1,1.2005538E0,1.2541115E-1,-1.363896E0,-5.535886E-1,6.167291E-1,8.387495E-1,-7.6702857E-1,1.2706906E0,-3.8991194E-2,4.7806237E-2,-4.7334302E-2,-1.4732223E0,1.3989244E-2,-1.12678625E-1,-1.2538809E0,-3.180084E-2,8.613425E-1,4.4700563E-2,-2.5972428E-2,2.3411654E-2,-1.1611083E0,1.3790745E0,7.333603E-2,-1.5594333E0,-2.6161972E-1,9.282345E-1,-4.2622676E-1,-1.4660758E0,6.602486E-3,-1.8169167E-2,1.1105758E0,-4.8823077E-3,-1.4361826E0,7.524141E-1,1.4966128E0,-4.5623515E-2,4.50262E-2,-6.711162E-3,-1.6149865E0,-4.009189E-2,2.5532553E-2,4.2294756E-2,-7.996596E-3,2.5222638E-1,-1.0404093E0,-4.9883958E-2,-0E0,1.405158E0,4.4334116E-3,-4.868841E-2,-2.1536835E-2,1.2965839E0,-3.1087939E-2,4.0892833E-1,1.5899546E0,-5.037692E-2,-1.32638365E-2,-2.3734074E-2,2.5753919E-2,-4.134885E-2,5.878183E-3,4.735051E-2,5.444875E-3,-2.9154653E-2,3.073952E-2,1.9947227E-2,4.697341E-2,-3.3294402E-2,4.3078326E-2,2.2961684E-2,4.8478905E-2],"categories":[],"categories_nodes":[],"categories_segments":[],"categories_sizes":[],"default_left":[0,0,0,0,0,0,0,0,0,0,0,0,0,0,0,0,0,0,0,0,0,0,0,0,0,0,0,0,0,0,0,0,0,0,0,0,0,0,0,0,0,0,0,0,0,0,0,0,0,0,0,0,0,0,0,0,0,0,0,0,0,0,0,0,0,0,0,0,0,0,0,0,0,0,0,0,0],"id":6,"left_children":[1,3,5,7,9,11,13,15,17,19,21,23,25,27,-1,-1,-1,29,-1,31,33,-1,35,-1,-1,-1,37,39,41,43,45,47,49,51,-1,-1,53,-1,55,57,59,-1,-1,-1,61,-1,-1,-1,-1,63,65,-1,-1,67,69,-1,-1,71,-1,73,75,-1,-1,-1,-1,-1,-1,-1,-1,-1,-1,-1,-1,-1,-1,-1,-1],"loss_changes":[6.0383545E2,1.8121957E2,1.642114E2,3.78024E1,9.5864204E1,6.587527E1,6.229776E1,5.2159626E1,5.3135895E1,6.244247E1,4.512608E1,4.5712383E1,4.5792362E1,4.28703E1,0E0,0E0,0E0,2.4866943E1,0E0,4.1838768E1,2.5108955E1,0E0,3.5435844E1,0E0,0E0,0E0,1.5604309E1,2.0541138E1,7.003371E1,1.626477E1,2.3518667E1,1.7760656E1,4.144969E1,1.9885712E1,0E0,0E0,2.6229088E1,0E0,4.153488E0,5.197488E1,2.4720398E1,0E0,0E0,0E0,1.5214478E1,0E0,0E0,0E0,0E0,3.1294773E1,2.2239464E1,0E0,0E0,1.2926819E1,2.0026081E1,0E0,0E0,5.02446E0,0E0,3.7147854E1,2.9314575E0,0E0,0E0,0E0,0E0,0E0,0E0,0E0,0E0,0E0,0E0,0E0,0E0,0E0,0E0,0E0,0E0],"parents":[2147483647,0,0,1,1,2,2,3,3,4,4,5,5,6,6,7,7,8,8,9,9,10,10,11,11,12,12,13,13,17,17,19,19,20,20,22,22,26,26,27,27,28,28,29,29,30,30,31,31,32,32,33,33,36,36,38,38,39,39,40,40,44,44,49,49,50,50,53,53,54,54,57,57,59,59,60,60],"right_children":[2,4,6,8,10,12,14,16,18,20,22,24,26,28,-1,-1,-1,30,-1,32,34,-1,36,-1,-1,-1,38,40,42,44,46,48,50,52,-1,-1,54,-1,56,58,60,-1,-1,-1,62,-1,-1,-1,-1,64,66,-1,-1,68,70,-1,-1,72,-1,74,76,-1,-1,-1,-1,-1,-1,-1,-1,-1,-1,-1,-1,-1,-1,-1,-1],"split_conditions":[1E1,-2.7E0,-3.8E0,3.5E0,1.24E-1,7.647E-1,4.73E1,7.782E-1,9.4E0,1.7E1,4.454E-1,4.585E1,-7.25E0,3.02E1,-3.8991194E-2,4.7806237E-2,-4.7334302E-2,8.6E0,1.3989244E-2,2.44E1,2.5E0,-3.180084E-2,3.3575E-1,4.4700563E-2,-2.5972428E-2,2.3411654E-2,-3.5E-1,1.2E1,4.5E0,-1.54E1,-1E-1,6.35E0,1E0,1.032E1,6.602486E-3,-1.8169167E-2,7E0,-4.8823077E-3,5.5E0,6.57E-1,4.426E-1,-4.5623515E-2,4.50262E-2,-6.711162E-3,4.094E-1,-4.009189E-2,2.5532553E-2,4.2294756E-2,-7.996596E-3,-2E-1,5.63E-1,-4.9883958E-2,-0E0,1.1915E2,7.8E0,-4.868841E-2,-2.1536835E-2,-3E-3,-3.1087939E-2,2.56E1,1.15E1,-5.037692E-2,-1.32638365E-2,-2.3734074E-2,2.5753919E-2,-4.134885E-2,5.878183E-3,4.735051E-2,5.444875E-3,-2.9154653E-2,3.073952E-2,1.9947227E-2,4.697341E-2,-3.3294402E-2,4.3078326E-2,2.2961684E-2,4.8478905E-2],"split_indices":[179,101,77,10,97,13,27,35,89,174,12,27,78,118,0,0,0,145,0,31,70,0,131,0,0,0,81,179,21,123,62,78,107,66,0,0,101,0,10,152,121,0,0,0,33,0,0,0,0,93,46,0,0,135,17,0,0,85,0,31,138,0,0,0,0,0,0,0,0,0,0,0,0,0,0,0,0],"split_type":[0,0,0,0,0,0,0,0,0,0,0,0,0,0,0,0,0,0,0,0,0,0,0,0,0,0,0,0,0,0,0,0,0,0,0,0,0,0,0,0,0,0,0,0,0,0,0,0,0,0,0,0,0,0,0,0,0,0,0,0,0,0,0,0,0,0,0,0,0,0,0,0,0,0,0,0,0],"sum_hessian":[1.0321776E3,5.833501E2,4.4882755E2,2.762581E2,3.07092E2,1.09181885E2,3.3964566E2,1.7850376E1,2.584077E2,2.0186136E2,1.0523067E2,3.78798E1,7.1302086E1,3.311344E2,8.51126E0,9.6702175E0,8.180159E0,2.4416959E2,1.4238121E1,1.2502727E2,7.683408E1,1.2708488E1,9.252218E1,2.7586658E1,1.0293139E1,1.4122734E1,5.7179356E1,3.03363E2,2.777141E1,2.2747084E2,1.6698753E1,2.8188356E1,9.683891E1,6.723121E1,9.602875E0,1.30665455E1,7.9455635E1,1.2945498E1,4.4233856E1,4.9800865E1,2.5356213E2,1.3040809E1,1.47306E1,9.455757E0,2.1801508E2,8.386469E0,8.3122835E0,1.9957634E1,8.230722E0,4.6354675E1,5.0484238E1,5.9122498E1,8.108713E0,6.2353954E1,1.710168E1,3.349603E1,1.0737827E1,3.854339E1,1.1257474E1,2.0762737E1,2.3279941E2,2.059985E2,1.201658E1,1.6806864E1,2.9547812E1,3.9576828E1,1.0907407E1,5.4170383E1,8.183571E0,8.725402E0,8.37628E0,1.318377E1,2.535962E1,8.288089E0,1.2474648E1,8.631777E0,2.2416762E2],"tree_param":{"num_deleted":"0","num_feature":"188","num_nodes":"77","size_leaf_vector":"1"}},{"base_weights":[-1.1811863E-2,-8.8527066E-1,5.5133396E-1,-1.3009688E0,-3.5882574E-1,-4.1440278E-1,9.0066403E-1,-1.4107741E0,1.2359043E-2,1.3053979E-1,-1.082774E0,1.0391967E0,-7.2774076E-1,9.9313676E-1,-9.005614E-1,-8.511163E-5,-1.5096054E0,3.8527822E-1,-4.4774402E-2,-1.360174E0,1.0389814E-2,7.040291E-4,4.5577507E-2,4.0735438E-1,-1.0917181E0,6.4902353E-1,1.438307E0,1.0231372E-2,-4.7894794E-2,-1.5605808E0,-1.1372853E-2,-6.224333E-1,8.5849726E-1,-1.209513E-2,-1.6082902E0,4.12903E-2,-3.7347105E-1,2.012668E-2,-1.3636267E0,1.3394228E-1,1.1264216E0,1.5315185E0,-1.8197522E-3,-1.6119381E0,-1.5991634E-2,-4.2347685E-2,2.7851345E-2,1.2327615E0,-1.1391915E-1,-2.8819464E-2,-5.1049568E-2,-3.5404183E-2,1.7567892E-2,-9.803961E-3,-1.48653E0,-2.3975162E-1,1.2204137E0,-0E0,1.2510056E0,4.7408994E-2,2.2832585E-2,-5.0015993E-2,-2.0902786E-2,4.731698E-2,5.157526E-3,-3.269477E-2,3.0725595E-2,-4.942153E-2,-1.7867174E-2,-1.6746575E-2,2.8148605E-2,7.175671E-3,4.626838E-2,4.0815964E-2,-5.737386E-3],"categories":[],"categories_nodes":[],"categories_segments":[],"categories_sizes":[],"default_left":[0,0,0,0,0,0,0,0,0,0,0,0,0,0,0,0,0,0,0,0,0,0,0,0,0,0,0,0,0,0,0,0,0,0,0,0,0,0,0,0,0,0,0,0,0,0,0,0,0,0,0,0,0,0,0,0,0,0,0,0,0,0,0,0,0,0,0,0,0,0,0,0,0,0,0],"id":7,"left_children":[1,3,5,7,9,11,13,15,-1,17,19,21,23,25,27,-1,29,31,-1,33,-1,-1,-1,35,37,39,41,-1,-1,43,-1,45,47,-1,49,-1,51,-1,53,55,57,59,-1,61,-1,-1,-1,63,65,-1,-1,-1,-1,-1,67,69,71,-1,73,-1,-1,-1,-1,-1,-1,-1,-1,-1,-1,-1,-1,-1,-1,-1,-1],"loss_changes":[5.1136804E2,8.832507E1,2.1381834E2,4.367862E1,6.47866E1,7.800079E1,7.8746796E1,2.9588379E1,0E0,4.6169743E1,3.0005722E1,1.4664593E1,5.8506584E1,6.621356E1,2.1182438E1,0E0,1.0425842E1,4.6697536E1,0E0,1.3557953E1,0E0,0E0,0E0,2.733525E1,5.2413727E1,6.1754807E1,2.706604E1,0E0,0E0,8.54953E0,0E0,4.0614185E1,2.439893E1,0E0,2.253952E-1,0E0,1.6949514E1,0E0,1.090065E1,5.0595406E1,1.8337738E1,4.747864E0,0E0,7.1547546E0,0E0,0E0,0E0,1.6948189E1,2.3543911E1,0E0,0E0,0E0,0E0,0E0,1.0106354E1,3.5610176E1,9.333443E0,0E0,1.910672E1,0E0,0E0,0E0,0E0,0E0,0E0,0E0,0E0,0E0,0E0,0E0,0E0,0E0,0E0,0E0,0E0],"parents":[2147483647,0,0,1,1,2,2,3,3,4,4,5,5,6,6,7,7,9,9,10,10,11,11,12,12,13,13,14,14,16,16,17,17,19,19,23,23,24,24,25,25,26,26,29,29,31,31,32,32,34,34,36,36,38,38,39,39,40,40,41,41,43,43,47,47,48,48,54,54,55,55,56,56,58,58],"right_children":[2,4,6,8,10,12,14,16,-1,18,20,22,24,26,28,-1,30,32,-1,34,-1,-1,-1,36,38,40,42,-1,-1,44,-1,46,48,-1,50,-1,52,-1,54,56,58,60,-1,62,-1,-1,-1,64,66,-1,-1,-1,-1,-1,68,70,72,-1,74,-1,-1,-1,-1,-1,-1,-1,-1,-1,-1,-1,-1,-1,-1,-1,-1],"split_conditions":[-1E0,-3E-1,-2.1E0,7E0,1.9E1,-2.69E-2,4.735E1,4.386E-1,1.2359043E-2,2.2E0,2.08E0,-2.42E-2,0E0,8E0,8.2E0,-8.511163E-5,4.9E0,-9.5E-1,-4.4774402E-2,-3.4E0,1.0389814E-2,7.040291E-4,4.5577507E-2,-7.2E-3,-3E0,2E-1,3.4E0,1.0231372E-2,-4.7894794E-2,9.06E-2,-1.1372853E-2,4.892E-1,2.92E1,-1.209513E-2,3.4175E-1,4.12903E-2,-1.4E-2,2.012668E-2,-2.8E0,1E0,-3.1E-2,4.988E-1,-1.8197522E-3,2.6E1,-1.5991634E-2,-4.2347685E-2,2.7851345E-2,5.4E0,5.63E-1,-2.8819464E-2,-5.1049568E-2,-3.5404183E-2,1.7567892E-2,-9.803961E-3,1.196E2,2.7E-2,-3.1E0,-0E0,1.185E2,4.7408994E-2,2.2832585E-2,-5.0015993E-2,-2.0902786E-2,4.731698E-2,5.157526E-3,-3.269477E-2,3.0725595E-2,-4.942153E-2,-1.7867174E-2,-1.6746575E-2,2.8148605E-2,7.175671E-3,4.626838E-2,4.0815964E-2,-5.737386E-3],"split_indices":[175,102,102,159,174,75,27,121,0,80,103,65,184,175,28,0,68,73,0,98,0,0,0,85,98,84,70,0,0,87,0,132,31,0,22,0,99,0,14,58,86,34,0,173,0,0,0,89,155,0,0,0,0,0,37,86,14,0,15,0,0,0,0,0,0,0,0,0,0,0,0,0,0,0,0],"split_type":[0,0,0,0,0,0,0,0,0,0,0,0,0,0,0,0,0,0,0,0,0,0,0,0,0,0,0,0,0,0,0,0,0,0,0,0,0,0,0,0,0,0,0,0,0,0,0,0,0,0,0,0,0,0,0,0,0,0,0,0,0,0,0,0,0,0,0,0,0,0,0,0,0,0,0],"sum_hessian":[1.0365533E3,4.060599E2,6.3049347E2,2.255564E2,1.805035E2,1.6733197E2,4.6316153E2,2.1227199E2,1.3284412E1,1.0835227E2,7.215123E1,2.9000841E1,1.3833113E2,4.412374E2,2.1924128E1,1.4090838E1,1.9818114E2,9.46951E1,1.3657174E1,6.0541885E1,1.1609341E1,9.879268E0,1.9121572E1,3.3476917E1,1.0485422E2,2.5107208E2,1.901653E2,8.097915E0,1.3826212E1,1.8899994E2,9.18121E0,3.004037E1,6.4654724E1,1.3358314E1,4.7183575E1,1.4485166E1,1.899175E1,1.3670229E1,9.118399E1,1.2179431E2,1.2927777E2,1.7906451E2,1.1100793E1,1.790979E2,9.902029E0,2.004121E1,9.999161E0,4.647041E1,1.8184319E1,8.213417E0,3.8970158E1,1.0184288E1,8.807464E0,1.0331157E1,8.085283E1,9.142535E1,3.0368965E1,1.3033282E1,1.1624449E2,1.6679688E2,1.2267627E1,1.6763373E2,1.1464182E1,3.4457233E1,1.2013176E1,9.871323E0,8.312997E0,6.7314125E1,1.3538705E1,7.265745E1,1.8767904E1,8.223764E0,2.21452E1,1.08183235E2,8.061258E0],"tree_param":{"num_deleted":"0","num_feature":"188","num_nodes":"75","size_leaf_vector":"1"}},{"base_weights":[5.943756E-3,-6.1741984E-1,8.219708E-1,-1.0817856E0,-2.7771948E-2,-1.3639522E-1,1.2029667E0,-1.2058762E0,5.349003E-1,-9.6847737E-1,2.2064203E-1,-5.71294E-1,1.0587478E0,1.2974203E0,-2.7652131E-2,-4.6583077E-1,-1.3726648E0,-1.8945929E-2,4.208362E-2,2.2434864E-2,-1.4160273E0,4.3199012E-1,-8.6424387E-1,-1.2178115E0,7.8940624E-1,-1.8494923E-2,4.801731E-2,5.7516235E-1,1.4304128E0,-1.2104561E0,1.040946E0,7.235437E-3,-1.446003E0,-4.775621E-2,-1.5809944E-2,-4.64142E-1,7.4490696E-1,8.810152E-3,-1.3972958E0,2.2936542E-2,-4.9743112E-2,4.2557437E-2,-1.065256E-2,1.1915127E0,-3.04283E-1,1.4677688E0,1.0122437E-2,-4.9114794E-2,-2.727205E-4,5.336156E-3,4.8611853E-2,-1.5195878E0,-4.7579627E-3,-1.0855411E0,5.580493E-1,9.5455766E-1,-2.168158E-2,-5.005643E-2,-2.3272285E-2,4.622825E-2,8.678265E-3,-3.9644297E-2,3.4079272E-2,1.4986807E0,1.4934251E-2,-4.7645528E-2,-2.488756E-2,-4.796105E-2,5.9217582E-3,3.778065E-2,-7.7000647E-3,-1.7947579E-2,3.5087425E-2,2.831253E-2,4.678204E-2],"categories":[],"categories_nodes":[],"categories_segments":[],"categories_sizes":[],"default_left":[0,0,0,0,0,0,0,0,0,0,0,0,0,0,0,0,0,0,0,0,0,0,0,0,0,0,0,0,0,0,0,0,0,0,0,0,0,0,0,0,0,0,0,0,0,0,0,0,0,0,0,0,0,0,0,0,0,0,0,0,0,0,0,0,0,0,0,0,0,0,0,0,0,0,0],"id":8,"left_children":[1,3,5,7,9,11,13,15,17,19,21,23,25,27,-1,29,31,-1,-1,-1,33,35,37,39,41,-1,-1,43,45,47,49,-1,51,-1,-1,53,55,-1,57,-1,-1,-1,-1,59,61,63,-1,-1,-1,-1,-1,65,-1,67,69,71,-1,-1,-1,-1,-1,-1,-1,73,-1,-1,-1,-1,-1,-1,-1,-1,-1,-1,-1],"loss_changes":[5.2488135E2,1.5999564E2,1.6353601E2,6.665094E1,6.099467E1,6.759758E1,6.605328E1,3.6414307E1,2.6002628E1,4.3546257E1,4.7815628E1,8.521602E1,3.309588E1,2.8059937E1,0E0,6.736885E1,2.9928894E1,0E0,0E0,0E0,5.3804092E0,4.926263E1,2.1746918E1,5.8865936E1,2.3557068E1,0E0,0E0,2.7937485E1,9.618347E0,2.0208344E1,9.419449E0,0E0,2.1917816E1,0E0,0E0,3.0055897E1,4.088022E1,0E0,1.799797E0,0E0,0E0,0E0,0E0,8.602909E0,3.433198E1,6.150696E0,0E0,0E0,0E0,0E0,0E0,8.379089E0,0E0,1.9743252E1,1.1011044E1,3.9154243E1,0E0,0E0,0E0,0E0,0E0,0E0,0E0,5.6484985E0,0E0,0E0,0E0,0E0,0E0,0E0,0E0,0E0,0E0,0E0,0E0],"parents":[2147483647,0,0,1,1,2,2,3,3,4,4,5,5,6,6,7,7,8,8,9,9,10,10,11,11,12,12,13,13,15,15,16,16,20,20,21,21,22,22,23,23,24,24,27,27,28,28,29,29,30,30,32,32,35,35,36,36,38,38,43,43,44,44,45,45,51,51,53,53,54,54,55,55,63,63],"right_children":[2,4,6,8,10,12,14,16,18,20,22,24,26,28,-1,30,32,-1,-1,-1,34,36,38,40,42,-1,-1,44,46,48,50,-1,52,-1,-1,54,56,-1,58,-1,-1,-1,-1,60,62,64,-1,-1,-1,-1,-1,66,-1,68,70,72,-1,-1,-1,-1,-1,-1,-1,74,-1,-1,-1,-1,-1,-1,-1,-1,-1,-1,-1],"split_conditions":[1E1,-1E0,-1.4E0,9.2E0,-5E0,2.25E0,4.73E1,-3.1E0,-9.4E-2,-6.6E0,1.02E1,1.1585E2,3.2E0,3.8E0,-2.7652131E-2,7.858E-1,-1.04E1,-1.8945929E-2,4.208362E-2,2.2434864E-2,6.2E0,4.2E0,4.2E0,-2.4E-2,5.71E-1,-1.8494923E-2,4.801731E-2,3.9E-3,3.6E0,3E-1,-6.2E0,7.235437E-3,9.6E0,-4.775621E-2,-1.5809944E-2,1E-1,8.127E-1,8.810152E-3,7.775E-1,2.2936542E-2,-4.9743112E-2,4.2557437E-2,-1.065256E-2,2.715E1,1.3E-2,8.138E-1,1.0122437E-2,-4.9114794E-2,-2.727205E-4,5.336156E-3,4.8611853E-2,3.918E-1,-4.7579627E-3,1.24E-1,-2.5E-3,4.527E-1,-2.168158E-2,-5.005643E-2,-2.3272285E-2,4.622825E-2,8.678265E-3,-3.9644297E-2,3.4079272E-2,-2.76E-2,1.4934251E-2,-4.7645528E-2,-2.488756E-2,-4.796105E-2,5.9217582E-3,3.778065E-2,-7.7000647E-3,-1.7947579E-2,3.5087425E-2,2.831253E-2,4.678204E-2],"split_indices":[179,101,102,145,177,134,27,61,97,59,126,26,10,141,0,13,90,0,0,0,101,141,10,99,164,0,0,63,70,62,100,0,89,0,0,72,24,0,13,0,0,0,0,20,99,24,0,0,0,0,0,11,0,97,63,23,0,0,0,0,0,0,0,63,0,0,0,0,0,0,0,0,0,0,0],"split_type":[0,0,0,0,0,0,0,0,0,0,0,0,0,0,0,0,0,0,0,0,0,0,0,0,0,0,0,0,0,0,0,0,0,0,0,0,0,0,0,0,0,0,0,0,0,0,0,0,0,0,0,0,0,0,0,0,0,0,0,0,0,0,0,0,0,0,0,0,0,0,0,0,0,0,0],"sum_hessian":[1.0288098E3,5.833959E2,4.4541394E2,3.255745E2,2.5782138E2,1.2690204E2,3.185119E2,3.0277744E2,2.2797049E1,5.303617E1,2.047852E2,9.367972E1,3.322232E1,3.055594E2,1.2952518E1,5.684473E1,2.4593271E2,9.850866E0,1.2946182E1,1.0715092E1,4.232108E1,1.722281E2,3.25571E1,6.3662426E1,3.001729E1,8.023557E0,2.5198763E1,4.8873775E1,2.566856E2,3.828583E1,1.85589E1,1.0481658E1,2.3545105E2,3.4248516E1,8.07256E0,4.4304443E1,1.2792366E2,1.0416342E1,2.2140757E1,1.1327939E1,5.2334488E1,1.91938E1,1.082349E1,2.8488993E1,2.0384783E1,2.4761684E2,9.068779E0,2.778849E1,1.0497341E1,8.31177E0,1.0247131E1,2.2239153E2,1.3059533E1,2.7557104E1,1.674734E1,1.1245235E2,1.54713125E1,1.3542894E1,8.597861E0,1.9690372E1,8.798621E0,1.2060267E1,8.324514E0,2.3907689E2,8.539938E0,2.0037389E2,2.201763E1,1.9475748E1,8.081356E0,8.626121E0,8.121219E0,1.3295941E1,9.915641E1,2.6189583E1,2.1288731E2],"tree_param":{"num_deleted":"0","num_feature":"188","num_nodes":"75","size_leaf_vector":"1"}},{"base_weights":[-5.839759E-4,-6.4128786E-1,8.211459E-1,-1.187962E0,-1.3702628E-1,2.3305279E-1,1.3072057E0,-1.4401156E0,-6.788019E-1,2.3456307E-1,-8.1550944E-1,-1.0340039E-1,1.3280739E0,-2.476598E-2,1.3926461E0,-1.380648E-2,-1.488843E0,-9.364868E-1,2.348207E-2,4.880478E-4,1.2312571E0,3.378325E-2,-1.0137872E0,1.0984966E0,-4.6980828E-1,4.6429276E-2,1.1855779E-2,1.4488765E0,7.5976467E-3,-1.5616691E0,-2.0222643E-2,-1.1280879E0,1.8419964E-2,-2.6559418E-1,8.0406296E-1,8.775732E-3,4.5344424E-2,-1.2218229E0,1.367968E-2,1.3896973E0,6.3205766E-4,-7.522384E-1,1.0748464E0,1.4028627E-2,1.4838167E0,-4.8462838E-2,-1.5108981E-2,-4.3007278E-1,-1.322304E0,5.979682E-1,-6.070605E-1,-1.5278798E-2,1.3380342E0,-1.4956669E0,-2.4149586E-1,4.6830952E-2,2.3346895E-2,3.5300815E-1,-1.092922E0,4.2808156E-2,1.4342988E-2,1.5238544E0,1.4855114E-2,1.7147128E-2,-4.0074084E-2,-4.8697017E-2,-2.5353074E-2,3.9797805E-2,-1.7493077E-2,-3.398197E-2,1.7486587E-3,4.694393E-2,1.8829122E-2,-2.2586228E-2,-4.7766E-2,-4.4436693E-2,2.3912666E-2,3.640802E-2,-2.3294847E-2,-4.3351993E-2,-6.6501894E-3,2.3785999E-2,4.6407003E-2],"categories":[],"categories_nodes":[],"categories_segments":[],"categories_sizes":[],"default_left":[0,0,0,0,0,0,0,0,0,0,0,0,0,0,0,0,0,0,0,0,0,0,0,0,0,0,0,0,0,0,0,0,0,0,0,0,0,0,0,0,0,0,0,0,0,0,0,0,0,0,0,0,0,0,0,0,0,0,0,0,0,0,0,0,0,0,0,0,0,0,0,0,0,0,0,0,0,0,0,0,0,0,0],"id":9,"left_children":[1,3,5,7,9,11,13,15,17,19,21,23,25,-1,27,-1,29,31,-1,33,35,-1,37,39,41,-1,-1,43,-1,45,-1,47,-1,49,51,-1,-1,53,-1,55,-1,57,59,-1,61,-1,-1,63,65,67,69,-1,71,73,75,-1,-1,77,79,-1,-1,81,-1,-1,-1,-1,-1,-1,-1,-1,-1,-1,-1,-1,-1,-1,-1,-1,-1,-1,-1,-1,-1],"loss_changes":[5.3728503E2,1.5771953E2,1.271752E2,3.36138E1,7.600929E1,7.556317E1,4.6304382E1,7.4853516E0,3.6522236E1,4.5365753E1,4.2752426E1,7.008601E1,8.756058E0,0E0,1.4369202E1,0E0,8.46048E0,2.5053665E1,0E0,3.447415E1,8.889748E0,0E0,3.0751404E1,1.1483395E1,5.4334946E1,0E0,0E0,6.4455566E0,0E0,7.527466E0,0E0,8.783783E0,0E0,3.617965E1,2.9253496E1,0E0,0E0,2.2359726E1,0E0,1.0009995E0,0E0,3.9792027E1,2.8616924E0,0E0,7.198639E0,0E0,0E0,1.7633343E1,5.706917E0,3.1281927E1,3.0784958E1,0E0,2.979824E0,2.7585754E0,2.841029E1,0E0,0E0,2.6298397E1,2.3863266E1,0E0,0E0,1.4024353E0,0E0,0E0,0E0,0E0,0E0,0E0,0E0,0E0,0E0,0E0,0E0,0E0,0E0,0E0,0E0,0E0,0E0,0E0,0E0,0E0,0E0],"parents":[2147483647,0,0,1,1,2,2,3,3,4,4,5,5,6,6,7,7,8,8,9,9,10,10,11,11,12,12,14,14,16,16,17,17,19,19,20,20,22,22,23,23,24,24,27,27,29,29,31,31,33,33,34,34,37,37,39,39,41,41,42,42,44,44,47,47,48,48,49,49,50,50,52,52,53,53,54,54,57,57,58,58,61,61],"right_children":[2,4,6,8,10,12,14,16,18,20,22,24,26,-1,28,-1,30,32,-1,34,36,-1,38,40,42,-1,-1,44,-1,46,-1,48,-1,50,52,-1,-1,54,-1,56,-1,58,60,-1,62,-1,-1,64,66,68,70,-1,72,74,76,-1,-1,78,80,-1,-1,82,-1,-1,-1,-1,-1,-1,-1,-1,-1,-1,-1,-1,-1,-1,-1,-1,-1,-1,-1,-1,-1],"split_conditions":[1E1,-2.7E0,2.4E0,-5E-1,1.7E1,4.86E-1,-1.9E-2,3.5E0,1.202E2,5.4E0,1.22E1,-2.175E-2,1.163E2,-2.476598E-2,1.14E1,-1.380648E-2,4.004E-1,1.07E1,2.348207E-2,6.13E-1,7.65E0,3.378325E-2,2.5E0,1.66E1,6.5E-1,4.6429276E-2,1.1855779E-2,1.19E1,7.5976467E-3,9.2E0,-2.0222643E-2,4.503E-1,1.8419964E-2,-6.8E0,-2.07E-2,8.775732E-3,4.5344424E-2,5.4E0,1.367968E-2,1E0,6.3205766E-4,-1.6E0,1.065E-2,1.4028627E-2,8.544E-1,-4.8462838E-2,-1.5108981E-2,-7E-2,-8E0,2E-1,5.2E0,-1.5278798E-2,9E0,1.8E1,1.3E0,4.6830952E-2,2.3346895E-2,1.6E0,1.157E2,4.2808156E-2,1.4342988E-2,3.55E0,1.4855114E-2,1.7147128E-2,-4.0074084E-2,-4.8697017E-2,-2.5353074E-2,3.9797805E-2,-1.7493077E-2,-3.398197E-2,1.7486587E-3,4.694393E-2,1.8829122E-2,-2.2586228E-2,-4.7766E-2,-4.4436693E-2,2.3912666E-2,3.640802E-2,-2.3294847E-2,-4.3351993E-2,-6.6501894E-3,2.3785999E-2,4.6407003E-2],"split_indices":[179,101,101,177,174,143,106,10,146,90,29,75,156,0,39,0,33,126,0,155,28,0,70,149,139,0,0,18,0,89,0,121,0,88,63,0,0,10,0,103,0,36,75,0,144,0,0,95,88,57,141,0,39,174,101,0,0,90,135,0,0,21,0,0,0,0,0,0,0,0,0,0,0,0,0,0,0,0,0,0,0,0,0],"split_type":[0,0,0,0,0,0,0,0,0,0,0,0,0,0,0,0,0,0,0,0,0,0,0,0,0,0,0,0,0,0,0,0,0,0,0,0,0,0,0,0,0,0,0,0,0,0,0,0,0,0,0,0,0,0,0,0,0,0,0,0,0,0,0,0,0,0,0,0,0,0,0,0,0,0,0,0,0,0,0,0,0,0,0],"sum_hessian":[1.01754645E3,5.720047E2,4.4554175E2,2.7338913E2,2.9861554E2,2.0270728E2,2.4283447E2,1.8087476E2,9.251439E1,1.934833E2,1.0513224E2,1.5603226E2,4.667501E1,8.808013E0,2.3402646E2,9.407656E0,1.714671E2,7.916418E1,1.3350211E1,1.5798206E2,3.5501247E1,9.044196E0,9.608805E1,3.5690334E1,1.2034193E2,3.6895397E1,9.779615E0,2.2254822E2,1.147824E1,1.5602325E2,1.5443841E1,7.087851E1,8.285665E0,1.19344215E2,3.8637844E1,8.948157E0,2.655309E1,8.445515E1,1.1632897E1,2.7681253E1,8.00908E0,1.0244481E2,1.7897123E1,8.492176E0,2.1405605E2,1.4763707E2,8.386183E0,1.659008E1,5.428843E1,3.341603E1,8.5928185E1,1.1134201E1,2.7503645E1,6.5318565E1,1.9136585E1,1.9675266E1,8.005988E0,2.4055643E1,7.838916E1,9.83809E0,8.059033E0,2.0484706E2,9.208981E0,8.08828E0,8.501801E0,3.0955536E1,2.3332893E1,2.0604542E1,1.2811488E1,4.7498043E1,3.843014E1,1.9374382E1,8.129263E0,9.149632E0,5.6168934E1,8.476016E0,1.0660569E1,1.3639936E1,1.0415707E1,5.5040146E1,2.3349018E1,8.016496E0,1.9683057E2],"tree_param":{"num_deleted":"0","num_feature":"188","num_nodes":"83","size_leaf_vector":"1"}},{"base_weights":[-5.7924604E-3,-5.9608245E-1,7.669974E-1,5.2507166E-2,-9.791157E-1,-1.166163E-1,1.1355023E0,-5.0416267E-1,6.442199E-1,-1.1653217E0,3.46897E-1,1.2446773E0,-5.3921837E-1,1.2256149E0,-2.5789985E-2,-1.4845566E-1,-1.3354776E0,8.770103E-1,-2.8585924E-2,-1.2513309E0,2.3928532E-2,-2.1730512E-2,9.290559E-1,1.1539624E-2,4.6161834E-2,-1.0142336E0,8.4298825E-1,5.0294626E-1,1.3721409E0,-6.03203E-1,7.862545E-1,-4.641874E-2,-1.9298425E-2,-1.7778546E-2,1.0356793E0,-1.312816E0,2.3544135E-3,4.5831893E-2,-4.36131E-3,1.7774487E-2,-1.3625462E0,4.559613E-2,-1.6788067E-2,-3.269274E-2,8.856174E-1,5.455475E-1,1.4357573E0,2.2019096E-2,-9.356241E-1,4.702908E-2,-7.923113E-3,1.3236434E0,-1.128891E-1,-1.3966099E0,-4.7051406E-1,-6.145568E-1,-4.8660748E-2,1.387072E0,-3.0476255E-2,4.201907E-2,-1.7302556E-2,8.8293487E-1,4.527719E-2,-3.702395E-2,8.908708E-3,7.7265436E-3,4.4574182E-2,-3.2501213E-2,2.5620181E-2,-4.498049E-2,-1.3761061E-2,2.0506812E-2,-4.01554E-2,-4.4238262E-2,1.1778081E-2,4.5962248E-2,2.2785088E-2,3.7762225E-2,-6.480933E-4],"categories":[],"categories_nodes":[],"categories_segments":[],"categories_sizes":[],"default_left":[0,0,0,0,0,0,0,0,0,0,0,0,0,0,0,0,0,0,0,0,0,0,0,0,0,0,0,0,0,0,0,0,0,0,0,0,0,0,0,0,0,0,0,0,0,0,0,0,0,0,0,0,0,0,0,0,0,0,0,0,0,0,0,0,0,0,0,0,0,0,0,0,0,0,0,0,0,0,0],"id":10,"left_children":[1,3,5,7,9,11,13,15,17,19,21,23,25,27,-1,29,31,33,-1,35,-1,-1,37,-1,-1,39,41,43,45,47,49,-1,-1,-1,51,53,-1,-1,-1,-1,55,-1,-1,-1,57,59,61,-1,63,-1,-1,65,67,69,71,73,-1,75,-1,-1,-1,77,-1,-1,-1,-1,-1,-1,-1,-1,-1,-1,-1,-1,-1,-1,-1,-1,-1],"loss_changes":[4.6054132E2,1.4238756E2,1.4264471E2,7.095004E1,8.959738E1,7.568704E1,5.7121094E1,3.2364532E1,4.0068237E1,5.4919495E1,2.9360859E1,6.80476E0,6.712577E1,3.0125153E1,0E0,3.4476078E1,3.123024E0,2.2411583E1,0E0,2.5094727E1,0E0,0E0,1.9865545E1,0E0,0E0,4.3456696E1,2.6443184E1,3.3357292E1,1.1518341E1,2.522567E1,2.2575705E1,0E0,0E0,0E0,2.8001534E1,1.9314209E1,0E0,0E0,0E0,0E0,1.0398193E1,0E0,0E0,0E0,4.3264442E1,2.0536156E1,6.9671326E0,0E0,1.6934853E1,0E0,0E0,1.0842155E1,1.8370956E1,2.4127686E1,3.0120745E1,1.708266E1,0E0,1.1918259E0,0E0,0E0,0E0,1.0485102E1,0E0,0E0,0E0,0E0,0E0,0E0,0E0,0E0,0E0,0E0,0E0,0E0,0E0,0E0,0E0,0E0,0E0],"parents":[2147483647,0,0,1,1,2,2,3,3,4,4,5,5,6,6,7,7,8,8,9,9,10,10,11,11,12,12,13,13,15,15,16,16,17,17,19,19,22,22,25,25,26,26,27,27,28,28,29,29,30,30,34,34,35,35,40,40,44,44,45,45,46,46,48,48,51,51,52,52,53,53,54,54,55,55,57,57,61,61],"right_children":[2,4,6,8,10,12,14,16,18,20,22,24,26,28,-1,30,32,34,-1,36,-1,-1,38,-1,-1,40,42,44,46,48,50,-1,-1,-1,52,54,-1,-1,-1,-1,56,-1,-1,-1,58,60,62,-1,64,-1,-1,66,68,70,72,74,-1,76,-1,-1,-1,78,-1,-1,-1,-1,-1,-1,-1,-1,-1,-1,-1,-1,-1,-1,-1,-1,-1],"split_conditions":[1E1,9E0,-1.4E0,0E0,1.76E-1,-2.21E-2,4.73E1,3.9E-3,1.207E2,1.21E1,8.55E0,2.5E1,2.25E0,3.8E0,-2.5789985E-2,6.57E-1,1.163E2,-4.78E-2,-2.8585924E-2,5.3E0,2.3928532E-2,-2.1730512E-2,6.5E-1,1.1539624E-2,4.6161834E-2,-1.2E0,2.85E-2,3.238E-1,-3.75E-2,-2.585E-2,1.124E2,-4.641874E-2,-1.9298425E-2,-1.7778546E-2,1.85E1,4.018E-1,2.3544135E-3,4.5831893E-2,-4.36131E-3,1.7774487E-2,-1.1E0,4.559613E-2,-1.6788067E-2,-3.269274E-2,3.6695E-1,0E0,7.5E-1,2.2019096E-2,1.2E0,4.702908E-2,-7.923113E-3,-1.25E0,1.0008E2,4.2E0,3.56E-1,4.578E-1,-4.8660748E-2,1.07E1,-3.0476255E-2,4.201907E-2,-1.7302556E-2,1.168E2,4.527719E-2,-3.702395E-2,8.908708E-3,7.7265436E-3,4.4574182E-2,-3.2501213E-2,2.5620181E-2,-4.498049E-2,-1.3761061E-2,2.0506812E-2,-4.01554E-2,-4.4238262E-2,1.1778081E-2,4.5962248E-2,2.2785088E-2,3.7762225E-2,-6.480933E-4],"split_indices":[179,178,102,134,97,75,27,64,15,66,137,9,134,141,0,43,47,76,0,68,0,0,139,0,0,36,63,33,64,75,146,0,0,0,96,33,0,0,0,0,69,0,0,0,22,71,177,0,62,0,0,80,161,92,120,23,0,158,0,0,0,135,0,0,0,0,0,0,0,0,0,0,0,0,0,0,0,0,0],"split_type":[0,0,0,0,0,0,0,0,0,0,0,0,0,0,0,0,0,0,0,0,0,0,0,0,0,0,0,0,0,0,0,0,0,0,0,0,0,0,0,0,0,0,0,0,0,0,0,0,0,0,0,0,0,0,0,0,0,0,0,0,0,0,0,0,0,0,0,0,0,0,0,0,0,0,0,0,0,0,0],"sum_hessian":[1.0066165E3,5.7096295E2,4.3565356E2,2.1237761E2,3.5858536E2,1.2843698E2,3.0721658E2,1.0945643E2,1.0292117E2,3.146567E2,4.392863E1,2.9679213E1,9.875777E1,2.9454218E2,1.2674419E1,7.797869E1,3.1477737E1,9.047281E1,1.2448371E1,3.0201807E2,1.2638653E1,1.5277647E1,2.8650986E1,8.530862E0,2.114835E1,7.384987E1,2.4907892E1,5.0888824E1,2.4365334E2,5.2887356E1,2.5091333E1,2.2572905E1,8.904833E0,8.354924E0,8.211788E1,2.8876126E2,1.3256807E1,1.8052414E1,1.0598571E1,1.2918777E1,6.0931095E1,1.6763693E1,8.144198E0,9.27067E0,4.1618156E1,1.8550787E1,2.2510255E2,1.0109375E1,4.277798E1,1.4018897E1,1.1072436E1,6.554351E1,1.6574368E1,2.6162814E2,2.7133116E1,1.7093721E1,4.383737E1,3.3295883E1,8.322274E0,1.0368241E1,8.182546E0,2.8860876E1,1.9624167E2,3.45016E1,8.276382E0,9.2475E0,5.6296013E1,8.233263E0,8.3411045E0,2.3489307E2,2.6735077E1,1.1734579E1,1.5398538E1,8.898259E0,8.195463E0,2.5161026E1,8.134856E0,2.0052778E1,8.808099E0],"tree_param":{"num_deleted":"0","num_feature":"188","num_nodes":"79","size_leaf_vector":"1"}},{"base_weights":[-3.3162774E-3,-5.8779293E-1,7.635654E-1,-1.115807E0,-1.04859576E-1,-1.30401E-1,1.1011224E0,-5.537879E-1,-1.4248127E0,-4.8252228E-1,6.2654775E-1,-6.974721E-1,7.648914E-1,4.149536E-1,1.2772795E0,-8.540784E-1,7.960865E-1,-1.5002034E0,7.3221134E-4,2.2608109E-1,-9.129283E-1,-3.0395167E-2,8.485173E-1,-1.0202324E0,3.892746E-2,1.3250566E0,-3.0903123E-2,-3.5670266E-2,7.246325E-1,1.3862942E0,2.751928E-1,2.4758384E-2,-1.0898048E0,3.968531E-2,2.134776E-3,-2.3131778E-2,-1.5436367E0,7.4508476E-1,-6.198162E-1,-1.1144528E0,2.9046554E-2,1.0132947E0,-1.4430982E-2,2.1148277E-2,-1.4239401E0,1.807038E-2,4.5465115E-2,-2.4224073E-1,1.2888534E0,1.4809718E0,9.5823175E-1,4.279985E-2,-4.549734E-2,-2.4070612E-1,-1.447542E0,-2.4885582E-2,-4.740741E-2,2.639608E-2,4.1428924E-2,-4.6168342E-2,1.3247715E-2,-1.2645956E0,1.8362418E-2,1.2046943E0,-1.1863775E-2,-4.9265124E-2,-1.370803E-2,-4.327972E-2,3.132098E-2,4.4003133E-2,1.645611E-2,2.1522718E-2,4.540774E-2,-6.178673E-3,1.277883E0,2.0348245E-2,-3.2498617E-2,-2.558823E-2,-4.800869E-2,3.2680407E-2,-3.2200873E-2,-4.258742E-2,7.108027E-3,4.034653E-2,7.3546525E-3,4.3384656E-2,2.0048723E-2],"categories":[],"categories_nodes":[],"categories_segments":[],"categories_sizes":[],"default_left":[0,0,0,0,0,0,0,0,0,0,0,0,0,0,0,0,0,0,0,0,0,0,0,0,0,0,0,0,0,0,0,0,0,0,0,0,0,0,0,0,0,0,0,0,0,0,0,0,0,0,0,0,0,0,0,0,0,0,0,0,0,0,0,0,0,0,0,0,0,0,0,0,0,0,0,0,0,0,0,0,0,0,0,0,0,0,0],"id":11,"left_children":[1,3,5,7,9,11,13,15,17,19,21,23,25,27,29,31,33,35,-1,37,39,-1,41,43,-1,45,-1,-1,47,49,51,-1,53,-1,-1,-1,55,57,59,61,-1,63,-1,-1,65,-1,-1,67,69,71,73,-1,-1,75,77,-1,-1,79,-1,-1,-1,81,-1,83,-1,-1,-1,-1,-1,-1,-1,-1,-1,-1,85,-1,-1,-1,-1,-1,-1,-1,-1,-1,-1,-1,-1],"loss_changes":[4.4949963E2,1.4484477E2,1.3118376E2,4.5795624E1,8.3042366E1,6.1783966E1,3.7117523E1,4.1131493E1,1.9236572E1,6.0811474E1,3.8540928E1,4.986641E1,4.9567986E1,3.4375507E1,2.6556519E1,3.372579E1,6.868021E0,3.2302856E0,0E0,3.4067062E1,4.8511993E1,0E0,2.0732643E1,4.6794342E1,0E0,3.4697342E0,0E0,0E0,3.1607275E1,6.7413635E0,5.786092E1,0E0,2.1288017E1,0E0,0E0,0E0,1.838501E0,2.1671904E1,3.0046064E1,3.0373459E1,0E0,2.2788094E1,0E0,0E0,9.881912E0,0E0,0E0,3.6517426E1,3.3632698E0,2.661377E0,1.7311604E1,0E0,0E0,1.9208403E1,2.2964096E0,0E0,0E0,2.9887611E1,0E0,0E0,0E0,2.4821823E1,0E0,9.064171E0,0E0,0E0,0E0,0E0,0E0,0E0,0E0,0E0,0E0,0E0,2.0024986E0,0E0,0E0,0E0,0E0,0E0,0E0,0E0,0E0,0E0,0E0,0E0,0E0],"parents":[2147483647,0,0,1,1,2,2,3,3,4,4,5,5,6,6,7,7,8,8,9,9,10,10,11,11,12,12,13,13,14,14,15,15,16,16,17,17,19,19,20,20,22,22,23,23,25,25,28,28,29,29,30,30,32,32,36,36,37,37,38,38,39,39,41,41,44,44,47,47,48,48,49,49,50,50,53,53,54,54,57,57,61,61,63,63,74,74],"right_children":[2,4,6,8,10,12,14,16,18,20,22,24,26,28,30,32,34,36,-1,38,40,-1,42,44,-1,46,-1,-1,48,50,52,-1,54,-1,-1,-1,56,58,60,62,-1,64,-1,-1,66,-1,-1,68,70,72,74,-1,-1,76,78,-1,-1,80,-1,-1,-1,82,-1,84,-1,-1,-1,-1,-1,-1,-1,-1,-1,-1,86,-1,-1,-1,-1,-1,-1,-1,-1,-1,-1,-1,-1],"split_conditions":[1E1,-2.7E0,-1.6E0,1E1,1.24E-1,1.1585E2,5.75E-1,1.198E2,4.7E0,9E0,4.454E-1,1.184E2,1.207E2,4.518E-1,6.5E0,3.5E0,3.384E-1,-1.9E1,7.3221134E-4,3.596E-1,1.21E1,-3.0395167E-2,5.21E-1,-2.2E0,3.892746E-2,2.42E1,-3.0903123E-2,-3.5670266E-2,-1.2E0,7.929E-1,4.8E0,2.4758384E-2,-9E-2,3.968531E-2,2.134776E-3,-2.3131778E-2,3.92E1,4.4E1,4.4E0,5.3E0,2.9046554E-2,6.5E-2,-1.4430982E-2,2.1148277E-2,-3.8E0,1.807038E-2,4.5465115E-2,-1.5E-1,1.164E2,-1.89E-1,4E0,4.279985E-2,-4.549734E-2,4.6415E-1,6.09E-1,-2.4885582E-2,-4.740741E-2,3.38E-2,4.1428924E-2,-4.6168342E-2,1.3247715E-2,2.5E0,1.8362418E-2,1.22E2,-1.1863775E-2,-4.9265124E-2,-1.370803E-2,-4.327972E-2,3.132098E-2,4.4003133E-2,1.645611E-2,2.1522718E-2,4.540774E-2,-6.178673E-3,4.4E1,2.0348245E-2,-3.2498617E-2,-2.558823E-2,-4.800869E-2,3.2680407E-2,-3.2200873E-2,-4.258742E-2,7.108027E-3,4.034653E-2,7.3546525E-3,4.3384656E-2,2.0048723E-2],"split_indices":[179,101,102,178,97,26,164,146,66,178,12,146,15,23,10,10,33,66,0,120,66,0,162,14,0,31,0,0,66,13,89,0,97,0,0,0,38,136,119,68,0,87,0,0,77,0,0,57,26,97,175,0,0,132,152,0,0,65,0,0,0,70,0,37,0,0,0,0,0,0,0,0,0,0,16,0,0,0,0,0,0,0,0,0,0,0,0],"split_type":[0,0,0,0,0,0,0,0,0,0,0,0,0,0,0,0,0,0,0,0,0,0,0,0,0,0,0,0,0,0,0,0,0,0,0,0,0,0,0,0,0,0,0,0,0,0,0,0,0,0,0,0,0,0,0,0,0,0,0,0,0,0,0,0,0,0,0,0,0,0,0,0,0,0,0,0,0,0,0,0,0,0,0,0,0,0,0],"sum_hessian":[9.998822E2,5.6769543E2,4.321867E2,2.7015225E2,2.975432E2,1.1863223E2,3.1355447E2,9.744011E1,1.7271216E2,1.9664998E2,1.0089322E2,7.290066E1,4.5731575E1,6.519753E1,2.4835695E2,8.021962E1,1.7220491E1,1.641871E2,8.525042E0,7.449089E1,1.2215909E2,1.1338312E1,8.95549E1,6.3423107E1,9.477553E0,3.5196274E1,1.0535301E1,9.809208E0,5.538832E1,2.2338095E2,2.4976004E1,9.360185E0,7.0859436E1,9.177016E0,8.043474E0,1.0941204E1,1.5324591E2,4.634978E1,2.8141111E1,1.1093888E2,1.1220208E1,8.0064186E1,9.490715E0,1.1767926E1,5.165518E1,8.752295E0,2.644398E1,2.0661186E1,3.4727135E1,1.7971005E2,4.3670902E1,1.5424819E1,9.551185E0,2.1831238E1,4.9028194E1,9.337054E0,1.4390884E2,2.2565334E1,2.3784447E1,1.4770178E1,1.3370934E1,1.0248576E2,8.453121E0,7.074123E1,9.322963E0,4.1205368E1,1.0449813E1,1.0633154E1,1.0028032E1,2.6702763E1,8.024374E0,8.901527E0,1.7080852E2,9.455208E0,3.4215694E1,1.0525345E1,1.1305893E1,1.217301E1,3.6855186E1,1.1528151E1,1.1037185E1,9.303166E1,9.454096E0,6.1106827E1,9.6344E0,2.5072206E1,9.14349E0],"tree_param":{"num_deleted":"0","num_feature":"188","num_nodes":"87","size_leaf_vector":"1"}},{"base_weights":[7.977175E-3,5.648753E-1,-7.7000266E-1,-2.5584975E-1,9.263317E-1,-9.19907E-1,9.759853E-1,-5.739673E-1,1.1259184E0,1.0364789E0,-4.8112932E-1,-1.1234626E0,1.9690447E-1,4.01921E-2,1.0656236E-3,4.4629434E-1,-9.895078E-1,4.669903E-2,-2.622867E-4,7.642777E-1,1.4162536E0,3.0317402E-2,-1.3337431E0,-8.379626E-1,-1.513421E0,6.9986284E-1,-1.0228527E0,-3.7932053E-2,1.0735879E0,3.2223266E-2,-1.191169E0,9.2313266E-1,-7.454169E-1,1.4494708E0,2.0057071E-2,-4.9988464E-2,-2.1168098E-2,-8.327084E-2,-1.140853E0,-4.6786603E-2,-1.9350277E-2,-2.6992254E-2,1.1003258E0,-4.5485277E-2,-1.16207795E-2,1.3954337E-3,4.303208E-2,7.825959E-3,-1.3700132E0,-2.0695444E-2,1.0657673E0,1.0615648E-2,-4.7277227E-2,2.286793E-2,4.5202546E-2,6.803916E-1,-7.6265275E-1,1.791803E-2,-1.2593995E0,2.932461E-3,4.3132998E-2,-7.338169E-3,-4.473593E-2,8.988528E-3,3.6324684E-2,4.506998E-2,-1.1579516E-2,-3.976299E-2,5.9446944E-3,-1.078374E-2,-4.4135887E-2],"categories":[],"categories_nodes":[],"categories_segments":[],"categories_sizes":[],"default_left":[0,0,0,0,0,0,0,0,0,0,0,0,0,0,0,0,0,0,0,0,0,0,0,0,0,0,0,0,0,0,0,0,0,0,0,0,0,0,0,0,0,0,0,0,0,0,0,0,0,0,0,0,0,0,0,0,0,0,0,0,0,0,0,0,0,0,0,0,0,0,0],"id":12,"left_children":[1,3,5,7,9,11,13,15,17,19,21,23,25,-1,-1,27,29,-1,-1,31,33,-1,35,37,39,41,43,-1,45,-1,47,49,51,53,-1,-1,-1,55,57,-1,-1,-1,59,-1,-1,-1,-1,-1,61,-1,63,-1,-1,-1,-1,65,67,-1,69,-1,-1,-1,-1,-1,-1,-1,-1,-1,-1,-1,-1],"loss_changes":[4.33687E2,1.7351564E2,1.10628784E2,7.981252E1,6.3665558E1,8.803107E1,1.1316441E1,6.3019432E1,1.6810085E1,3.7089325E1,4.0704002E1,3.418567E1,3.8225525E1,0E0,0E0,4.8691536E1,4.5609924E1,0E0,0E0,5.447766E1,2.1921082E0,0E0,2.1822166E0,4.3593124E1,3.7147217E0,2.9603487E1,4.649225E0,0E0,1.1862041E1,0E0,2.5673431E1,4.7683044E1,2.1024834E1,3.8485718E0,0E0,0E0,0E0,3.0184067E1,2.9361694E1,0E0,0E0,0E0,1.174918E1,0E0,0E0,0E0,0E0,0E0,1.1022339E1,0E0,2.0032532E1,0E0,0E0,0E0,0E0,2.4997463E1,1.7140676E1,0E0,2.351828E1,0E0,0E0,0E0,0E0,0E0,0E0,0E0,0E0,0E0,0E0,0E0,0E0],"parents":[2147483647,0,0,1,1,2,2,3,3,4,4,5,5,6,6,7,7,8,8,9,9,10,10,11,11,12,12,15,15,16,16,19,19,20,20,22,22,23,23,24,24,25,25,26,26,28,28,30,30,31,31,32,32,33,33,37,37,38,38,42,42,48,48,50,50,55,55,56,56,58,58],"right_children":[2,4,6,8,10,12,14,16,18,20,22,24,26,-1,-1,28,30,-1,-1,32,34,-1,36,38,40,42,44,-1,46,-1,48,50,52,54,-1,-1,-1,56,58,-1,-1,-1,60,-1,-1,-1,-1,-1,62,-1,64,-1,-1,-1,-1,66,68,-1,70,-1,-1,-1,-1,-1,-1,-1,-1,-1,-1,-1,-1],"split_conditions":[9E0,-2.6E0,4E0,2.25E0,4.104E-1,4.6E0,3E0,4.2E0,-8E-3,4.794E-1,7.516E-1,1.6E1,5.8E0,4.01921E-2,1.0656236E-3,-3.3E0,-3.025E-2,4.669903E-2,-2.622867E-4,1.1E0,3.834E-1,3.0317402E-2,7.7E-1,4.3E1,6.095E-2,4.493E-1,1.105E1,-3.7932053E-2,6.56E-1,3.2223266E-2,7E0,5.92E-1,-7.45E-3,7.334E-1,2.0057071E-2,-4.9988464E-2,-2.1168098E-2,-1.85E0,1.14E1,-4.6786603E-2,-1.9350277E-2,-2.6992254E-2,4.92E-1,-4.5485277E-2,-1.16207795E-2,1.3954337E-3,4.303208E-2,7.825959E-3,4.92E-1,-2.0695444E-2,1.14E1,1.0615648E-2,-4.7277227E-2,2.286793E-2,4.5202546E-2,3.463E-1,-1E0,1.791803E-2,-5E-2,2.932461E-3,4.3132998E-2,-7.338169E-3,-4.473593E-2,8.988528E-3,3.6324684E-2,4.506998E-2,-1.1579516E-2,-3.976299E-2,5.9446944E-3,-1.078374E-2,-4.4135887E-2],"split_indices":[178,101,171,134,142,101,184,32,104,143,35,178,89,0,0,68,75,0,0,98,22,0,144,16,76,121,77,0,43,0,17,43,76,144,0,0,0,25,18,0,0,0,53,0,0,0,0,0,53,0,149,0,0,0,0,131,66,0,85,0,0,0,0,0,0,0,0,0,0,0,0],"split_type":[0,0,0,0,0,0,0,0,0,0,0,0,0,0,0,0,0,0,0,0,0,0,0,0,0,0,0,0,0,0,0,0,0,0,0,0,0,0,0,0,0,0,0,0,0,0,0,0,0,0,0,0,0,0,0,0,0,0,0,0,0,0,0,0,0,0,0,0,0,0,0],"sum_hessian":[9.9803735E2,5.819802E2,4.160571E2,1.7799202E2,4.039882E2,3.8386667E2,3.2190456E1,1.4545415E2,3.2537884E1,3.7509952E2,2.888868E1,3.247557E2,5.911096E1,2.2676517E1,9.513938E0,4.1994617E1,1.03459526E2,2.324457E1,9.293316E0,2.2128021E2,1.538193E2,1.0362879E1,1.8525799E1,1.9036424E2,1.3439145E2,4.2363846E1,1.6747112E1,1.0815825E1,3.1178791E1,8.588394E0,9.487113E1,2.0080037E2,2.0479837E1,1.458002E2,8.019098E0,1.0388049E1,8.137751E0,5.5162373E1,1.3520187E2,1.2636939E2,8.022059E0,8.057845E0,3.4306E1,8.16931E0,8.577802E0,8.617958E0,2.2560833E1,1.0266936E1,8.4604195E1,1.5789484E1,1.850109E2,9.132351E0,1.1347486E1,1.3003398E1,1.327968E2,2.589997E1,2.9262403E1,8.191898E0,1.2700998E2,9.2006445E0,2.5105356E1,8.74496E0,7.585924E1,3.0293793E1,1.547171E2,1.4332954E1,1.1567014E1,1.8160175E1,1.1102229E1,2.5057318E1,1.0195266E2],"tree_param":{"num_deleted":"0","num_feature":"188","num_nodes":"71","size_leaf_vector":"1"}},{"base_weights":[-1.1766837E-2,-5.7509124E-1,7.322384E-1,-1.0917498E0,-1.0209886E-1,1.8231419E-1,1.2012765E0,-1.383058E0,-6.529319E-1,-4.5557046E-1,5.860872E-1,-1.3275882E0,4.5841625E-1,2.6253834E-1,1.3507229E0,-1.458513E0,-1.7780779E-2,-9.057042E-1,6.9160074E-1,8.500981E-1,-7.1315396E-1,-2.7094215E-2,7.9076886E-1,-2.0868551E-2,-4.6111606E-2,-2.303374E-1,9.9374455E-1,3.8234986E-2,-3.8916465E-2,4.4031583E-2,1.0189681E0,-1.8858919E-2,-4.5105163E-2,2.326469E-2,-1.0838223E0,3.8380902E-2,9.468633E-4,-2.0541236E-2,4.520714E-2,-1.1619486E0,-9.0377286E-2,-1.3462301E-2,9.893453E-1,-9.875361E-1,3.9979208E-1,1.4486135E0,-9.794095E-2,2.5793286E-3,4.0582832E-2,-1.2297593E0,-8.329433E-3,-1.4689682E0,-2.2489549E-1,1.1969887E0,-9.3510365E-1,-7.000618E-3,1.2381346E0,1.23885255E-2,-4.6314072E-2,-2.4864262E-2,7.679603E-1,4.5866836E-2,2.1206418E-2,3.81157E-2,-1.1121622E0,-1.27256755E-2,-4.2659983E-2,-3.1677987E-2,-4.8119694E-2,2.6427459E-2,-4.1828007E-2,1.4513688E-2,4.5621682E-2,-4.612073E-2,-2.9786532E-3,1.5450461E-2,4.4171073E-2,-2.1146983E-3,3.6854472E-2,-4.434763E-2,-1.6648231E-2],"categories":[],"categories_nodes":[],"categories_segments":[],"categories_sizes":[],"default_left":[0,0,0,0,0,0,0,0,0,0,0,0,0,0,0,0,0,0,0,0,0,0,0,0,0,0,0,0,0,0,0,0,0,0,0,0,0,0,0,0,0,0,0,0,0,0,0,0,0,0,0,0,0,0,0,0,0,0,0,0,0,0,0,0,0,0,0,0,0,0,0,0,0,0,0,0,0,0,0,0,0],"id":13,"left_children":[1,3,5,7,9,11,13,15,17,19,21,23,25,27,29,31,-1,33,35,37,39,-1,41,-1,-1,43,45,-1,-1,-1,47,-1,-1,-1,49,-1,-1,-1,-1,51,53,-1,55,57,59,61,63,-1,-1,65,-1,67,69,71,73,-1,75,-1,-1,-1,77,-1,-1,-1,79,-1,-1,-1,-1,-1,-1,-1,-1,-1,-1,-1,-1,-1,-1,-1,-1],"loss_changes":[4.167914E2,1.3803642E2,1.1004736E2,3.2990784E1,7.2696304E1,8.3823746E1,3.1695374E1,8.09729E0,3.86215E1,6.726031E1,3.197757E1,2.2906952E0,6.2909534E1,5.5607105E1,5.220642E0,3.8125916E0,0E0,2.9436348E1,6.916978E0,3.5031967E1,4.602796E1,0E0,2.2880379E1,0E0,0E0,3.655812E1,4.788324E1,0E0,0E0,0E0,1.741269E1,0E0,0E0,0E0,9.415466E0,0E0,0E0,0E0,0E0,2.6975845E1,7.898812E1,0E0,2.4302994E1,2.8091171E1,1.9978298E1,2.1885223E0,4.3040928E1,0E0,0E0,1.005928E1,0E0,1.2096405E0,3.494803E1,5.3423805E0,2.1669426E1,0E0,9.7129135E0,0E0,0E0,0E0,1.3069355E1,0E0,0E0,0E0,2.193596E0,0E0,0E0,0E0,0E0,0E0,0E0,0E0,0E0,0E0,0E0,0E0,0E0,0E0,0E0,0E0,0E0],"parents":[2147483647,0,0,1,1,2,2,3,3,4,4,5,5,6,6,7,7,8,8,9,9,10,10,11,11,12,12,13,13,14,14,15,15,17,17,18,18,19,19,20,20,22,22,25,25,26,26,30,30,34,34,39,39,40,40,42,42,43,43,44,44,45,45,46,46,49,49,51,51,52,52,53,53,54,54,56,56,60,60,64,64],"right_children":[2,4,6,8,10,12,14,16,18,20,22,24,26,28,30,32,-1,34,36,38,40,-1,42,-1,-1,44,46,-1,-1,-1,48,-1,-1,-1,50,-1,-1,-1,-1,52,54,-1,56,58,60,62,64,-1,-1,66,-1,68,70,72,74,-1,76,-1,-1,-1,78,-1,-1,-1,80,-1,-1,-1,-1,-1,-1,-1,-1,-1,-1,-1,-1,-1,-1,-1,-1],"split_conditions":[1E1,-2.7E0,2.4E0,-2E0,1.24E-1,2.39E1,-6E-3,4.004E-1,1.202E2,-7.45E0,4.454E-1,1.405E1,4.713E-1,3.67E-1,1.174E2,3.5E0,-1.7780779E-2,3.5E0,1.2E1,-3.8E0,4.57E1,-2.7094215E-2,3.3575E-1,-2.0868551E-2,-4.6111606E-2,-4.7E0,1.46E1,3.8234986E-2,-3.8916465E-2,4.4031583E-2,1.182E2,-1.8858919E-2,-4.5105163E-2,2.326469E-2,3.9E-2,3.8380902E-2,9.468633E-4,-2.0541236E-2,4.520714E-2,1E0,5.75E-1,-1.3462301E-2,-2.5E0,1.2E0,-5.1E0,1.11E1,6.7E0,2.5793286E-3,4.0582832E-2,-1.3E0,-8.329433E-3,-5E-1,9.6E0,4.74E1,-9.5E-1,-7.000618E-3,-5E-2,1.23885255E-2,-4.6314072E-2,-2.4864262E-2,-6.7E-1,4.5866836E-2,2.1206418E-2,3.81157E-2,1.32E1,-1.27256755E-2,-4.2659983E-2,-3.1677987E-2,-4.8119694E-2,2.6427459E-2,-4.1828007E-2,1.4513688E-2,4.5621682E-2,-4.612073E-2,-2.9786532E-3,1.5450461E-2,4.4171073E-2,-2.1146983E-3,3.6854472E-2,-4.434763E-2,-1.6648231E-2],"split_indices":[179,101,101,171,97,9,99,33,146,59,12,138,23,142,135,10,0,10,18,83,125,0,131,0,0,101,40,0,0,0,124,0,0,0,87,0,0,0,0,84,55,0,70,14,25,14,59,0,0,69,0,73,126,147,80,0,166,0,0,0,103,0,0,0,138,0,0,0,0,0,0,0,0,0,0,0,0,0,0,0,0],"split_type":[0,0,0,0,0,0,0,0,0,0,0,0,0,0,0,0,0,0,0,0,0,0,0,0,0,0,0,0,0,0,0,0,0,0,0,0,0,0,0,0,0,0,0,0,0,0,0,0,0,0,0,0,0,0,0,0,0,0,0,0,0,0,0,0,0,0,0,0,0,0,0,0,0,0,0,0,0,0,0,0,0],"sum_hessian":[9.914832E2,5.6452637E2,4.2695685E2,2.6877008E2,2.957563E2,1.9758932E2,2.2936752E2,1.5945844E2,1.09311646E2,1.958266E2,9.992969E1,2.9606638E1,1.6798268E2,3.2160084E1,1.9720743E2,1.442888E2,1.5169631E1,9.248787E1,1.6823782E1,3.163465E1,1.6419196E2,1.1397353E1,8.853234E1,9.1025305E0,2.0504107E1,7.375599E1,9.422669E1,1.9710464E1,1.244962E1,1.4177243E2,5.5434998E1,8.689633E0,1.3559917E2,8.324427E0,8.416344E1,8.07449E0,8.749292E0,9.415895E0,2.2218754E1,9.4577156E1,6.96148E1,1.1894391E1,7.663795E1,3.3185883E1,4.0570103E1,6.623144E1,2.7995256E1,1.5182919E1,4.025208E1,7.049073E1,1.3672707E1,7.051513E1,2.4062027E1,2.7286371E1,4.232843E1,1.29052E1,6.3732746E1,9.492848E0,2.3693037E1,8.858929E0,3.1711174E1,5.8204967E1,8.026469E0,1.1713224E1,1.6282032E1,1.46077795E1,5.5882954E1,2.0814455E1,4.9700672E1,1.2513341E1,1.1548685E1,9.783477E0,1.7502893E1,2.3800266E1,1.8528162E1,1.68718E1,4.6860947E1,1.1615911E1,2.0095264E1,8.221633E0,8.060399E0],"tree_param":{"num_deleted":"0","num_feature":"188","num_nodes":"81","size_leaf_vector":"1"}},{"base_weights":[-5.3563924E-3,-5.4751915E-1,7.188853E-1,-1.0519792E0,-9.917988E-2,-2.0572229E-1,1.0207621E0,-5.5138814E-1,-1.3396839E0,1.15076356E-1,-1.1737816E0,4.329537E-2,-4.726254E-1,-2.3920875E-2,1.1326447E0,-9.355201E-1,2.3968373E-1,-1.401645E0,-4.124958E-3,3.1398085E-1,-8.777344E-1,-4.3795828E-2,4.7133225E-3,7.802128E-1,-7.979624E-1,4.117489E-2,-4.1636493E-2,4.7417536E-1,1.2762561E0,-2.484456E-1,-1.4059227E0,9.483042E-1,-1.658409E-2,-1.6816428E-2,-1.4480479E0,-3.633844E-2,9.206987E-1,-1.4033792E0,1.6794702E-2,-1.7088582E-3,4.1851297E-2,-1.0566891E0,3.00032E-2,-2.7156385E-2,1.0314922E0,2.4539807E-1,1.3495184E0,3.885603E-2,-9.277784E-1,-4.6569873E-2,-2.4477065E-2,4.543979E-2,6.8291575E-3,-1.4971145E0,-1.934417E-2,3.8289323E-1,-7.2519165E-1,1.3335061E0,2.2239065E-1,-2.189328E-2,-4.785664E-2,-1.301014E0,1.5591621E-2,1.2906414E0,1.8428797E-3,-1.1436742E-2,2.5325364E-2,1.4911383E-2,1.3986139E0,-4.042668E-2,-5.6601893E-3,-2.5989048E-2,-4.62452E-2,2.5282525E-2,-2.3143578E-2,-3.6336757E-2,1.0348085E-2,4.5445994E-2,1.6038474E-2,4.059045E-2,-1.5367375E-2,-1.3041697E-2,-4.461874E-2,2.3283273E-2,4.259042E-2,2.5715409E-2,4.3466844E-2],"categories":[],"categories_nodes":[],"categories_segments":[],"categories_sizes":[],"default_left":[0,0,0,0,0,0,0,0,0,0,0,0,0,0,0,0,0,0,0,0,0,0,0,0,0,0,0,0,0,0,0,0,0,0,0,0,0,0,0,0,0,0,0,0,0,0,0,0,0,0,0,0,0,0,0,0,0,0,0,0,0,0,0,0,0,0,0,0,0,0,0,0,0,0,0,0,0,0,0,0,0,0,0,0,0,0,0],"id":14,"left_children":[1,3,5,7,9,11,13,15,17,19,21,-1,23,25,27,29,31,33,-1,35,37,-1,-1,39,41,-1,-1,43,45,47,49,51,-1,-1,53,55,57,59,-1,-1,-1,61,-1,-1,63,65,67,-1,69,-1,-1,-1,-1,71,-1,73,75,77,79,-1,-1,81,-1,83,-1,-1,-1,-1,85,-1,-1,-1,-1,-1,-1,-1,-1,-1,-1,-1,-1,-1,-1,-1,-1,-1,-1],"loss_changes":[3.876036E2,1.27428894E2,1.18336716E2,3.6929626E1,6.954202E1,4.7210648E1,3.7422516E1,3.065599E1,1.2024597E1,5.0121014E1,1.9587242E1,0E0,3.831185E1,6.424557E1,2.6165527E1,2.109439E1,1.9721367E1,4.7844543E0,0E0,4.5013283E1,3.3280983E1,0E0,0E0,1.0340853E1,3.583055E1,0E0,0E0,4.300595E1,1.7132812E1,3.2491104E1,1.284111E0,6.8115215E0,0E0,0E0,4.2323E0,3.9490818E1,2.1724304E1,2.092598E0,0E0,0E0,0E0,2.617389E1,0E0,0E0,9.622372E0,7.1151423E0,7.9539185E0,0E0,6.062668E0,0E0,0E0,0E0,0E0,1.6680603E0,0E0,4.6066643E1,2.7631765E1,5.575653E0,2.6592226E1,0E0,0E0,8.0142975E0,0E0,1.7585373E-1,0E0,0E0,0E0,0E0,3.5308838E0,0E0,0E0,0E0,0E0,0E0,0E0,0E0,0E0,0E0,0E0,0E0,0E0,0E0,0E0,0E0,0E0,0E0,0E0],"parents":[2147483647,0,0,1,1,2,2,3,3,4,4,5,5,6,6,7,7,8,8,9,9,10,10,12,12,13,13,14,14,15,15,16,16,17,17,19,19,20,20,23,23,24,24,27,27,28,28,29,29,30,30,31,31,34,34,35,35,36,36,37,37,41,41,44,44,45,45,46,46,48,48,53,53,55,55,56,56,57,57,58,58,61,61,63,63,68,68],"right_children":[2,4,6,8,10,12,14,16,18,20,22,-1,24,26,28,30,32,34,-1,36,38,-1,-1,40,42,-1,-1,44,46,48,50,52,-1,-1,54,56,58,60,-1,-1,-1,62,-1,-1,64,66,68,-1,70,-1,-1,-1,-1,72,-1,74,76,78,80,-1,-1,82,-1,84,-1,-1,-1,-1,86,-1,-1,-1,-1,-1,-1,-1,-1,-1,-1,-1,-1,-1,-1,-1,-1,-1,-1],"split_conditions":[1E1,-2.7E0,-3.8E0,1E1,1.7E1,7.501E-1,-1.5E-2,-5.3E0,4.4E0,2E0,3.2E0,4.329537E-2,-2.2E0,-1.2E-2,1.2E1,-9E-2,-6.3E-3,4.386E-1,-4.124958E-3,1.24E-1,1E0,-4.3795828E-2,4.7133225E-3,7.412E-1,4.9E-1,4.117489E-2,-4.1636493E-2,-6E0,4.418E-1,-4.56E-2,4.7555E-1,4.683E-1,-1.658409E-2,-1.6816428E-2,4.973E-1,-3E-1,1E-2,-9.7E-3,1.6794702E-2,-1.7088582E-3,4.1851297E-2,-2.8E0,3.00032E-2,-2.7156385E-2,7.843E-1,-1.8E0,1.17E1,3.885603E-2,1.47E0,-4.6569873E-2,-2.4477065E-2,4.543979E-2,6.8291575E-3,3.072E-1,-1.934417E-2,6.2E0,5.4E0,2.67E1,4.1E0,-2.189328E-2,-4.785664E-2,-6.8E0,1.5591621E-2,4.542E-1,1.8428797E-3,-1.1436742E-2,2.5325364E-2,1.4911383E-2,4.35E-1,-4.042668E-2,-5.6601893E-3,-2.5989048E-2,-4.62452E-2,2.5282525E-2,-2.3143578E-2,-3.6336757E-2,1.0348085E-2,4.5445994E-2,1.6038474E-2,4.059045E-2,-1.5367375E-2,-1.3041697E-2,-4.461874E-2,2.3283273E-2,4.259042E-2,2.5715409E-2,4.3466844E-2],"split_indices":[179,101,77,178,178,13,106,100,66,80,83,0,14,85,179,95,63,121,0,97,70,0,0,144,143,0,0,154,121,85,23,121,0,0,12,96,95,65,0,0,0,101,0,0,133,123,127,0,103,0,0,0,0,33,0,123,141,129,10,0,0,78,0,143,0,0,0,0,34,0,0,0,0,0,0,0,0,0,0,0,0,0,0,0,0,0,0],"split_type":[0,0,0,0,0,0,0,0,0,0,0,0,0,0,0,0,0,0,0,0,0,0,0,0,0,0,0,0,0,0,0,0,0,0,0,0,0,0,0,0,0,0,0,0,0,0,0,0,0,0,0,0,0,0,0,0,0,0,0,0,0,0,0,0,0,0,0,0,0,0,0,0,0,0,0,0,0,0,0,0,0,0,0,0,0,0,0],"sum_hessian":[9.841706E2,5.631238E2,4.210468E2,2.6392236E2,2.9920145E2,1.0366906E2,3.1737775E2,9.80474E1,1.6587497E2,2.5050214E2,4.8699303E1,1.3469632E1,9.019943E1,3.072975E1,2.86648E2,6.589995E1,3.2147453E1,1.5742897E2,8.446E0,2.0963016E2,4.087197E1,4.0025486E1,8.673818E0,1.809869E1,7.210074E1,1.514336E1,1.55863905E1,5.260394E1,2.3404405E2,2.7799923E1,3.810002E1,1.6882677E1,1.5264778E1,9.369673E0,1.480593E2,1.3368544E2,7.594472E1,3.000561E1,1.0866363E1,8.171064E0,9.927625E0,6.3620407E1,8.480334E0,1.4816515E1,3.7787426E1,1.605316E1,2.179909E2,8.034982E0,1.9764942E1,2.842961E1,9.670413E0,8.450345E0,8.432331E0,1.3819716E2,9.862141E0,8.343096E1,5.025448E1,4.678183E1,2.916289E1,8.364212E0,2.1641397E1,5.5364975E1,8.255432E0,2.9348322E1,8.439103E0,8.028912E0,8.024248E0,1.2890413E1,2.0510048E2,1.1731728E1,8.033215E0,1.1257165E1,1.26939995E2,6.0014477E1,2.3416485E1,3.4486828E1,1.5767651E1,3.6928905E1,9.852924E0,1.1042185E1,1.8120705E1,1.0778153E1,4.458682E1,8.149533E0,2.119879E1,1.9897833E1,1.8520265E2],"tree_param":{"num_deleted":"0","num_feature":"188","num_nodes":"87","size_leaf_vector":"1"}},{"base_weights":[1.0702116E-2,5.376735E-1,-7.156561E-1,-2.1457285E-1,8.5664713E-1,-8.5174155E-1,8.60832E-1,1.1693509E0,-4.9560007E-1,9.423035E-1,-7.7943325E-1,-1.0290036E0,3.5396025E-1,3.744631E-2,-3.91737E-3,1.5711453E-2,4.1389063E-2,-8.2294637E-1,6.676841E-1,2.3306546E-1,1.1495472E0,6.5029603E-3,-4.5330312E-2,-6.319381E-1,-1.3592894E0,7.750423E-1,-3.454484E-2,2.7229258E-1,-1.1853344E0,4.190599E-2,-2.9951015E-2,8.440924E-1,-4.2663062E-1,7.3610795E-1,1.3049225E0,-9.2086715E-1,4.0077648E-1,-1.4157846E0,-9.018955E-3,-2.9539499E-3,3.8558777E-2,-3.1976707E-2,3.4576003E-2,2.6620906E-3,-1.3315252E0,1.2208982E0,-6.6983406E-3,-8.820883E-1,2.4177793E-2,9.771277E-1,-7.3462196E-2,1.2969576E-2,1.3493344E0,-1.1912264E-1,-1.1477109E0,1.0637467E0,-1.9283364E-2,-1.780422E-2,-1.4647859E0,-2.186569E-2,-4.461984E-2,4.281603E-2,1.3880826E-2,2.483001E-3,-4.3081738E-2,3.673692E-2,-1.2963649E-2,-2.8543176E-2,2.2878746E-2,2.8976098E-2,4.2337067E-2,-3.125325E-2,1.6867388E-2,-2.9802516E-3,-3.80474E-2,1.4059763E-2,4.1538153E-2,-4.4903994E-2,-2.7675496E-2],"categories":[],"categories_nodes":[],"categories_segments":[],"categories_sizes":[],"default_left":[0,0,0,0,0,0,0,0,0,0,0,0,0,0,0,0,0,0,0,0,0,0,0,0,0,0,0,0,0,0,0,0,0,0,0,0,0,0,0,0,0,0,0,0,0,0,0,0,0,0,0,0,0,0,0,0,0,0,0,0,0,0,0,0,0,0,0,0,0,0,0,0,0,0,0,0,0,0,0],"id":15,"left_children":[1,3,5,7,9,11,13,15,17,19,21,23,25,-1,-1,-1,-1,27,29,31,33,-1,-1,35,37,39,-1,41,43,-1,-1,45,47,49,51,53,55,57,-1,-1,-1,-1,-1,-1,59,61,-1,63,-1,65,67,-1,69,71,73,75,-1,-1,77,-1,-1,-1,-1,-1,-1,-1,-1,-1,-1,-1,-1,-1,-1,-1,-1,-1,-1,-1,-1],"loss_changes":[3.730567E2,1.3589195E2,8.9002625E1,6.6654755E1,5.676831E1,8.13999E1,1.3124548E1,2.6585388E0,5.4857975E1,5.5032654E1,1.5574706E1,4.1789948E1,3.2675568E1,0E0,0E0,0E0,0E0,4.4807304E1,4.090134E1,3.5847122E1,1.7118927E1,0E0,0E0,4.619544E1,9.878235E0,1.7969097E1,0E0,3.584339E1,1.5963028E1,0E0,0E0,1.9009884E1,2.5205156E1,1.6472286E1,7.0925903E0,2.1478004E1,2.484755E1,5.3063354E0,0E0,0E0,0E0,0E0,0E0,0E0,5.2504425E0,4.185646E0,0E0,1.7504608E1,0E0,2.3354023E1,1.6107344E1,0E0,2.4460144E0,1.8666117E1,1.1451736E1,2.973631E0,0E0,0E0,4.3859863E-1,0E0,0E0,0E0,0E0,0E0,0E0,0E0,0E0,0E0,0E0,0E0,0E0,0E0,0E0,0E0,0E0,0E0,0E0,0E0,0E0],"parents":[2147483647,0,0,1,1,2,2,3,3,4,4,5,5,6,6,7,7,8,8,9,9,10,10,11,11,12,12,17,17,18,18,19,19,20,20,23,23,24,24,25,25,27,27,28,28,31,31,32,32,33,33,34,34,35,35,36,36,37,37,44,44,45,45,47,47,49,49,50,50,52,52,53,53,54,54,55,55,58,58],"right_children":[2,4,6,8,10,12,14,16,18,20,22,24,26,-1,-1,-1,-1,28,30,32,34,-1,-1,36,38,40,-1,42,44,-1,-1,46,48,50,52,54,56,58,-1,-1,-1,-1,-1,-1,60,62,-1,64,-1,66,68,-1,70,72,74,76,-1,-1,78,-1,-1,-1,-1,-1,-1,-1,-1,-1,-1,-1,-1,-1,-1,-1,-1,-1,-1,-1,-1],"split_conditions":[9E0,-1.6E0,4E0,-2.69E-2,4.735E1,1.76E-1,3E0,1.2E1,2.25E0,-2.4E0,2.92E-2,1.4E1,4.4E0,3.744631E-2,-3.91737E-3,1.5711453E-2,4.1389063E-2,4.2E0,-2E-1,-1E0,1E1,6.5029603E-3,-4.5330312E-2,4.2E0,5.4E0,5E-1,-3.454484E-2,-1.02E1,6.9E0,4.190599E-2,-2.9951015E-2,1E0,2.91E1,2.5E-1,7.207E-1,-2.72E-2,1.9E0,-3.7E0,-9.018955E-3,-2.9539499E-3,3.8558777E-2,-3.1976707E-2,3.4576003E-2,2.6620906E-3,4.95E-1,-2.35E0,-6.6983406E-3,-2.6E0,2.4177793E-2,2E-1,5E0,1.2969576E-2,-1.25E1,3.33E-1,2.445E1,4.9E1,-1.9283364E-2,-1.780422E-2,1.44E1,-2.186569E-2,-4.461984E-2,4.281603E-2,1.3880826E-2,2.483001E-3,-4.3081738E-2,3.673692E-2,-1.2963649E-2,-2.8543176E-2,2.2878746E-2,2.8976098E-2,4.2337067E-2,-3.125325E-2,1.6867388E-2,-2.9802516E-3,-3.80474E-2,1.4059763E-2,4.1538153E-2,-4.4903994E-2,-2.7675496E-2],"split_indices":[178,102,171,75,27,97,184,173,134,123,65,178,89,0,0,0,0,32,90,83,179,0,0,90,92,102,0,66,17,0,0,98,118,108,133,63,44,98,0,0,0,0,0,0,53,134,0,111,0,57,32,0,96,142,20,147,0,0,88,0,0,0,0,0,0,0,0,0,0,0,0,0,0,0,0,0,0,0,0],"split_type":[0,0,0,0,0,0,0,0,0,0,0,0,0,0,0,0,0,0,0,0,0,0,0,0,0,0,0,0,0,0,0,0,0,0,0,0,0,0,0,0,0,0,0,0,0,0,0,0,0,0,0,0,0,0,0,0,0,0,0,0,0,0,0,0,0,0,0,0,0,0,0,0,0,0,0,0,0,0,0],"sum_hessian":[9.7166223E2,5.6342554E2,4.0823672E2,1.6782222E2,3.9560333E2,3.7649036E2,3.174634E1,2.746635E1,1.4035587E2,3.7658456E2,1.9018744E1,3.284975E2,4.7992874E1,2.2620186E1,9.126154E0,8.151164E0,1.9315187E1,1.0994292E2,3.0412945E1,8.598672E1,2.9059787E2,8.442007E0,1.05767355E1,1.5129059E2,1.7720691E2,3.8123707E1,9.869168E0,2.735758E1,8.258534E1,2.136464E1,9.048306E0,4.4501045E1,4.1485672E1,8.190533E1,2.0869254E2,1.18419044E2,3.2871548E1,1.6765932E2,9.547587E0,1.4431943E1,2.3691763E1,1.0684516E1,1.6673063E1,8.490968E0,7.4094376E1,3.279988E1,1.1701163E1,3.066274E1,1.082293E1,6.2971077E1,1.8934254E1,1.0996034E1,1.976965E2,2.6717758E1,9.170129E1,2.014209E1,1.2729459E1,1.0649734E1,1.5700958E2,1.7101633E1,5.6992737E1,2.4640057E1,8.159824E0,1.1583319E1,1.9079422E1,5.379353E1,9.177546E0,9.193155E0,9.741099E0,3.116382E1,1.6653268E2,1.1074692E1,1.5643065E1,9.823806E0,8.187748E1,8.457957E0,1.1684133E1,1.4558963E2,1.1419948E1],"tree_param":{"num_deleted":"0","num_feature":"188","num_nodes":"79","size_leaf_vector":"1"}},{"base_weights":[-5.2440017E-3,4.998601E-1,-7.155434E-1,-6.475901E-1,7.1695316E-1,-9.2659E-1,3.0354217E-1,2.1648068E-2,-9.0432835E-1,3.1847414E-1,1.0101976E0,-1.0471617E0,6.035881E-1,-8.602552E-1,8.300753E-1,3.107987E-1,-1.2351054E0,4.409211E-3,4.2745985E-2,1.0863615E0,-1.5824243E-2,-1.1524117E0,-2.0967674E-2,3.8180765E-2,-1.7768068E-2,7.0266337E-3,-4.499465E-2,-1.1752397E-2,1.1245242E0,2.7252909E-2,-9.712845E-3,-8.0384975E-3,-1.4038408E0,4.292794E-1,-6.5585834E-1,1.9992599E-1,1.2089119E0,-7.703769E-1,-1.3608367E0,6.38446E-1,-4.256702E-2,1.1501805E-2,4.2047005E-2,-2.0635135E-2,-4.54956E-2,7.5487787E-1,-6.272309E-1,3.427849E-2,-1.068312E0,1.1860889E0,-4.4966277E-2,8.4587187E-1,1.3349631E0,-9.8157513E-1,1.430815E-2,-8.7504275E-3,-1.4160441E0,4.1259274E-2,-1.3005985E-2,-2.657371E-2,2.9077923E-2,-3.5535537E-2,8.278826E-3,2.707599E-4,-4.065046E-2,4.140349E-2,2.1259526E-2,3.5229318E-2,5.765444E-3,1.9665692E-2,4.0966086E-2,-3.7767798E-2,-6.27863E-3,-2.5128072E-2,-4.3210723E-2],"categories":[],"categories_nodes":[],"categories_segments":[],"categories_sizes":[],"default_left":[0,0,0,0,0,0,0,0,0,0,0,0,0,0,0,0,0,0,0,0,0,0,0,0,0,0,0,0,0,0,0,0,0,0,0,0,0,0,0,0,0,0,0,0,0,0,0,0,0,0,0,0,0,0,0,0,0,0,0,0,0,0,0,0,0,0,0,0,0,0,0,0,0,0,0],"id":16,"left_children":[1,3,5,7,9,11,13,-1,15,17,19,21,23,25,27,29,31,33,-1,35,-1,37,39,-1,-1,-1,-1,-1,41,-1,-1,-1,43,45,47,49,51,53,55,57,-1,-1,-1,-1,-1,59,61,-1,63,65,-1,67,69,71,-1,-1,73,-1,-1,-1,-1,-1,-1,-1,-1,-1,-1,-1,-1,-1,-1,-1,-1,-1,-1],"loss_changes":[3.4565146E2,1.4093094E2,8.6607864E1,3.2730774E1,5.4790344E1,6.2279755E1,4.3808823E1,0E0,3.151567E1,7.050573E1,3.2806976E1,3.3170197E1,2.1325836E1,1.6336153E1,1.8306759E1,7.1572E0,9.17308E0,4.5272957E1,0E0,2.7742249E1,0E0,2.0486938E1,2.9383383E1,0E0,0E0,0E0,0E0,0E0,7.1901054E0,0E0,0E0,0E0,2.3483963E0,3.4547905E1,4.8653625E1,5.8719128E1,8.523315E0,2.7718224E1,9.766541E0,1.8039087E1,0E0,0E0,0E0,0E0,0E0,2.7999157E1,1.2616621E1,0E0,1.6268398E1,3.6725044E-1,0E0,1.3065502E1,1.9130859E0,1.832843E1,0E0,0E0,3.477173E-1,0E0,0E0,0E0,0E0,0E0,0E0,0E0,0E0,0E0,0E0,0E0,0E0,0E0,0E0,0E0,0E0,0E0,0E0],"parents":[2147483647,0,0,1,1,2,2,3,3,4,4,5,5,6,6,8,8,9,9,10,10,11,11,12,12,13,13,14,14,15,15,16,16,17,17,19,19,21,21,22,22,28,28,32,32,33,33,34,34,35,35,36,36,37,37,38,38,39,39,45,45,46,46,48,48,49,49,51,51,52,52,53,53,56,56],"right_children":[2,4,6,8,10,12,14,-1,16,18,20,22,24,26,28,30,32,34,-1,36,-1,38,40,-1,-1,-1,-1,-1,42,-1,-1,-1,44,46,48,50,52,54,56,58,-1,-1,-1,-1,-1,60,62,-1,64,66,-1,68,70,72,-1,-1,74,-1,-1,-1,-1,-1,-1,-1,-1,-1,-1,-1,-1,-1,-1,-1,-1,-1,-1],"split_conditions":[9E0,-5.8E0,4.6E0,3.5E0,2.4E0,4E0,4.2E0,2.1648068E-2,-1.42E1,4.8795E-1,3.8575E-1,4.8E0,3E0,1.6E0,-8.15E0,4.6045E-1,5.9E-1,9E0,4.2745985E-2,4.439E-1,-1.5824243E-2,1.3E1,1.9E0,3.8180765E-2,-1.7768068E-2,7.0266337E-3,-4.499465E-2,-1.1752397E-2,2E-1,2.7252909E-2,-9.712845E-3,-8.0384975E-3,-2.8E-1,1.445E1,-7.84E0,3.546E-1,3E0,4E-1,-4.5E0,-1.45E-2,-4.256702E-2,1.1501805E-2,4.2047005E-2,-2.0635135E-2,-4.54956E-2,4.15E0,5.1E0,3.427849E-2,-1.6E0,1.445E1,-4.4966277E-2,3.598E-1,1.15E1,2.5E-1,1.430815E-2,-8.7504275E-3,1.14E1,4.1259274E-2,-1.3005985E-2,-2.657371E-2,2.9077923E-2,-3.5535537E-2,8.278826E-3,2.707599E-4,-4.065046E-2,4.140349E-2,2.1259526E-2,3.5229318E-2,5.765444E-3,1.9665692E-2,4.0966086E-2,-3.7767798E-2,-6.27863E-3,-2.5128072E-2,-4.3210723E-2],"split_indices":[178,101,101,10,101,175,141,0,96,132,22,68,184,100,25,132,43,148,0,121,0,178,44,0,0,0,0,0,71,0,0,0,95,138,59,142,175,33,50,65,0,0,0,0,0,21,119,0,36,29,0,11,138,108,0,0,18,0,0,0,0,0,0,0,0,0,0,0,0,0,0,0,0,0,0],"split_type":[0,0,0,0,0,0,0,0,0,0,0,0,0,0,0,0,0,0,0,0,0,0,0,0,0,0,0,0,0,0,0,0,0,0,0,0,0,0,0,0,0,0,0,0,0,0,0,0,0,0,0,0,0,0,0,0,0,0,0,0,0,0,0,0,0,0,0,0,0,0,0,0,0,0,0],"sum_hessian":[9.603654E2,5.614289E2,3.9893652E2,8.877445E1,4.7265445E2,3.306874E2,6.824913E1,1.3527333E1,7.5247116E1,2.0184491E2,2.7080954E2,3.070333E2,2.3654106E1,2.0904108E1,4.7345024E1,1.605532E1,5.9191795E1,1.5846014E2,4.3384777E1,2.585103E2,1.2299229E1,2.782165E2,2.8816786E1,1.5159391E1,8.494714E0,8.003023E0,1.2901085E1,9.031859E0,3.8313168E1,8.016011E0,8.03931E0,9.457577E0,4.973422E1,9.682879E1,6.163135E1,3.1976906E1,2.265334E2,1.0086289E2,1.773536E2,2.008566E1,8.731125E0,1.1496111E1,2.6817057E1,8.332256E0,4.1401962E1,7.441749E1,2.2411303E1,1.095686E1,5.067449E1,2.0555761E1,1.1421144E1,6.156869E1,1.649647E2,8.659943E1,1.4263466E1,9.259969E0,1.6809364E2,1.1707163E1,8.378498E0,8.003527E0,6.6413956E1,1.3639168E1,8.772135E0,1.0883154E1,3.9791336E1,1.2450505E1,8.105257E0,4.008224E1,2.148645E1,8.693678E0,1.5627103E2,6.292611E1,2.3673317E1,9.091229E0,1.5900241E2],"tree_param":{"num_deleted":"0","num_feature":"188","num_nodes":"75","size_leaf_vector":"1"}},{"base_weights":[1.2139957E-3,5.0332415E-1,-6.9224596E-1,8.9682645E-1,-6.0626548E-2,-8.1792766E-1,8.0098283E-1,-1.8903944E-1,1.0011547E0,-4.2154944E-1,9.4801295E-1,-2.635899E-1,-1.1204727E0,3.8411412E-2,4.125115E-4,3.4333773E-2,-1.0958624E0,5.588616E-1,1.1817597E0,-8.7085165E-2,-1.3465713E0,-2.6055543E-2,1.2849076E0,-6.156392E-1,8.461627E-1,-1.2282546E0,-1.9323951E-1,-1.6096337E-2,-4.4513967E-2,9.415132E-1,-2.3742215E-1,1.2506666E0,-8.863164E-3,-6.639604E-1,5.481795E-1,-4.598697E-2,-1.6358318E-2,4.1951332E-2,1.7974054E-2,1.73429E-2,-8.287358E-1,-1.1617072E-2,4.036336E-2,-6.353443E-1,-1.3710227E0,-2.8514028E-2,2.5334142E-2,1.1613153E0,-3.744759E-3,-3.5497397E-2,3.0519688E-1,1.3189903E0,2.9401716E-3,3.7834287E-2,-9.757564E-1,8.5623974E-1,-2.8876977E-2,-1.0707513E0,1.1243405E-2,-1.2435148E0,1.9417439E-2,-1.9374998E-2,-1.4001726E0,7.0486832E-3,4.0363085E-2,-1.7335664E-2,3.1039258E-2,2.1928396E-2,4.11371E-2,-3.6286622E-2,1.2041447E-2,3.8591817E-2,4.060618E-3,-4.2776644E-2,-1.765541E-2,-4.3101523E-2,-1.947788E-2,-4.2778503E-2,-2.3098113E-2],"categories":[],"categories_nodes":[],"categories_segments":[],"categories_sizes":[],"default_left":[0,0,0,0,0,0,0,0,0,0,0,0,0,0,0,0,0,0,0,0,0,0,0,0,0,0,0,0,0,0,0,0,0,0,0,0,0,0,0,0,0,0,0,0,0,0,0,0,0,0,0,0,0,0,0,0,0,0,0,0,0,0,0,0,0,0,0,0,0,0,0,0,0,0,0,0,0,0,0],"id":17,"left_children":[1,3,5,7,9,11,13,15,17,19,21,23,25,-1,-1,-1,27,29,31,33,35,-1,37,39,41,43,45,-1,-1,47,49,51,-1,53,55,-1,-1,-1,-1,-1,57,-1,-1,59,61,-1,-1,63,-1,-1,65,67,-1,-1,69,71,-1,73,-1,75,-1,-1,77,-1,-1,-1,-1,-1,-1,-1,-1,-1,-1,-1,-1,-1,-1,-1,-1],"loss_changes":[3.317139E2,1.22815E2,7.606033E1,3.7266754E1,8.371135E1,6.1436264E1,1.18274975E1,3.782821E1,2.260028E1,5.207731E1,3.8796658E1,5.257954E1,2.3351837E1,0E0,0E0,0E0,2.6195202E0,2.760514E1,2.1999054E1,4.6756653E1,5.225769E0,0E0,2.5715256E0,2.659732E1,2.089596E1,1.6558258E1,2.2217127E1,0E0,0E0,1.4543446E1,1.6070637E1,1.5473785E1,0E0,4.193136E1,2.9492073E1,0E0,0E0,0E0,0E0,0E0,2.5990482E1,0E0,0E0,3.585976E1,2.0446777E0,0E0,0E0,7.9867783E0,0E0,0E0,1.3982215E1,4.1025085E0,0E0,0E0,1.9613869E1,1.5503567E1,0E0,1.1012863E1,0E0,1.9111061E0,0E0,0E0,7.7456665E-1,0E0,0E0,0E0,0E0,0E0,0E0,0E0,0E0,0E0,0E0,0E0,0E0,0E0,0E0,0E0,0E0],"parents":[2147483647,0,0,1,1,2,2,3,3,4,4,5,5,6,6,7,7,8,8,9,9,10,10,11,11,12,12,16,16,17,17,18,18,19,19,20,20,22,22,23,23,24,24,25,25,26,26,29,29,30,30,31,31,33,33,34,34,40,40,43,43,44,44,47,47,50,50,51,51,54,54,55,55,57,57,59,59,62,62],"right_children":[2,4,6,8,10,12,14,16,18,20,22,24,26,-1,-1,-1,28,30,32,34,36,-1,38,40,42,44,46,-1,-1,48,50,52,-1,54,56,-1,-1,-1,-1,-1,58,-1,-1,60,62,-1,-1,64,-1,-1,66,68,-1,-1,70,72,-1,74,-1,76,-1,-1,78,-1,-1,-1,-1,-1,-1,-1,-1,-1,-1,-1,-1,-1,-1,-1,-1],"split_conditions":[9E0,5E-1,4E0,-1.9E-2,4.862E-1,-3E-1,-6.45E-3,3.2E0,1E1,4.65E1,-2.9E0,5.5E0,3.99E-1,3.8411412E-2,4.125115E-4,3.4333773E-2,2E0,1E-1,1.14E1,1.9E0,4.6445E-1,-2.6055543E-2,4.44E-2,7.414E-1,-7E-1,4.24E1,5.3E0,-1.6096337E-2,-4.4513967E-2,1.67E1,1.155E2,4.2E0,-8.863164E-3,3.038E-1,7.8E0,-4.598697E-2,-1.6358318E-2,4.1951332E-2,1.7974054E-2,1.73429E-2,2E1,-1.1617072E-2,4.036336E-2,5.2E0,3.208E-1,-2.8514028E-2,2.5334142E-2,1E1,-3.744759E-3,-3.5497397E-2,7.25E0,4.434E-1,2.9401716E-3,3.7834287E-2,6.02E-2,-2.8E-3,-2.8876977E-2,0E0,1.1243405E-2,4.36E1,1.9417439E-2,-1.9374998E-2,4.3E0,7.0486832E-3,4.0363085E-2,-1.7335664E-2,3.1039258E-2,2.1928396E-2,4.11371E-2,-3.6286622E-2,1.2041447E-2,3.8591817E-2,4.060618E-3,-4.2776644E-2,-1.765541E-2,-4.3101523E-2,-1.947788E-2,-4.2778503E-2,-2.3098113E-2],"split_indices":[178,98,171,106,143,98,75,90,179,27,134,10,33,0,0,0,165,57,39,44,23,0,86,13,79,16,21,0,0,154,47,50,0,33,98,0,0,0,0,0,96,0,0,130,11,0,0,151,0,0,28,12,0,0,65,86,0,57,0,136,0,0,70,0,0,0,0,0,0,0,0,0,0,0,0,0,0,0,0],"split_type":[0,0,0,0,0,0,0,0,0,0,0,0,0,0,0,0,0,0,0,0,0,0,0,0,0,0,0,0,0,0,0,0,0,0,0,0,0,0,0,0,0,0,0,0,0,0,0,0,0,0,0,0,0,0,0,0,0,0,0,0,0,0,0,0,0,0,0,0,0,0,0,0,0,0,0,0,0,0,0],"sum_hessian":[9.49725E2,5.51186E2,3.9853903E2,3.2423773E2,2.2694823E2,3.6828653E2,3.025252E1,2.8230745E1,2.96007E2,1.6785622E2,5.9091995E1,1.3114099E2,2.3714554E2,1.8139505E1,1.2113013E1,1.1223314E1,1.7007431E1,8.776649E1,2.082405E2,1.2456575E2,4.3290474E1,8.827953E0,5.026404E1,1.0013342E2,3.1007572E1,2.1191736E2,2.5228168E1,8.534695E0,8.472736E0,5.9179825E1,2.8586662E1,1.9924408E2,8.996416E0,6.533006E1,5.9235687E1,3.3910744E1,9.379727E0,4.166543E1,8.598614E0,1.4707219E1,8.54262E1,8.974309E0,2.2033262E1,4.284782E1,1.6906955E2,1.471382E1,1.0514347E1,4.903294E1,1.0146883E1,9.842984E0,1.8743677E1,1.8780858E2,1.143551E1,8.4248905E0,5.6905174E1,4.9797405E1,9.438282E0,7.1330826E1,1.4095378E1,2.9149559E1,1.369826E1,8.008113E0,1.6106143E2,8.7859335E0,4.0247005E1,8.558071E0,1.0185606E1,1.7315754E1,1.7049281E2,4.8864555E1,8.040618E0,3.0363829E1,1.9433577E1,3.9269085E1,3.2061737E1,2.0265907E1,8.883652E0,1.5276077E2,8.300664E0],"tree_param":{"num_deleted":"0","num_feature":"188","num_nodes":"79","size_leaf_vector":"1"}},{"base_weights":[6.7275395E-3,-6.884621E-1,4.9963722E-1,-8.791017E-1,1.724035E-1,-3.5451233E-1,7.717309E-1,-5.531209E-1,-1.3014467E0,7.5854665E-1,-4.7344467E-1,-5.8158296E-1,1.0504069E0,8.750218E-1,-1.6490337E-1,-1.0534687E0,-2.0217599E-1,-1.3598173E0,-8.428982E-3,1.2353919E0,-6.287863E-4,-4.0706754E-2,5.1750094E-1,3.0081438E-2,-7.23844E-1,1.7233074E-2,4.071254E-2,6.0284615E-1,1.2145542E0,-4.1292273E-2,8.228919E-1,-1.2014142E0,1.4508298E-3,9.2943616E-2,-3.747192E-2,-2.2179658E-2,-4.208798E-2,2.1668974E-2,4.2519577E-2,3.712373E-2,-8.805319E-3,-9.7726303E-1,1.6275384E-1,7.264513E-1,-4.3451846E-1,1.2850711E0,-4.7107753E-3,4.0227868E-2,-2.065107E-3,-1.3024375E0,-1.746798E-2,4.57163E-1,-5.414985E-1,-1.3410562E0,-4.8829383E-1,3.2177642E-2,-2.9678078E-2,2.4416201E-1,9.451214E-1,-3.4579083E-2,1.9584682E-2,1.335777E0,1.8557606E-2,-4.1185416E-2,-2.3671316E-2,2.407054E-2,-2.5179472E-2,-2.9697428E-2,7.748064E-3,-4.533212E-2,-2.0078005E-2,-3.5173748E-2,2.6904238E-2,2.2200828E-2,-2.56718E-2,3.34031E-2,5.1693567E-3,4.101077E-2,2.0104267E-2],"categories":[],"categories_nodes":[],"categories_segments":[],"categories_sizes":[],"default_left":[0,0,0,0,0,0,0,0,0,0,0,0,0,0,0,0,0,0,0,0,0,0,0,0,0,0,0,0,0,0,0,0,0,0,0,0,0,0,0,0,0,0,0,0,0,0,0,0,0,0,0,0,0,0,0,0,0,0,0,0,0,0,0,0,0,0,0,0,0,0,0,0,0,0,0,0,0,0,0],"id":18,"left_children":[1,3,5,7,9,11,13,15,17,19,21,23,25,27,29,31,33,35,-1,37,-1,-1,39,-1,41,-1,-1,43,45,-1,47,49,-1,51,-1,-1,-1,-1,-1,-1,-1,53,55,57,59,61,-1,-1,-1,63,-1,65,67,69,71,-1,-1,73,75,-1,-1,77,-1,-1,-1,-1,-1,-1,-1,-1,-1,-1,-1,-1,-1,-1,-1,-1,-1],"loss_changes":[3.2782953E2,6.542787E1,1.3057732E2,4.3513367E1,2.8243454E1,4.4321705E1,4.1422928E1,3.2269352E1,7.6282196E0,1.4650719E1,3.2325554E1,2.7719753E1,1.4729385E0,3.414102E1,5.3689842E1,1.2645233E1,3.4730896E1,1.770874E0,0E0,5.18013E-1,0E0,0E0,1.104635E1,0E0,2.4914806E1,0E0,0E0,2.818499E1,1.6751648E1,0E0,1.1721819E1,2.8918228E0,0E0,2.0762897E1,0E0,0E0,0E0,0E0,0E0,0E0,0E0,1.4032112E1,2.8360966E1,1.9947456E1,1.9792112E1,4.001892E0,0E0,0E0,0E0,2.0572662E-1,0E0,2.6515049E1,1.2213883E1,3.7485275E0,3.8489388E1,0E0,0E0,3.5050526E1,1.6819633E1,0E0,0E0,1.5019226E0,0E0,0E0,0E0,0E0,0E0,0E0,0E0,0E0,0E0,0E0,0E0,0E0,0E0,0E0,0E0,0E0,0E0],"parents":[2147483647,0,0,1,1,2,2,3,3,4,4,5,5,6,6,7,7,8,8,9,9,10,10,11,11,12,12,13,13,14,14,15,15,16,16,17,17,19,19,22,22,24,24,27,27,28,28,30,30,31,31,33,33,41,41,42,42,43,43,44,44,45,45,49,49,51,51,52,52,53,53,54,54,57,57,58,58,61,61],"right_children":[2,4,6,8,10,12,14,16,18,20,22,24,26,28,30,32,34,36,-1,38,-1,-1,40,-1,42,-1,-1,44,46,-1,48,50,-1,52,-1,-1,-1,-1,-1,-1,-1,54,56,58,60,62,-1,-1,-1,64,-1,66,68,70,72,-1,-1,74,76,-1,-1,78,-1,-1,-1,-1,-1,-1,-1,-1,-1,-1,-1,-1,-1,-1,-1,-1,-1],"split_conditions":[-2.5E-1,1.39E-1,-4.5E0,0E0,7.582E-1,1.184E2,4.67E1,4.94E-1,5E0,4.4E1,2.2E0,-1.6E1,-3.7E0,8E0,6.8E0,1.6E1,1.1E1,-3.4E0,-8.428982E-3,-2E-1,-6.287863E-4,-4.0706754E-2,7.05E0,3.0081438E-2,4.8485E-1,1.7233074E-2,4.071254E-2,3.827E-1,3.02E1,-4.1292273E-2,4.6015E-1,9.65E0,1.4508298E-3,8.8E0,-3.747192E-2,-2.2179658E-2,-4.208798E-2,2.1668974E-2,4.2519577E-2,3.712373E-2,-8.805319E-3,1.4E1,2.12E0,-1.8E0,9.1E0,1.5E1,-4.7107753E-3,4.0227868E-2,-2.065107E-3,8E-1,-1.746798E-2,3.754E-1,8.077E-1,1.186E2,6.57E-1,3.2177642E-2,-2.9678078E-2,3E0,3.799E-1,-3.4579083E-2,1.9584682E-2,4.988E-1,1.8557606E-2,-4.1185416E-2,-2.3671316E-2,2.407054E-2,-2.5179472E-2,-2.9697428E-2,7.748064E-3,-4.533212E-2,-2.0078005E-2,-3.5173748E-2,2.6904238E-2,2.2200828E-2,-2.56718E-2,3.34031E-2,5.1693567E-3,4.101077E-2,2.0104267E-2],"split_indices":[177,97,77,184,144,146,27,162,68,16,100,145,96,0,145,40,0,98,0,100,0,0,77,0,23,0,0,22,118,0,23,28,0,39,0,0,0,0,0,0,0,40,103,123,126,138,0,0,0,159,0,142,13,37,43,0,0,89,120,0,0,34,0,0,0,0,0,0,0,0,0,0,0,0,0,0,0,0,0],"split_type":[0,0,0,0,0,0,0,0,0,0,0,0,0,0,0,0,0,0,0,0,0,0,0,0,0,0,0,0,0,0,0,0,0,0,0,0,0,0,0,0,0,0,0,0,0,0,0,0,0,0,0,0,0,0,0,0,0,0,0,0,0,0,0,0,0,0,0,0,0,0,0,0,0,0,0,0,0,0,0],"sum_hessian":[9.5375305E2,3.953548E2,5.5839825E2,3.2374542E2,7.1609375E1,1.3470712E2,4.236911E2,1.8480649E2,1.3893893E2,3.7483818E1,3.4125557E1,1.16782364E2,1.7924763E1,3.8179285E2,4.1898247E1,7.483103E1,1.09975464E2,1.3085724E2,8.0817E0,2.279222E1,1.4691597E1,1.7801847E1,1.6323711E1,8.816901E0,1.0796546E2,8.840231E0,9.084531E0,2.1439082E2,1.6740202E2,1.8598621E1,2.3299625E1,6.59332E1,8.897835E0,8.67826E1,2.3192862E1,1.0421189E1,1.2043605E2,8.061449E0,1.4730771E1,8.294784E0,8.028929E0,8.39338E1,2.4031662E1,1.9205309E2,2.2337734E1,1.5937558E2,8.026454E0,1.4330852E1,8.968773E0,5.512227E1,1.0810926E1,5.549874E1,3.1283863E1,4.651109E1,3.742271E1,1.3533517E1,1.0498144E1,6.1045643E1,1.3100745E2,1.3454084E1,8.88365E0,1.4656834E2,1.2807224E1,4.6094704E1,9.027564E0,4.434159E1,1.1157149E1,1.9896591E1,1.1387271E1,3.550321E1,1.1007881E1,2.5252056E1,1.2170654E1,4.247722E1,1.8568424E1,1.0692828E2,2.4079166E1,1.3834294E2,8.225414E0],"tree_param":{"num_deleted":"0","num_feature":"188","num_nodes":"79","size_leaf_vector":"1"}},{"base_weights":[-2.521405E-3,-5.084743E-1,6.6795915E-1,-3.1053644E-1,-1.2273035E0,1.2916611E-1,1.0349791E0,1.477135E-1,-5.629171E-1,-1.346959E0,-1.1561943E-3,-1.1188811E0,3.7452868E-1,1.132156E0,-1.0647434E-2,-6.3968986E-1,6.0972303E-1,-2.417436E-1,-1.0324378E0,-1.974546E-2,-4.202019E-2,-4.258791E-2,-1.1316583E-2,7.4786353E-1,-5.249085E-1,1.1962601E0,-1.1895522E-2,1.7925497E-2,-9.71284E-1,-3.1390365E-2,7.8545535E-1,-6.603711E-1,5.0605685E-1,-1.1579124E0,9.685644E-3,1.0986321E0,-6.351109E-1,2.7970115E-2,-1.0175371E0,9.151632E-3,1.2594686E0,-1.2756785E0,9.831902E-3,1.0835681E0,-2.573035E-1,-9.9830973E-1,3.954389E-1,1.0893003E0,-8.471165E-2,-1.3113583E0,1.6244127E-3,4.1957006E-2,2.3728263E-1,-4.4798642E-2,1.6749222E-2,-4.3161616E-2,-0E0,1.2998047E0,1.0213877E-2,-4.4130627E-2,-1.992157E-2,4.1508455E-2,-1.1028684E-2,-3.75962E-2,2.2541989E-2,-3.516082E-2,8.429184E-3,3.8772363E-2,-2.3841131E-2,4.4722345E-2,1.0526598E-2,-2.2013593E-2,3.868081E-2,-4.2173382E-2,-1.0195714E-2,3.673342E-2,-3.6223423E-2,1.83136E-2,3.9926257E-2],"categories":[],"categories_nodes":[],"categories_segments":[],"categories_sizes":[],"default_left":[0,0,0,0,0,0,0,0,0,0,0,0,0,0,0,0,0,0,0,0,0,0,0,0,0,0,0,0,0,0,0,0,0,0,0,0,0,0,0,0,0,0,0,0,0,0,0,0,0,0,0,0,0,0,0,0,0,0,0,0,0,0,0,0,0,0,0,0,0,0,0,0,0,0,0,0,0,0,0],"id":19,"left_children":[1,3,5,7,9,11,13,15,17,19,-1,21,23,25,-1,27,29,31,33,-1,-1,-1,-1,35,37,39,-1,-1,41,-1,43,45,47,49,-1,51,53,-1,55,-1,57,59,-1,61,63,65,67,69,71,73,-1,-1,75,-1,-1,-1,-1,77,-1,-1,-1,-1,-1,-1,-1,-1,-1,-1,-1,-1,-1,-1,-1,-1,-1,-1,-1,-1,-1],"loss_changes":[3.1904877E2,7.555643E1,7.965697E1,4.9028545E1,1.6160889E1,5.129238E1,3.3127747E1,5.5548424E1,4.0650024E1,2.2769623E0,0E0,5.1574135E0,4.750717E1,2.2836273E1,0E0,2.4096876E1,2.916563E1,5.18982E1,1.9394913E1,0E0,0E0,0E0,0E0,4.9307648E1,3.1415987E1,1.1454224E1,0E0,0E0,1.859917E1,0E0,2.778363E1,3.8459587E1,2.0798874E1,1.9075119E1,0E0,1.9977844E1,2.2852919E1,0E0,1.3678158E1,0E0,6.6390076E0,2.741581E0,0E0,3.0741432E1,2.2207357E1,1.8532234E1,3.0088026E1,7.9892807E0,2.8967468E1,7.370163E0,0E0,0E0,3.4345963E1,0E0,0E0,0E0,0E0,2.706543E0,0E0,0E0,0E0,0E0,0E0,0E0,0E0,0E0,0E0,0E0,0E0,0E0,0E0,0E0,0E0,0E0,0E0,0E0,0E0,0E0,0E0],"parents":[2147483647,0,0,1,1,2,2,3,3,4,4,5,5,6,6,7,7,8,8,9,9,11,11,12,12,13,13,15,15,16,16,17,17,18,18,23,23,24,24,25,25,28,28,30,30,31,31,32,32,33,33,35,35,36,36,38,38,40,40,41,41,43,43,44,44,45,45,46,46,47,47,48,48,49,49,52,52,57,57],"right_children":[2,4,6,8,10,12,14,16,18,20,-1,22,24,26,-1,28,30,32,34,-1,-1,-1,-1,36,38,40,-1,-1,42,-1,44,46,48,50,-1,52,54,-1,56,-1,58,60,-1,62,64,66,68,70,72,74,-1,-1,76,-1,-1,-1,-1,78,-1,-1,-1,-1,-1,-1,-1,-1,-1,-1,-1,-1,-1,-1,-1,-1,-1,-1,-1,-1,-1],"split_conditions":[1E1,2.1E1,-6E-1,4.31E1,6.8E0,2.4E1,3.8185E-1,4.6E0,8.8E0,3.337E-1,-1.1561943E-3,4.9E0,4.585E1,4.715E1,-1.0647434E-2,7.614E-1,-9E-3,1.55E0,4.8795E-1,-1.974546E-2,-4.202019E-2,-4.258791E-2,-1.1316583E-2,2.5E-1,-3E-1,3.7E-1,-1.1895522E-2,1.7925497E-2,6.45E0,-3.1390365E-2,4.3E0,6.57E-1,-2E-1,1.495E1,9.685644E-3,7.928E-1,4.295E1,2.7970115E-2,4.75E0,9.151632E-3,1.1865E2,1.144E2,9.831902E-3,1.173E2,5.9E0,4.8275E-1,3.5E-1,1.4E-1,9.3E0,1.08E1,1.6244127E-3,4.1957006E-2,7.953E-1,-4.4798642E-2,1.6749222E-2,-4.3161616E-2,-0E0,4.208E-1,1.0213877E-2,-4.4130627E-2,-1.992157E-2,4.1508455E-2,-1.1028684E-2,-3.75962E-2,2.2541989E-2,-3.516082E-2,8.429184E-3,3.8772363E-2,-2.3841131E-2,4.4722345E-2,1.0526598E-2,-2.2013593E-2,3.868081E-2,-4.2173382E-2,-1.0195714E-2,3.673342E-2,-3.6223423E-2,1.83136E-2,3.9926257E-2],"split_indices":[179,174,66,16,141,9,22,119,39,22,0,21,27,27,0,13,104,134,132,0,0,0,0,108,70,155,0,0,2,0,